// Auto-generated from hdr_mlp.h5
// MLP Weights for STM32 Inference

#ifndef HDR_WEIGHTS_H
#define HDR_WEIGHTS_H

// Layer 0: hidden1
// Input: 7, Output: 100
#define HDR_LAYER0_INPUT_SIZE 7
#define HDR_LAYER0_OUTPUT_SIZE 100

static const float hdr_layer0_weights[700] = {
    0.03770338f, -0.18559572f, -0.21826807f, 0.40232548f, -0.22500026f, -0.09353016f, -0.06077562f, 0.41670898f,
    -0.10040040f, -0.12710144f, 0.33955595f, -0.17865501f, -0.07572621f, -0.14761412f, -0.12659454f, 0.36703616f,
    0.51937169f, 0.22800268f, -0.10698423f, 0.31122082f, 0.03542596f, 0.44006297f, -0.10786618f, -0.04736458f,
    -0.03228945f, -0.02575012f, 0.42372796f, -0.12499139f, -0.10608530f, -0.14809453f, 0.22564395f, 0.18523085f,
    -0.03391949f, -0.09200823f, -0.15540576f, 0.41257769f, 0.12230717f, -0.20607249f, 0.13171843f, -0.01739171f,
    -0.09197829f, -0.11125572f, -0.20858820f, -0.15526484f, 0.07030641f, -0.09663068f, -0.20314178f, 0.20912641f,
    0.05306540f, -0.07670134f, 0.29365668f, -0.11206038f, 0.24762721f, 0.00653666f, 0.32160059f, 0.25603932f,
    -0.05588889f, 0.14204259f, -0.02083524f, -0.16153267f, -0.02645786f, 0.37725329f, -0.00035417f, -0.03320333f,
    0.05567931f, 0.39007482f, 0.08682000f, -0.18112616f, -0.08030770f, -0.19340637f, -0.09299682f, -0.19393729f,
    -0.14949672f, -0.17759547f, 0.17043787f, 0.06882933f, 0.06008988f, -0.02103136f, 0.07570469f, -0.14934096f,
    -0.17175362f, -0.07905173f, 0.15957315f, -0.03671826f, 0.14660819f, 0.05695522f, 0.45035732f, -0.01970473f,
    0.29183200f, -0.03909262f, 0.26786727f, -0.07016438f, 0.57236087f, -0.01420100f, 0.12349048f, 0.35057989f,
    -0.15260151f, 0.34730324f, 0.29296821f, 0.02172082f, -1.08990884f, 0.15376437f, 0.22780439f, 0.05580061f,
    0.00805567f, 0.04814228f, -0.07111886f, 0.31681433f, 0.12876932f, -0.02855104f, 1.15983963f, -0.06112120f,
    -0.08798404f, -0.16100863f, 0.70552981f, 0.28717974f, -0.91462761f, 0.40333739f, -0.01151524f, -0.00436166f,
    -0.36852613f, -0.15027536f, 0.16191353f, 0.05199966f, -0.15994440f, 0.31624806f, 0.54196620f, 0.08098570f,
    -1.19561434f, 0.09505153f, -0.65608406f, -1.02487898f, 0.08354266f, -0.14686984f, -0.07788266f, -0.34293067f,
    -0.93447000f, -0.19735062f, -0.12285151f, -0.21311024f, -0.17020278f, 0.09680715f, 0.48831999f, 0.11651739f,
    -1.40526974f, -1.30056119f, 0.22237447f, 0.49407282f, -1.04264963f, 0.04606786f, 0.00654479f, 0.46750614f,
    0.11731409f, -0.14354393f, 0.13776736f, -0.05693522f, 0.08256164f, 0.48013565f, -0.02017428f, -0.19541524f,
    0.82790595f, -0.66966367f, 0.09299736f, 0.03565925f, -0.17959788f, -0.74389309f, 0.14194584f, 0.57932115f,
    0.15560474f, 0.01904890f, -0.09080857f, 0.21339774f, 0.09708983f, 0.14983672f, 0.09723993f, 1.03707659f,
    -0.92245489f, -0.22977433f, 0.29085353f, 0.03335753f, 0.15286520f, -0.03040664f, -0.26348791f, -0.08476727f,
    0.41673937f, 0.15173297f, -0.24937871f, -0.05513120f, 0.91260630f, 1.20598114f, 0.36783975f, -0.15933120f,
    -0.35497600f, -0.10788174f, 0.38911596f, -0.54893810f, 0.11136812f, 0.33472621f, 0.21901414f, 0.66427827f,
    -0.85112220f, 0.19813454f, 0.08224916f, -1.58127582f, 0.04222298f, 0.10156947f, 0.01552302f, 0.80615860f,
    0.09551426f, -0.10184449f, -0.10898764f, -0.18869931f, 0.14191529f, 0.06037357f, -1.84242570f, 1.90209413f,
    -0.04829801f, -1.75063682f, 0.01362568f, 2.03516006f, -0.79273915f, 0.71465266f, -0.21790178f, -0.04980390f,
    -0.08440179f, -1.92555368f, 0.70498478f, 0.12394246f, 1.55482125f, -0.15045272f, 0.83363843f, -1.94429898f,
    -2.74751377f, 0.04452497f, 0.18433043f, 0.86496121f, -2.03664613f, -0.07886888f, -1.75483084f, -0.21458001f,
    0.18629062f, 0.16077235f, -2.48756599f, 0.16450897f, -0.81404251f, 0.94823849f, -0.20123045f, -2.24120402f,
    -1.92044592f, 0.04958653f, -0.79221958f, -1.80031109f, 2.18953180f, -0.15367772f, -1.42835820f, -1.71359897f,
    1.08544111f, 1.76656806f, -0.20734110f, 0.04094335f, 0.11436637f, 0.83424395f, -2.59050441f, -0.21177237f,
    0.73988593f, -0.01219049f, -1.74978733f, -1.68091428f, 1.13933933f, 0.17158785f, 0.01258439f, -0.16473210f,
    0.04930502f, 0.13516778f, -1.99893284f, 1.42648554f, -0.03302872f, -0.07334939f, -1.43845415f, -0.05218168f,
    0.22553468f, -0.12163649f, 0.60714138f, 0.10203418f, -1.86240602f, -2.44115257f, 1.58384013f, -0.03780273f,
    2.25848174f, 1.45266438f, -1.09578860f, -0.00935206f, 0.37293297f, -0.11525784f, -1.65642893f, 0.57443303f,
    -0.04196395f, 0.96629655f, -1.52724147f, 1.74053800f, -5.17048502f, -0.01455449f, 0.22349894f, -3.07567739f,
    -0.15164256f, -0.15451112f, 0.14421135f, 0.79410201f, 0.04068573f, 0.10151410f, 5.28876352f, 0.03850019f,
    -0.21877070f, 0.07292426f, 1.95459878f, -0.09589193f, -1.88505566f, -0.11265492f, 0.21807688f, -1.46367502f,
    3.00932312f, -2.05099058f, -0.08734968f, -0.22052586f, 0.00664181f, -3.56514597f, 0.31071162f, 0.05300245f,
    -2.37578440f, -0.16357435f, -1.42657435f, 0.97083086f, -6.10879326f, 0.12838891f, -0.02053922f, -3.87298298f,
    -4.96084595f, 0.06893265f, -4.79334927f, 0.22456920f, 0.08600488f, -0.09805317f, -6.48066711f, -0.08784239f,
    -4.59818316f, -2.61235023f, 0.00327066f, 1.61959159f, -4.20396996f, -0.11726491f, -5.10532856f, -3.71012592f,
    -0.55030233f, 0.06102000f, -3.35634208f, -3.51491737f, 4.01048565f, 3.62406015f, -0.23492661f, -0.01327255f,
    2.15164065f, -1.23513281f, -6.12384272f, -0.05789469f, 3.64512205f, -0.44033998f, -4.87637329f, 0.98154038f,
    3.44220304f, 0.11140636f, 0.06750241f, 0.08788394f, -0.07547028f, 0.15251282f, -3.14063978f, 4.18935728f,
    -0.09259323f, -0.18676174f, -4.94637394f, -0.07069361f, 0.15740967f, 0.15986231f, 4.06473351f, -0.07110677f,
    -2.48215580f, -5.00132751f, -1.33034980f, -0.06506427f, 1.20270407f, 4.68247986f, -3.47371578f, 0.12873369f,
    -1.03284240f, -0.18734574f, -0.52132964f, -2.74088526f, -0.07614169f, -2.82075214f, -3.75073457f, 4.03900862f,
    0.23750132f, 0.07475016f, -0.18354499f, -0.37043482f, -0.06395763f, 0.14271393f, -0.09520724f, -0.17830490f,
    0.09795342f, 0.14660648f, -0.03043108f, -0.21127559f, 0.02814749f, -0.18949610f, 1.24056792f, -1.52143955f,
    -0.13861807f, 0.99558038f, 0.03044683f, -1.69926906f, 0.56431830f, -1.64178395f, -0.04858976f, 0.01659796f,
    0.21398941f, -2.14826941f, -0.18268870f, 0.05683622f, -1.52568054f, -0.05239135f, -0.69318509f, 2.50749636f,
    -3.90917826f, 0.04759780f, -0.06353047f, -1.53762341f, -0.08869541f, 0.01757288f, -0.96172625f, 0.10879037f,
    -0.05736670f, -0.07891563f, -3.26208186f, 0.09315783f, -0.67772007f, -0.75850338f, -0.15103039f, 1.68625903f,
    2.81167293f, 0.18209511f, -2.80285144f, -1.35276198f, -1.97979033f, -0.10130883f, 0.15069909f, -0.99447680f,
    -1.51987541f, -3.48209023f, 0.10603455f, 0.17789900f, -0.16131173f, -0.74509126f, -3.11154604f, -0.12707682f,
    -0.78784680f, -0.04750909f, -2.85380054f, 0.42200327f, -1.23588800f, 0.10869393f, -0.05045277f, 0.17164162f,
    -0.06529444f, -0.12878540f, -0.74439698f, -1.78647399f, -0.59125006f, 0.02650964f, -2.63181400f, 0.06716567f,
    0.13689044f, 0.14645535f, -0.84845078f, -0.19284372f, -0.53612560f, -2.73001695f, -0.66272306f, 0.20677438f,
    -1.82500064f, -1.01038849f, -0.67515427f, -0.18565154f, -0.31950161f, -0.05792642f, 1.39479184f, -0.86905605f,
    -0.12559983f, -0.96723282f, -0.50838166f, -2.99823761f, 0.73633260f, 0.10810119f, 0.06814760f, -4.00421476f,
    0.19322383f, -0.17563069f, 0.21224356f, -0.10995779f, 0.02693777f, -0.03993490f, 2.42508340f, -0.21362875f,
    -0.10407372f, -0.19031417f, -0.48461759f, -1.00616491f, 1.00077128f, -4.11073208f, 0.00207533f, -0.58430719f,
    3.82907414f, -0.24145864f, -0.18070585f, 0.04834750f, 0.10375705f, -4.68901825f, -0.12508418f, -0.18475200f,
    0.39372528f, 0.05620006f, 1.97550774f, 4.05882263f, -4.23258591f, -0.03156425f, -0.19741672f, -2.73775840f,
    -4.77862310f, -0.21056615f, -5.09479523f, -0.00859553f, -0.23691133f, -0.06924118f, -4.47636318f, 0.05144688f,
    0.63080597f, 1.55728960f, 0.13811398f, -2.59780455f, 0.58231145f, -0.07876183f, -4.46165895f, -3.99007654f,
    -0.34287927f, 0.14568014f, -4.12097740f, -5.14164925f, 3.15334392f, 0.63780743f, -0.22975807f, -0.00681508f,
    -2.30805659f, 1.00117898f, -4.17718935f, -0.01685265f, 4.11217833f, 1.63635314f, -5.10234165f, -1.95563328f,
    3.02206063f, 0.03792804f, -0.13429958f, 0.20451048f, 0.09457999f, -0.05319130f, -4.92346048f, -1.27797878f,
    3.46713328f, 0.20983320f, -4.76874638f, 0.10221252f, 0.01966763f, 0.04683810f, 3.58660698f, 0.01300328f,
    -4.91666365f, -4.63149214f, -0.83370560f, -0.04769221f, -2.43174458f, 0.81405401f, -4.38259554f, 0.14804226f,
    -1.44354773f, 0.19050583f, -3.40723205f, 0.24366654f, -0.23452818f, -2.35910892f, -4.47100925f, 1.16126847f,
    5.16920471f, 0.06560248f, -0.08185498f, 2.62549543f, -0.14580211f, -0.01699719f, -0.17549869f, 0.31922463f,
    0.05246032f, -0.00060201f, -3.96270061f, 0.22339740f, -0.04644506f, -0.02079023f, -2.00736642f, -0.14150012f,
    0.64313847f, 0.50768924f, 0.09906802f, -0.07265005f, -1.84542203f, -0.26578808f, -0.19807559f, -0.11032258f,
    0.03094238f, 1.00680518f, 0.16778423f, -0.09377655f, -0.18065724f, -0.21740291f, 0.06035581f, 0.65074623f,
    2.57213855f, 0.20005190f, -0.22247992f, 1.21460128f, 5.21084118f, 0.04804841f, 4.05510235f, 0.07077220f,
    -0.03183065f, 0.21172810f, 2.85431433f, -0.08694714f, 4.43689966f, -0.01769731f, -0.15824412f, -0.71422905f,
    5.23312330f, -0.14496326f, 3.63001156f, 0.91270566f, -0.19210392f, 0.23364790f, 2.40200543f, 2.99506712f,
    -2.96819234f, -3.65494990f, 0.11609817f, 0.05089873f, -0.83447671f, 0.08621410f, 2.38020945f, 0.23358127f,
    -1.95785952f, 0.23479418f, 2.61174345f, -1.12463617f, -2.91291571f, -0.01236685f, -0.12257668f, 0.04189810f,
    0.09392655f, -0.07246177f, 2.14115357f, -2.83066177f, -0.33691984f, -0.05073991f, 2.78907251f, 0.15620163f,
    0.05903295f, 0.14303496f, -1.68230045f, -0.23437224f, 0.67250824f, 1.92076933f, 0.57797199f, 0.21900946f,
    -0.63025683f, -3.32690883f, 2.30830979f, 0.19348440f, 0.59724951f, 0.18121955f, 0.72094458f, 0.64643919f,
    -0.13434571f, 1.09059703f, 3.66872358f, -3.90422964f,
};

static const float hdr_layer0_bias[100] = {
    0.08317985f, 0.00000000f, 0.00000000f, -0.05718694f, 0.00000000f, 0.00000000f, 0.00000000f, -0.12868182f, -0.00969273f, 0.00000000f, 0.13694218f, 0.00000000f, 0.00000000f, 0.00000000f, 0.17429630f, -0.03633416f, 0.13766821f, -0.03291757f, 0.00000000f, 0.01305626f, 0.13195735f, 0.07778488f, -0.01199691f, 0.00000000f, 0.00000000f, 0.02672766f, -0.15570995f, 0.00000000f, 0.10940427f, 0.00000000f, 0.04812982f, 0.11310185f, 0.02430664f, 0.00000000f, 0.00000000f, -0.08170794f, 0.05231987f, 0.00000000f, 0.02062545f, 0.00000000f, -0.00273729f, 0.00000000f, 0.07196449f, 0.00000000f, 0.05199767f, 0.10685782f, 0.00000000f, -0.02258524f, 0.09526972f, 0.00000000f, 0.02959707f, 0.04810328f, -0.03327977f, -0.00375414f, -0.06006612f, -0.03098073f, 0.09027375f, -0.00935207f, 0.00000000f, 0.00000000f, 0.04375992f, -0.05329159f, 0.01465670f, 0.00000000f, 0.12879984f, 0.00114036f, 0.00346871f, 0.06457170f, 0.13770808f, 0.00000000f, 0.00000000f, -0.00168346f, 0.00000000f, 0.00000000f, -0.00482727f, 0.02436066f, 0.07622150f, 0.00000000f, 0.01993426f, 0.00000000f, 0.00000000f, 0.00000000f, 0.07154516f, -0.00654076f, -0.02083034f, 0.00879275f, -0.08328415f, 0.00000000f, -0.03494337f, 0.05439132f, -0.04939131f, 0.00000000f, -0.13647912f, 0.00000000f, 0.04069141f, 0.04125763f, 0.00000000f, -0.07742121f, 0.00881955f, 0.03351890f
};

// Layer 1: hidden2
// Input: 100, Output: 100
#define HDR_LAYER1_INPUT_SIZE 100
#define HDR_LAYER1_OUTPUT_SIZE 100

static const float hdr_layer1_weights[10000] = {
    -0.01793419f, 0.39499924f, 0.34518456f, 0.11362290f, -0.09416953f, 0.04694244f, -0.16617067f, 0.44379297f,
    0.01923540f, 0.22381279f, -0.00176467f, -0.12847200f, 0.40553403f, 0.52034199f, 0.09736937f, -0.14139678f,
    -0.25046757f, -0.14154899f, 0.14898452f, -0.02552401f, 0.07145675f, -0.43326825f, 0.08946204f, -0.13886885f,
    -0.48176539f, 0.08974266f, 0.44135100f, -0.25673643f, 0.00273937f, -0.23585881f, -0.50816947f, 0.15177014f,
    0.06869270f, -0.13420954f, -0.20530917f, -0.16739951f, 0.07977766f, -0.50993443f, -0.37961084f, -0.50680614f,
    0.07544151f, 0.08208096f, 0.25494918f, 0.23325928f, -0.06179100f, 0.24417795f, 0.52592808f, 0.57463259f,
    0.55056345f, 0.09790036f, 0.56173933f, 0.02239486f, -0.12960792f, -0.00849935f, 0.02116546f, 0.28044456f,
    -0.11921083f, -0.15411235f, 0.08716314f, -0.42910385f, 0.15803948f, 0.06410575f, 0.02891749f, -0.04759914f,
    0.03928205f, 0.05157566f, 0.04888566f, -0.19705579f, -0.22889645f, -0.14983644f, -0.02764726f, 0.08678862f,
    0.45262194f, 0.06047888f, -0.16552043f, 0.26763743f, -0.04649427f, 0.13009390f, -0.13885964f, -0.36645037f,
    -0.23116419f, -0.26235664f, -0.07421663f, -0.03301993f, 0.16044803f, 0.24427228f, 0.06552424f, -0.36131284f,
    -0.01711340f, 0.25487810f, 0.02371201f, -0.30497998f, 0.24698880f, 0.16684088f, -0.19862919f, -0.38495809f,
    0.04956717f, -0.03627881f, -0.23002434f, -0.05151598f, -0.09318645f, -0.16420439f, 0.05193976f, 0.00959282f,
    0.05971512f, 0.10697839f, 0.13238165f, 0.00625083f, -0.14472052f, 0.12109855f, 0.12669405f, 0.09439084f,
    0.00801347f, 0.09465769f, 0.16606465f, -0.00172222f, 0.02931359f, 0.03718811f, -0.05948011f, 0.13393635f,
    -0.04327551f, -0.01430267f, -0.06938520f, 0.16658393f, 0.16581368f, -0.08326390f, -0.14028934f, 0.13604695f,
    0.02162752f, -0.07181403f, -0.07702038f, -0.15456219f, -0.09506209f, 0.06174454f, 0.11764243f, 0.05724059f,
    0.16859618f, 0.13079831f, 0.13598922f, -0.12137707f, 0.06970350f, -0.10287958f, -0.07218502f, -0.16530748f,
    -0.07363977f, 0.14707774f, 0.12960160f, -0.11066697f, 0.07924929f, 0.16832867f, -0.16522460f, 0.11744547f,
    0.01479433f, -0.07164150f, 0.07508631f, 0.01270318f, -0.10936678f, 0.03560407f, 0.08219656f, 0.09881485f,
    -0.11150935f, 0.17213726f, -0.05694417f, -0.12241226f, -0.05132643f, 0.05878833f, -0.10466763f, 0.17255682f,
    -0.11829846f, -0.05264793f, 0.12287146f, 0.08328167f, -0.03570211f, 0.01662610f, 0.06108212f, -0.01965000f,
    0.07695359f, -0.10020435f, -0.06151758f, 0.06170391f, 0.06598763f, -0.12180443f, 0.03193581f, -0.08506148f,
    0.00377075f, -0.15023477f, 0.03186676f, 0.08670670f, 0.11089239f, -0.08389092f, -0.03159133f, -0.12813455f,
    0.14503482f, -0.13186781f, -0.06509982f, -0.00251621f, -0.12033011f, 0.14568350f, 0.09706190f, -0.07829239f,
    0.10086808f, 0.06034751f, 0.15574935f, 0.07523228f, -0.13373214f, 0.10946667f, 0.06375685f, -0.14749809f,
    0.17037606f, -0.00512953f, -0.04697672f, 0.14736211f, 0.10007274f, 0.04611443f, 0.00049868f, 0.10297418f,
    -0.15365666f, -0.09486424f, -0.15765978f, 0.13052848f, 0.12859589f, -0.00359336f, -0.16669591f, -0.11974574f,
    0.06837070f, -0.05904271f, 0.10911813f, -0.14930125f, 0.04766156f, -0.01353718f, -0.08975147f, -0.12242432f,
    0.08543521f, 0.07309762f, -0.02864614f, -0.03696243f, -0.03191347f, 0.16111612f, -0.12947834f, -0.05583390f,
    0.17296189f, 0.04042749f, 0.02729702f, 0.04374696f, 0.04290330f, 0.00745261f, -0.03665896f, 0.02452214f,
    0.14220262f, -0.14358850f, 0.11343920f, -0.05762785f, 0.08238384f, -0.00663702f, -0.06417216f, -0.01274167f,
    -0.15403637f, 0.09819913f, 0.16204777f, -0.10523589f, -0.14554986f, 0.12530228f, -0.10121728f, -0.16794266f,
    -0.08836040f, -0.10518341f, -0.07147652f, 0.12908587f, 0.01916747f, -0.10889680f, 0.07724664f, -0.11604126f,
    0.15436769f, 0.12145582f, 0.05364376f, -0.17084521f, -0.12557861f, 0.04082285f, -0.04731101f, 0.06333457f,
    -0.08911210f, 0.13198087f, 0.13684759f, 0.01846391f, -0.04821301f, 0.11347055f, 0.05160695f, -0.16951562f,
    0.14349055f, -0.09592834f, 0.10478285f, -0.04058111f, -0.06643317f, 0.10981026f, 0.01036912f, 0.07188621f,
    -0.16888295f, 0.07029217f, -0.03254925f, 0.08534816f, -0.14028418f, 0.44276485f, 0.18899390f, -0.03964688f,
    -0.10385275f, 0.21798876f, -0.12842375f, 0.16260578f, 0.02141392f, 0.42004335f, 0.13657680f, 0.07943247f,
    0.43539116f, 0.24782442f, 0.02204379f, -0.00907162f, 0.10681105f, -0.18411964f, 0.01878871f, -0.17489992f,
    0.24456574f, -0.01991421f, -0.47278315f, -0.09992922f, 0.12352907f, 0.05828425f, 0.41057491f, 0.14040591f,
    -0.12806045f, 0.21934195f, -0.33592686f, 0.02467316f, 0.13028398f, -0.00971650f, 0.05406454f, 0.00783174f,
    0.29636878f, 0.22586085f, 0.01423963f, -0.41557360f, 0.24664468f, -0.05273286f, 0.23145692f, 0.53750342f,
    0.01372853f, 0.46058828f, 0.35327861f, 0.17606398f, 0.42129466f, 0.15445213f, -0.53554475f, 0.09856923f,
    0.07057056f, -0.13516784f, 0.06230034f, 0.02026528f, 0.03419906f, -0.02116244f, 0.33078200f, 0.28787491f,
    -0.00223647f, 0.02468992f, -0.09257479f, 0.03377835f, 0.01086975f, 0.27819023f, 0.03046651f, -0.29355618f,
    -0.22810914f, 0.14875421f, -0.06684017f, 0.08524829f, -0.17725036f, -0.15440695f, -0.13990405f, 0.09010471f,
    0.23282900f, -0.09374952f, -0.13988855f, -0.16756055f, 0.51098186f, 0.02758647f, -0.09015682f, -0.16591288f,
    0.21713145f, -0.06953940f, 0.29736373f, -0.08485597f, 0.27464560f, 0.11087207f, -0.05033956f, 0.01408013f,
    -0.04219553f, -0.14466444f, 0.29503793f, 0.02202503f, -0.17253689f, 0.14540493f, -0.37998652f, -0.08442051f,
    0.03000575f, -0.12808359f, -0.06887578f, 0.11873862f, 0.08605981f, 0.01224712f, 0.11947170f, 0.14432400f,
    0.01640663f, 0.12933233f, -0.09378714f, -0.04709701f, 0.07105337f, 0.00556594f, -0.13191774f, 0.09513602f,
    0.03273900f, 0.11211726f, 0.15781951f, 0.02143528f, 0.08096808f, -0.05889058f, 0.11188015f, 0.05211274f,
    0.16074538f, -0.14674470f, -0.09474428f, -0.05971855f, 0.14979184f, -0.08171528f, -0.10646439f, -0.00218040f,
    -0.06894735f, 0.06525794f, -0.08715850f, -0.08401064f, -0.00958589f, 0.06780189f, 0.13413087f, 0.12123692f,
    -0.08289926f, -0.06094679f, -0.09303581f, -0.04980764f, 0.06020378f, 0.05439864f, -0.12901628f, -0.06939474f,
    0.11328021f, -0.00488301f, -0.13765758f, 0.05888496f, -0.07073874f, 0.02454279f, 0.15216917f, -0.09625210f,
    0.11060342f, -0.11712254f, 0.12080711f, -0.16962519f, -0.13201594f, 0.13290638f, -0.04230250f, -0.15079308f,
    0.09915438f, -0.06535094f, -0.09724475f, -0.16576932f, 0.09036243f, 0.06085826f, -0.00282666f, -0.12902555f,
    -0.14385477f, -0.14094800f, -0.16633184f, 0.09698129f, -0.02039158f, 0.01456332f, -0.12741539f, -0.11075414f,
    0.08714300f, 0.08025166f, 0.04666097f, 0.16554669f, 0.04779164f, 0.13656533f, -0.10767376f, -0.08477167f,
    0.01151709f, -0.06824607f, 0.13120225f, -0.01745176f, 0.14308873f, 0.16607139f, 0.10978106f, 0.16961256f,
    -0.07910005f, -0.00299813f, 0.01795115f, -0.04246078f, -0.16415615f, 0.04108424f, 0.05982386f, -0.02453011f,
    0.08963832f, 0.12254584f, -0.01018739f, -0.11662047f, -0.09988584f, -0.09319088f, 0.11200011f, -0.08499537f,
    -0.04398875f, 0.13087341f, -0.15621264f, -0.02234638f, 0.04375407f, -0.05277825f, -0.11698444f, -0.01547240f,
    0.06472209f, -0.16955449f, -0.06183188f, 0.07446936f, 0.04139562f, -0.08926894f, -0.11966724f, -0.09687302f,
    -0.12773600f, -0.03770092f, 0.00144546f, -0.06853745f, -0.03561968f, 0.05948989f, -0.00901774f, -0.13655549f,
    -0.06497495f, -0.00789282f, -0.10970194f, 0.14559275f, -0.13290378f, -0.13312963f, -0.09262881f, -0.08994792f,
    -0.09881740f, 0.13019407f, -0.00892676f, -0.11888221f, -0.02057700f, -0.06456290f, 0.06267777f, 0.11162323f,
    0.02176894f, 0.15914452f, -0.05762529f, -0.11662571f, -0.10169403f, 0.05825059f, 0.16140890f, 0.16310370f,
    -0.12733549f, 0.05534595f, -0.13584554f, -0.17289078f, -0.02151081f, 0.10307741f, -0.03750452f, 0.11699703f,
    0.05325076f, -0.02171704f, 0.14756295f, -0.06067945f, 0.10463241f, 0.11405897f, 0.13754278f, 0.02429155f,
    0.04137203f, 0.10507190f, 0.12547728f, 0.00842395f, -0.15401122f, 0.13473618f, -0.14416279f, 0.02902758f,
    -0.09231096f, -0.09989628f, -0.00163943f, 0.03415340f, -0.01839401f, 0.02659537f, -0.15138347f, -0.03686403f,
    -0.02602480f, 0.04505925f, 0.03966448f, -0.17304039f, 0.06586078f, 0.02069940f, 0.03707390f, -0.04449433f,
    -0.11448488f, 0.03564735f, 0.03979781f, 0.06272011f, -0.13792343f, -0.03760983f, -0.13737397f, 0.01818687f,
    0.08096847f, -0.08106951f, 0.06822175f, 0.02194887f, 0.07507512f, -0.09497293f, 0.00137988f, 0.08841306f,
    -0.02407186f, -0.07559065f, 0.04543306f, -0.09575750f, -0.11919799f, 0.08197060f, -0.17067900f, 0.00103296f,
    -0.12524198f, 0.09064266f, -0.15187819f, -0.07569839f, -0.10644551f, 0.16299137f, -0.08135746f, -0.07057269f,
    0.06333809f, 0.03431375f, -0.04422727f, 0.14615658f, 0.02320619f, 0.11522016f, 0.15055832f, -0.04892478f,
    -0.06375141f, -0.07588067f, 0.06665161f, -0.14191867f, -0.12699984f, -0.13675623f, 0.02688779f, 0.04073179f,
    -0.02387191f, -0.04799651f, -0.04702201f, 0.13116026f, 0.04285052f, -0.00823292f, 0.14924583f, -0.09528735f,
    -0.04301617f, -0.00503241f, -0.03194346f, 0.00552668f, -0.07418483f, -0.03554663f, -0.00746487f, -0.02798508f,
    -0.10159096f, 0.09789798f, -0.00385079f, -0.05148187f, -0.06704553f, -0.06375397f, -0.05614614f, -0.04213963f,
    -0.15163906f, 0.09741306f, -0.16518189f, 0.05051263f, -0.10287528f, -0.15742126f, -0.03457400f, -0.02995831f,
    -0.05346710f, 0.05792217f, 0.09791151f, -0.14315832f, 0.08649203f, 0.16103911f, 0.10804078f, 0.00942293f,
    0.10173595f, -0.14188522f, 0.02042826f, 0.07878855f, 0.16323215f, 0.05349022f, -0.06698021f, -0.09282644f,
    0.14966634f, -0.03351982f, 0.10865441f, 0.08859581f, -0.08964455f, 0.38596430f, -0.06687982f, -0.12295389f,
    0.13382584f, 0.03814299f, -0.12278966f, -0.22021542f, -0.28252271f, -1.00460327f, -0.47423020f, -0.00466056f,
    0.11699015f, 0.00656970f, -0.07878706f, 0.00534446f, -0.16172634f, -0.32785344f, -0.01591790f, 0.14888209f,
    0.53032404f, -0.04045921f, -0.44615370f, -0.04109515f, 0.45860210f, 0.21653436f, 0.38211003f, -0.03327133f,
    0.08686630f, -0.14131378f, 0.57295901f, 0.10068782f, -0.11662604f, 0.13770899f, 0.06179307f, 0.18237899f,
    0.40081853f, 0.77953690f, -0.00940875f, -0.36513820f, 0.43688190f, 0.09736847f, -1.06091237f, -0.68775064f,
    -0.04434505f, -0.33490753f, 0.16824603f, 0.20444353f, 0.38327929f, 0.20289443f, -0.71526855f, -1.05890179f,
    0.15089272f, -0.03067936f, 0.12158094f, 0.12576386f, -0.11456335f, 0.05729018f, -0.57642043f, 0.24896158f,
    0.11716132f, 0.25315720f, -0.11034321f, 0.05689058f, 0.04974536f, 0.48770481f, -0.07349841f, -0.13600421f,
    0.14662673f, -0.11830556f, 0.01410156f, -0.13962989f, -0.57245624f, 0.01686277f, 0.13627838f, 0.14987287f,
    0.53815764f, -0.04901658f, 0.06562816f, -0.22105725f, -0.13651745f, -0.20056072f, 0.00402109f, -0.04020016f,
    0.24881260f, -0.11487830f, -0.38696915f, -0.11523921f, -0.88765585f, -0.31997049f, 0.05574660f, -0.28108764f,
    0.28522843f, -0.05934714f, -0.03012675f, -0.23323780f, -0.02542868f, 0.27442589f, -1.24894083f, -0.05930126f,
    0.03848507f, -0.03870286f, 0.01479061f, -0.10430406f, -0.02751572f, -0.10686010f, 0.17020610f, -0.14770047f,
    0.09567970f, -0.01825777f, -0.10302180f, -0.04255250f, -0.03363103f, -0.00380990f, 0.13139918f, -0.00972323f,
    -0.02651989f, -0.04250412f, 0.03471048f, 0.08058354f, -0.02743661f, -0.12880799f, -0.12610278f, -0.08230952f,
    0.06554577f, -0.02475394f, -0.03500569f, 0.05283342f, 0.14061341f, -0.11188436f, -0.06047987f, 0.08379495f,
    -0.10419304f, 0.05625668f, 0.03040992f, -0.02883428f, -0.05805660f, 0.07422315f, -0.09027304f, -0.01302843f,
    0.06687190f, 0.08349556f, -0.04663761f, 0.02731893f, -0.14814474f, 0.10817323f, -0.14998487f, 0.11105853f,
    -0.16347389f, 0.06846832f, -0.07346456f, -0.15971337f, 0.02769007f, -0.14436093f, -0.17682573f, -0.09602886f,
    0.02457140f, -0.12424305f, -0.03899878f, 0.05100606f, 0.01366331f, 0.06991848f, -0.12060407f, -0.16683954f,
    -0.03378220f, -0.06120626f, -0.11627088f, -0.12010942f, 0.12806931f, 0.12147945f, 0.15148094f, -0.16372256f,
    0.08937746f, -0.09901069f, -0.04618925f, -0.02583490f, 0.05860217f, 0.08268589f, 0.17087343f, -0.11149368f,
    0.07181051f, 0.13982923f, 0.04088087f, 0.07219712f, 0.01851818f, 0.01706071f, 0.16022915f, 0.03978324f,
    -0.13805830f, 0.13021898f, 0.04160771f, 0.06711934f, 0.12108570f, 0.00235845f, -0.10918393f, -0.05555577f,
    0.05227633f, -0.16582334f, 0.01616678f, -0.16621044f, -0.01414204f, -0.14805260f, -0.15201901f, 0.17204848f,
    -0.13347036f, 0.08947831f, -0.03459284f, -0.02433087f, -0.05650714f, 0.11878896f, 0.14448109f, 0.13465995f,
    0.11960807f, -0.01296070f, 0.12509385f, -0.05966350f, -0.13129315f, 0.15688384f, 0.01293077f, 0.13238516f,
    -0.01573092f, 0.14662710f, 0.01841068f, 0.06476995f, 0.09312779f, -0.05977322f, -0.17060025f, 0.04487211f,
    0.13985601f, 0.01342168f, 0.02425832f, 0.02532588f, -0.12612347f, 0.06696133f, -0.13509157f, -0.14791843f,
    -0.01521438f, -0.08743658f, -0.04008466f, 0.16140735f, 0.08980229f, -0.09703980f, -0.00126359f, 0.02335411f,
    0.04963978f, -0.04156080f, 0.10706055f, -0.05485851f, 0.10285023f, 0.13803634f, 0.00258268f, 0.16556463f,
    -0.07337545f, 0.15360367f, 0.05430415f, 0.02720663f, -0.01312695f, 0.00265311f, 0.11028510f, -0.04096721f,
    -0.02534232f, -0.07321555f, 0.07815421f, -0.01695795f, 0.15649551f, 0.10535103f, -0.05042859f, 0.04225245f,
    -0.14436671f, -0.12946054f, -0.07171950f, 0.13443953f, -0.04703052f, 0.00785503f, -0.05061186f, 0.03399628f,
    0.11417022f, 0.08853838f, 0.12089458f, 0.08070073f, -0.02649619f, -0.07598593f, -0.03353085f, 0.07292086f,
    0.00579844f, -0.04640019f, -0.06783333f, 0.11883259f, -0.06094721f, -0.13759501f, -0.14395966f, 0.08239552f,
    0.05553517f, 0.15137368f, 0.08063507f, 0.08858117f, -0.13208631f, -0.05194871f, -0.09974667f, -0.06787330f,
    0.06270809f, 0.01097629f, -0.02227226f, -0.12798759f, -0.13654798f, -0.02624601f, -0.14937545f, 0.11853237f,
    0.35643336f, 0.04393712f, 0.20904341f, -0.04401741f, 0.15885888f, -0.19755572f, -0.04375574f, 0.18599899f,
    0.21112430f, 0.12394008f, -0.14751948f, -0.13906963f, -0.06520858f, 0.32779709f, -0.05531490f, 0.09617016f,
    0.19508439f, -0.16160750f, 0.16820985f, -0.08608834f, -0.15578082f, -0.00021626f, 0.33068344f, -0.16206911f,
    0.05180241f, 0.02204001f, 0.51388842f, 0.33282623f, 0.02196336f, 0.41108713f, 0.23605308f, 0.33187649f,
    -0.11999904f, 0.00375189f, 0.07493248f, -0.24695937f, 0.09726735f, -0.02104721f, -0.04346504f, -0.01400752f,
    -0.23829292f, 0.04590797f, -0.32654709f, 0.17139395f, 0.02044360f, 0.10357177f, 0.22735937f, 0.03971642f,
    0.21180823f, -0.11193085f, 0.06388329f, 0.32951143f, 0.24395368f, 0.20652053f, 0.10224018f, -0.05072894f,
    0.33702496f, 0.01684161f, 0.04664222f, 0.14896877f, 0.39759618f, -0.09476328f, -0.17083959f, 0.03725506f,
    -0.04146391f, 0.15448515f, 0.15511188f, 0.08456067f, 0.03081087f, 0.14418584f, -0.11806865f, 0.28874329f,
    -0.10134679f, 0.16656342f, -0.11291315f, -0.08738353f, 0.00929422f, 0.22163008f, 0.04381708f, 0.24606115f,
    -0.05328079f, 0.14639796f, 0.13022989f, 0.28392401f, 0.16242646f, -0.04325031f, -0.03294793f, 0.16763943f,
    -0.06895259f, 0.00294820f, 0.31769559f, -0.02260084f, 0.16169643f, -0.12224989f, -0.17187995f, 0.08305192f,
    0.06960250f, 0.00297524f, 0.00743419f, 0.11540559f, 0.10293269f, 0.09251431f, 0.15573531f, 0.03004989f,
    -0.01671572f, -0.09474110f, -0.06409296f, -0.01064858f, -0.03967240f, 0.05836889f, 0.00945093f, -0.04598777f,
    0.15712494f, -0.04731782f, 0.09977046f, 0.16284913f, 0.01034310f, -0.06202506f, 0.07940534f, 0.08947611f,
    0.11023968f, 0.04036902f, 0.14197090f, 0.00877711f, 0.03446361f, 0.15998429f, 0.00228153f, -0.04738438f,
    0.08071223f, 0.06670637f, -0.09843022f, -0.14507046f, -0.02954064f, -0.08327988f, 0.15578118f, -0.14870057f,
    0.16090396f, 0.12270629f, -0.00820017f, 0.08145297f, 0.06206144f, 0.05698727f, -0.08238501f, -0.07874008f,
    0.01354721f, 0.03554267f, 0.06211008f, 0.08446997f, 0.15961990f, -0.08321826f, 0.01265408f, 0.00316049f,
    -0.10515689f, 0.00187026f, -0.16105707f, 0.14185941f, 0.09220013f, -0.07221401f, 0.08116990f, 0.07688811f,
    -0.14182498f, -0.02933264f, -0.02072145f, 0.06410266f, 0.00950527f, 0.06856516f, 0.04043120f, 0.00258541f,
    -0.09148984f, 0.09658661f, 0.03564115f, 0.12600246f, 0.13839635f, 0.04514325f, -0.12475792f, -0.08629406f,
    0.16050392f, 0.11375213f, -0.14673834f, -0.12912461f, -0.15642357f, -0.15538169f, -0.12291173f, -0.03331259f,
    -0.04262869f, 0.13451496f, 0.00342342f, 0.14747921f, -0.14919953f, 0.07024856f, 0.07625666f, 0.15164092f,
    -0.08191680f, 0.10475436f, -0.03060350f, 0.09571493f, 0.16109812f, 0.06898166f, -0.14331603f, 0.04471254f,
    0.05568482f, -0.04020333f, 0.05966309f, 0.03400545f, 0.00257394f, -0.01148617f, -0.00365439f, 0.16987506f,
    0.08890235f, -0.16060171f, -0.11987025f, 0.11285782f, 0.04295704f, 0.04417995f, 0.01985614f, -0.11861347f,
    0.05738880f, 0.16677952f, -0.01675099f, 0.13423842f, -0.04456957f, 0.02480890f, 0.00129007f, -0.10203460f,
    -0.05986717f, 0.14996046f, -0.09623318f, -0.08468342f, -0.15653160f, -0.01191960f, -0.16269386f, 0.00874594f,
    -0.06294483f, -0.07549641f, -0.10381124f, 0.01589841f, -0.02917807f, -0.15298706f, -0.06933069f, -0.11044501f,
    0.01579182f, 0.01536722f, 0.04835260f, -0.10570938f, 0.09894055f, 0.02518047f, 0.01705281f, -0.07877543f,
    -0.15617113f, -0.16661443f, -0.04828532f, 0.04197338f, -0.16178259f, 0.03074175f, -0.14049308f, -0.01895984f,
    0.04861176f, -0.02903961f, 0.04342008f, 0.06612784f, -0.15991038f, -0.14403795f, 0.11293474f, -0.05752391f,
    -0.05683006f, -0.01891349f, -0.12582925f, 0.11492515f, 0.05538300f, -0.06533285f, -0.13704266f, 0.07080266f,
    -0.14757180f, -0.14815286f, 0.04449937f, -0.16995299f, -0.00897542f, 0.10543883f, 0.07428601f, -0.05752432f,
    0.12043321f, 0.02377929f, -0.09821222f, -0.03646354f, -0.07421085f, -0.06475439f, 0.14454031f, 0.08469895f,
    -0.06591417f, 0.05448036f, -0.11845848f, -0.04594231f, -0.07917442f, 0.09729838f, -0.15384653f, -0.06055507f,
    0.09262508f, 0.16922340f, -0.17280324f, 0.02024730f, 0.01127994f, -0.16642295f, -0.03260042f, -0.15082058f,
    -0.13343596f, -0.00747478f, 0.03616974f, 0.00663541f, -0.16898677f, 0.04741177f, -0.08547906f, -0.01510017f,
    -0.14183047f, 0.15372339f, -0.13449180f, -0.13099846f, 0.10128596f, -0.03562394f, 0.02525517f, -0.05614717f,
    -0.12221627f, 0.14144316f, 0.05013193f, 0.16575453f, -0.07548022f, -0.02442390f, -0.07401279f, -0.05097765f,
    -0.12685110f, 0.05125371f, -0.10827915f, 0.00726847f, 0.05022939f, 0.06202225f, 0.05036248f, 0.05604835f,
    -0.05513816f, 0.13815871f, -0.07988916f, 0.11777088f, -0.15914121f, -0.11809847f, -0.17054784f, 0.09419090f,
    0.15288696f, -0.15020207f, -0.01750860f, 0.15442881f, -0.14910439f, -0.01872896f, -0.03040454f, -0.15551277f,
    0.10560453f, 0.16539490f, -0.14713022f, -0.04683144f, 0.06947523f, -0.10478941f, 0.12700513f, -0.00634210f,
    0.16167238f, 0.00402357f, 0.02496822f, -0.12475333f, -0.09208173f, 0.05289210f, 0.03601356f, 0.09702057f,
    -0.16453756f, -0.09095899f, -0.08539676f, -0.16757256f, 0.15053421f, -0.16864604f, -0.00556883f, 0.01526593f,
    0.09690490f, -0.09510351f, 0.02513963f, 0.05269744f, -0.12311824f, 0.07604490f, -0.01891482f, 0.10125643f,
    -0.15033156f, -0.02259126f, -0.01318464f, -0.13237591f, 0.16963527f, 0.07151228f, 0.00754078f, 0.01757821f,
    0.09830340f, -0.36416328f, 0.16551083f, -0.09079923f, 0.16861534f, -0.26869911f, -0.03711127f, 0.31757036f,
    0.21906891f, 0.38474187f, 0.53915268f, 0.11313105f, -0.02412950f, 0.11166492f, 0.03257231f, -0.06983036f,
    0.44630530f, -0.09558126f, 0.01854676f, 0.08043843f, -0.11715020f, 0.24502271f, -0.20313866f, 0.03946315f,
    -0.04981429f, -0.14219828f, 0.19215940f, 0.40951064f, -0.05653589f, 0.23626512f, -0.33455133f, 0.13933615f,
    -0.14845882f, 0.07047994f, 0.63083065f, 0.07680347f, -0.01330892f, 0.06302985f, 0.52724051f, 0.59912741f,
    -0.28993267f, -0.15546879f, 0.57362682f, 0.36226633f, 0.02428355f, -0.00559464f, 0.04228238f, -0.27768901f,
    0.08541696f, -0.19915715f, -0.36586305f, 0.60316712f, 0.06396843f, -0.16046403f, -0.17230868f, -0.19912851f,
    -0.14232524f, 0.03054461f, 0.35361028f, 0.20005590f, -0.35044724f, -0.59208167f, 0.06229934f, -0.10089826f,
    -0.31632170f, -0.00204747f, -0.11042661f, -0.09280767f, 0.43796390f, -0.02049111f, -0.10170072f, -0.05132615f,
    0.16701134f, -0.03620127f, -0.00413080f, -0.25146273f, -0.28051752f, -0.15094757f, -0.08611864f, 0.47313651f,
    0.34099543f, 0.29148498f, 0.12446538f, -0.01280115f, -0.34480038f, 0.31209090f, 0.43256477f, 0.48858586f,
    0.33987719f, 0.44739991f, -0.12478431f, 0.26511812f, -0.48034793f, -0.15054184f, 0.20491616f, 0.40103474f,
    -0.20528774f, -0.14079574f, 0.68989772f, 0.11384850f, -0.17513964f, -0.06181252f, -0.22123121f, 0.03338525f,
    0.05016360f, 0.29174659f, 0.08608267f, -0.00908790f, 0.18368027f, -0.58136660f, -0.12885156f, -0.11013691f,
    0.03623499f, -0.07426383f, -0.00223289f, 0.16964741f, 0.10204975f, 0.15570171f, 0.00284202f, -0.14270902f,
    0.10945086f, 0.21773632f, 0.19910845f, -0.01366321f, 0.12176348f, -0.11109152f, 0.08730350f, 0.17139786f,
    -0.11380868f, 0.04950618f, 0.46176490f, 0.12652917f, -0.09377828f, 0.02231239f, 0.24763379f, -0.08509350f,
    0.24716043f, 0.17759532f, 0.27019170f, -0.33443916f, 0.34083402f, 0.01780947f, -0.58107591f, -0.33853903f,
    -0.09655959f, -0.15718746f, -0.03384909f, 0.12853320f, 0.10347193f, 0.01935016f, -0.09574035f, -0.29061475f,
    -0.15441807f, -0.03367712f, 0.24719162f, 0.32165053f, 0.40358353f, -0.04206766f, 0.09018097f, 0.20509170f,
    0.14892814f, 0.29001778f, -0.11239493f, -0.15217298f, 0.32115522f, -0.02200688f, -0.11867151f, 0.33835840f,
    0.25219053f, -0.00811234f, -0.16394159f, -0.12449367f, -0.46342036f, 0.09484968f, 0.10241733f, 0.20304608f,
    0.02302348f, 0.01198108f, 0.15317822f, 0.01600154f, 0.02306538f, 0.19727650f, 0.16139397f, 0.10598366f,
    0.08959309f, -0.35139409f, 0.11610396f, 0.10395225f, -0.29864728f, -0.20230870f, 0.02034768f, 0.17614502f,
    0.11745654f, -0.16376688f, 0.03252270f, 0.12491341f, 0.28575751f, 0.45254561f, -0.33448485f, -0.06754763f,
    -0.12368389f, 0.19215293f, 0.11680654f, -0.06754804f, 0.06534623f, 0.11300828f, -0.12004030f, 0.26224884f,
    0.06870722f, 0.11143653f, 0.10529827f, 0.04671752f, 0.18288416f, 0.26274499f, 0.03615317f, 0.09124632f,
    -0.16585852f, 0.08500578f, 0.09113032f, -0.13291636f, 0.11543645f, 0.02822889f, 0.04624618f, 0.07407016f,
    0.05106958f, 0.18068616f, 0.07039799f, -0.16136546f, 0.11130594f, -0.09602432f, 0.05963617f, -0.02660140f,
    -0.09580176f, 0.02143887f, -0.09928089f, 0.04453351f, 0.15555736f, 0.18054871f, -0.07433577f, 0.04804825f,
    0.14906636f, -0.00683516f, -0.08735860f, 0.11783706f, -0.17876308f, 0.24548015f, 0.22312497f, 0.31357038f,
    0.17197727f, 0.25726819f, 0.32756239f, -0.05020465f, 0.07277843f, 0.06860934f, -0.08783283f, 0.05971353f,
    0.09746252f, -0.13379568f, -0.07989858f, -0.06808165f, 0.20814429f, 0.08223037f, 0.01048538f, 0.09120114f,
    0.04318267f, 0.09891208f, -0.11283327f, 0.08061089f, 0.05346016f, -0.11666499f, -0.03080931f, -0.10398881f,
    0.28275761f, 0.17537716f, -0.12393660f, 0.00734757f, -0.04809876f, -0.14286071f, 0.10263321f, 0.10682322f,
    0.10889032f, -0.01419479f, -0.15649286f, -0.13583887f, -0.08047859f, 0.24337408f, -0.06392568f, -0.02937450f,
    -0.11696540f, 0.31323060f, -0.14593105f, 0.10763974f, 0.11683430f, -0.16561376f, 0.12236167f, -0.07532294f,
    0.16967161f, 0.17607176f, -0.22740582f, 0.02932199f, 0.03499701f, 0.29695734f, -0.03649119f, 0.12198018f,
    0.08233956f, 0.07288083f, -0.14405009f, 0.09249300f, -0.09000958f, 0.15187721f, 0.08637308f, 0.10893013f,
    0.21091226f, 0.07130057f, -0.09921263f, 0.03752769f, 0.17859337f, -0.28167459f, 0.07754490f, 0.07185476f,
    0.09449305f, 0.31645608f, -0.81286716f, -0.17144923f, 0.04405848f, 0.13714179f, 0.31609842f, 0.28156149f,
    0.00908384f, 0.38940343f, -0.27259344f, -0.12120927f, 0.06460487f, 0.10573259f, 0.13509914f, 0.17904316f,
    0.03238450f, 0.61602825f, 0.31804329f, 0.16582362f, 0.15115790f, 0.13143124f, 0.33827737f, 0.46644938f,
    -0.13875537f, 0.43289801f, 0.21140023f, 0.29235932f, 0.28527471f, 0.08506473f, -0.68450809f, 0.27409312f,
    -0.05201156f, -0.13480535f, 0.09788425f, -0.02932013f, -0.00323668f, -0.05337320f, 0.38731217f, 0.35925928f,
    -0.02656084f, -0.09565219f, -0.00321318f, -0.12392168f, -0.02801356f, 0.38884512f, 0.12887460f, -0.23245957f,
    0.05367934f, -0.01333641f, -0.06469133f, -0.08517162f, -0.42739463f, 0.08215535f, -0.04173802f, -0.03791094f,
    0.16082832f, 0.10170436f, -0.14566292f, -0.00770296f, 0.51739889f, -0.00042521f, 0.01298006f, 0.01810482f,
    0.05682342f, 0.22675195f, 0.37649149f, 0.09078170f, 0.35070765f, 0.08316479f, -0.10895655f, 0.12813932f,
    -0.16166851f, 0.15576446f, 0.37206453f, 0.20693035f, -0.40818283f, 0.00994292f, 0.00420256f, -0.15224977f,
    -0.15265946f, 0.16535091f, -0.13124920f, -0.13085142f, -0.08374325f, -0.14398700f, -0.08178957f, 0.10643718f,
    -0.01481861f, 0.10544613f, -0.00315554f, 0.03880933f, -0.14004779f, 0.06910229f, 0.13275596f, 0.05298758f,
    -0.15331879f, -0.15334588f, -0.13074838f, -0.16989687f, 0.15472877f, -0.15808451f, 0.07346626f, 0.03026579f,
    -0.15867256f, 0.02001113f, -0.08208789f, 0.11988384f, -0.07820725f, 0.02134708f, 0.02211326f, 0.09642652f,
    -0.02866670f, 0.15493309f, 0.11065322f, -0.16599876f, 0.11665797f, -0.16147923f, 0.15436414f, 0.09348473f,
    -0.00998323f, 0.01564308f, 0.02189113f, 0.16059721f, 0.02788751f, 0.07154205f, 0.10333776f, 0.05344357f,
    -0.15522325f, 0.12773374f, -0.10747492f, -0.16106777f, -0.07844680f, -0.14036697f, 0.03745295f, -0.06833077f,
    0.13296655f, -0.00303739f, 0.14310104f, -0.15083352f, -0.02081032f, -0.07317393f, -0.14651310f, 0.10594761f,
    0.02073306f, 0.13486299f, -0.05412786f, -0.05487564f, 0.02546182f, -0.16403574f, 0.12520155f, 0.06364863f,
    -0.05475787f, 0.16609469f, -0.15208286f, -0.11013620f, 0.00077052f, -0.12461305f, -0.09239404f, -0.00857505f,
    0.10993528f, -0.02208482f, -0.08176880f, 0.15741313f, 0.02598494f, 0.08406469f, -0.09498090f, 0.14298958f,
    -0.04975399f, 0.09157097f, -0.13220668f, 0.14059785f, -0.11932474f, 0.05930646f, 0.05694330f, -0.15222806f,
    0.12938204f, -0.12905267f, 0.13373569f, -0.05366990f, 0.12756954f, -0.04362303f, -0.08683016f, -0.17405024f,
    -0.08794067f, 0.39002874f, -0.11177302f, -0.04555918f, -0.13163693f, -0.30614898f, -0.04910050f, -0.08608247f,
    0.01878307f, 0.16904519f, -0.16951390f, 0.29632208f, 0.09695404f, -0.01022310f, -0.09712640f, -0.13011706f,
    0.08751889f, -0.00128759f, 0.28233626f, -0.13093945f, -0.03867900f, -0.15008055f, 0.14780687f, 0.19184293f,
    0.05404850f, 0.06282655f, 0.20014568f, -0.01599313f, -0.13411167f, -0.00656806f, -0.01045942f, -0.15595682f,
    0.30969432f, -0.09740338f, 0.07171872f, -0.21073069f, 0.16747083f, 0.04870389f, -0.22963960f, -0.16565186f,
    -0.00535473f, -0.11198091f, 0.18787563f, 0.04985324f, 0.13569015f, 0.12252390f, 0.14966466f, -0.25664863f,
    -0.01382698f, 0.03321427f, 0.10748395f, 0.04277234f, 0.32335418f, -0.14554887f, -0.15453966f, -0.08286427f,
    0.23888585f, 0.17177907f, -0.05458451f, -0.09018585f, 0.11222488f, -0.00100340f, 0.03594899f, 0.34754515f,
    0.15218084f, -0.01801327f, -0.09352574f, -0.11835422f, -0.12701234f, 0.09698968f, -0.13513756f, 0.25579017f,
    0.20758782f, 0.08816466f, 0.11838230f, 0.14299035f, 0.12180951f, 0.31356215f, -0.00588466f, -0.07027631f,
    0.31428710f, -0.24351113f, 0.02881006f, -0.09142905f, -0.20579207f, -0.15182692f, -0.07210446f, 0.06633890f,
    0.29781702f, 0.07612233f, -0.18154566f, 0.26684767f, 0.17128888f, 0.39097941f, -0.38645813f, -0.16101530f,
    -0.03305104f, 0.06916100f, 0.14611612f, 0.14628208f, -0.14161408f, -0.41635343f, -0.14927357f, 0.61762887f,
    0.11561431f, -0.13529736f, 0.46639729f, 0.03680033f, 0.10126656f, 0.39013407f, -0.05488602f, 0.03813500f,
    0.02254772f, 0.04369375f, 0.03070822f, -0.05247398f, -0.23963879f, 0.06305164f, -0.03440098f, 0.05517860f,
    0.13461682f, -0.08428583f, 0.22365877f, -0.29140624f, -0.12303364f, -0.31310391f, 0.02498964f, 0.10873418f,
    -0.08882945f, 0.02742247f, 0.12122950f, 0.20720109f, -0.21620570f, 0.04749313f, -0.01941439f, 0.38154987f,
    -0.35269287f, 0.01151958f, -0.27857664f, -0.07191812f, -0.03695460f, -0.06993212f, 0.10560343f, 0.09191228f,
    0.23117979f, 0.27979276f, 0.12028044f, -0.02043582f, -0.18148725f, 0.01675396f, 0.13962862f, 0.03360085f,
    -0.30325201f, 0.10873300f, -0.15826473f, -0.25174338f, 0.04060403f, -0.11541503f, -0.13178097f, -0.09397227f,
    0.03637743f, -0.22385462f, -0.07379995f, 0.01249858f, 0.21924371f, -0.05582643f, 0.16355440f, 0.01854865f,
    0.32549793f, 0.30489835f, -0.11182846f, 0.17982192f, 0.02155175f, -0.07655585f, 0.11078277f, 0.20706560f,
    -0.25639102f, -0.06787354f, 0.16144538f, -0.03596369f, -0.12052435f, 0.64962929f, -0.12343366f, 0.15331881f,
    0.03251804f, 0.32092613f, 0.13304585f, -0.07476996f, 0.11360047f, -0.07976668f, -0.11529969f, 0.00416957f,
    -0.30005834f, -0.46812716f, 0.07780900f, 0.14096126f, 0.04792278f, 0.18680298f, 0.08350343f, -0.10498233f,
    0.01903532f, 0.19968204f, -0.06591029f, 0.11435947f, 0.17433813f, -0.15268683f, 0.14860141f, -0.03198358f,
    0.08445758f, 0.27773961f, 0.10782102f, 0.04866294f, 0.14118195f, 0.10186291f, -0.05386506f, 0.12994471f,
    0.21143602f, 0.02621505f, 0.17281801f, -0.17366458f, -0.02623638f, 0.18609756f, 0.22192115f, -0.08046255f,
    -0.03873265f, 0.23082511f, -0.01087858f, -0.15901378f, 0.01826338f, -0.17279679f, -0.03301447f, -0.04510283f,
    0.17506495f, -0.00868904f, -0.08668298f, -0.10684852f, 0.19328444f, 0.10933478f, -0.11635745f, 0.08411731f,
    0.00225045f, 0.14407727f, 0.14601305f, 0.32136476f, 0.02116947f, 0.07586894f, 0.09103457f, -0.00562159f,
    -0.04332376f, 0.09889004f, 0.17275421f, 0.08567938f, 0.16699578f, -0.11733319f, -0.05930195f, -0.04649617f,
    0.01936518f, 0.30051517f, -0.11330314f, 0.09674725f, 0.17160785f, 0.33732134f, -0.02569701f, 0.10523858f,
    0.15636036f, 0.14712000f, 0.06102368f, 0.03075968f, -0.00100948f, 0.17128120f, -0.08539549f, 0.08700202f,
    0.13286620f, -0.01692909f, -0.14208889f, 0.11380177f, -0.03483704f, 0.05500168f, -0.12554196f, 0.11094687f,
    0.24725507f, 0.15586953f, 0.15720059f, 0.01709933f, -0.20031357f, 0.18703556f, 0.01955105f, 0.00988866f,
    0.30611229f, 0.10391843f, -0.00025037f, 0.14438297f, 0.11283761f, 0.30046463f, -0.19844542f, -0.01230769f,
    0.16952023f, 0.13674840f, -0.16408245f, 0.01195788f, -0.11051583f, -0.10965113f, 0.12829432f, 0.02377814f,
    0.12847814f, -0.07185378f, -0.03809835f, 0.08843876f, 0.11710182f, -0.01383264f, 0.15895033f, 0.15361461f,
    -0.02572620f, -0.09585009f, -0.16372788f, -0.02956662f, -0.10941209f, 0.02428069f, -0.03781082f, 0.01209243f,
    -0.01983851f, 0.04985528f, -0.08481970f, -0.10460319f, -0.05172592f, 0.02606073f, -0.07797793f, -0.08955734f,
    -0.17112292f, -0.10627761f, -0.05109483f, -0.10701188f, 0.08613811f, 0.00163338f, -0.04565238f, -0.03421062f,
    -0.11533367f, -0.02555494f, -0.02820635f, 0.06295904f, 0.11532182f, -0.00281176f, -0.14597200f, -0.05193615f,
    -0.06276925f, 0.10306104f, 0.11970180f, -0.10010309f, 0.13454205f, 0.16269776f, 0.00118762f, 0.14058354f,
    0.15162219f, 0.15835306f, -0.06853534f, -0.12373781f, -0.06465794f, 0.17203349f, -0.04126124f, 0.07161326f,
    -0.10598459f, 0.16246510f, 0.14055611f, 0.14225671f, 0.11340793f, -0.05768786f, 0.04138732f, -0.07871621f,
    0.15029645f, 0.05443944f, 0.03555296f, 0.14130452f, -0.12554234f, -0.05684952f, -0.02398200f, -0.00383603f,
    0.16993910f, 0.08493704f, 0.00674261f, -0.16923024f, 0.11639789f, 0.11519474f, -0.11225997f, -0.05834432f,
    0.10024103f, 0.04231479f, -0.06929869f, -0.01295533f, -0.11634157f, 0.00165631f, -0.06252741f, -0.08373433f,
    -0.13478950f, 0.04062277f, -0.07939092f, -0.12181608f, 0.14269775f, -0.03722520f, -0.06108811f, -0.16634704f,
    -0.15522291f, -0.10928291f, 0.00420399f, -0.12679353f, -0.13468981f, -0.08470646f, -0.10519464f, 0.09835556f,
    -0.14099412f, -0.11451697f, -0.06097533f, 0.10082316f, -0.05350753f, 0.02075820f, 0.11478290f, -0.00305982f,
    -0.08454747f, 0.00270183f, -0.00340030f, -0.02952318f, 0.10872862f, 0.05726656f, 0.05024953f, -0.14541267f,
    0.08831096f, 0.02078290f, 0.09043285f, 0.00478229f, -0.04286048f, 0.16697887f, 0.07946217f, -0.11746351f,
    -0.09828498f, -0.05883817f, -0.00057198f, 0.04704812f, -0.13139454f, -0.05588775f, 0.11798507f, 0.11077487f,
    -0.07260570f, -0.15169275f, 0.09314302f, -0.01920360f, -0.01597162f, -0.11420420f, -0.10392798f, 0.02755363f,
    0.04276988f, 0.17002776f, -0.01853506f, 0.05469435f, -0.06028673f, 0.06490177f, 0.04579513f, 0.01127829f,
    0.00567167f, 0.08261791f, 0.06228274f, -0.05939843f, 0.08379078f, 0.11020446f, -0.02130850f, -0.11829995f,
    -0.14889379f, -0.08401015f, 0.16805011f, 0.10512531f, -0.07838997f, -0.00992875f, 0.15924066f, 0.04734796f,
    0.12087899f, 0.06282999f, -0.13828573f, 0.07150923f, -0.06249248f, 0.03647387f, 0.02327776f, 0.04705568f,
    -0.14242868f, -0.15531938f, 0.02094613f, -0.01532122f, -0.09415942f, 0.09251019f, -0.14919817f, -0.09068979f,
    -0.02045022f, 0.05554685f, -0.05057705f, -0.16305296f, -0.09333863f, 0.07227434f, -0.16249047f, -0.07086498f,
    -0.12150554f, -0.04468895f, -0.04983444f, 0.16930848f, -0.06275570f, -0.06194994f, -0.09888162f, -0.05343051f,
    0.10004634f, -0.12661402f, -0.12792048f, 0.05626291f, -0.09274843f, -0.04382282f, -0.04253466f, -0.02103332f,
    -0.06481674f, -0.08739727f, 0.10504404f, 0.01664354f, 0.08108586f, -0.06039447f, 0.11215198f, 0.15166396f,
    -0.12942858f, 0.12382266f, 0.11831295f, 0.06285138f, 0.07288176f, -0.16992851f, 0.07739869f, 0.08698452f,
    -0.08811973f, -0.12691027f, -0.14154831f, -0.01136774f, 0.03953056f, -0.15776868f, 0.04537615f, 0.11143506f,
    -0.07363292f, 0.05425501f, 0.00553969f, -0.12845872f, -0.13608283f, -0.01781900f, 0.05135339f, -0.11761565f,
    0.12163657f, -0.09612280f, 0.13645706f, 0.06131746f, -0.15874919f, -0.12410099f, -0.11110441f, -0.17275839f,
    -0.14713787f, -0.00685415f, -0.00058091f, 0.05562751f, -0.01798581f, -0.04997079f, 0.11572284f, 0.04445758f,
    0.01424779f, 0.01303333f, 0.06450488f, 0.06580172f, -0.08054283f, -0.03322802f, -0.06549514f, 0.11906126f,
    -0.03273562f, 0.02489133f, -0.07974479f, 0.14323229f, 0.00474727f, -0.07155201f, 0.17123711f, 0.08576289f,
    0.06676023f, -0.09938459f, 0.01718467f, 0.03667052f, -0.14771183f, -0.02591842f, -0.12941343f, -0.10060107f,
    -0.16980436f, -0.11522961f, 0.13825363f, -0.13515285f, -0.12136196f, -0.14604020f, -0.09547558f, 0.08221781f,
    0.07042019f, 0.00930706f, 0.01760246f, -0.12998566f, 0.10912745f, 0.25765234f, 0.15189794f, -0.00455822f,
    -0.08323520f, 0.30425060f, -0.06152423f, -0.38919222f, -0.34215063f, 1.05170465f, 0.48480392f, -0.20097139f,
    -0.05154631f, -0.05258184f, -0.00975194f, -0.68060219f, 0.21510577f, -0.85513753f, -0.04047097f, -0.01524824f,
    0.29404855f, 0.03587950f, -0.98528183f, -0.08552480f, -0.38732034f, -0.00992284f, -0.03217257f, 0.99502331f,
    0.09628110f, 0.98159158f, -0.69469810f, 0.11718444f, 0.10093021f, 0.15799892f, 0.02266040f, -0.13629463f,
    0.40949199f, -0.13996109f, 0.21059097f, -0.22237666f, 0.33700535f, 0.11136694f, 0.96206743f, 1.17995441f,
    -0.04998051f, 1.14176393f, 0.32742473f, 0.14044608f, 0.38409078f, -0.49158576f, -1.12437451f, 1.17115235f,
    0.16150069f, -0.08780840f, -0.51565540f, -0.38801640f, -0.25088817f, 0.11577681f, 0.90408432f, 0.42726183f,
    -0.57328439f, -0.51127571f, 0.09575140f, -0.03122592f, -0.81246108f, 0.52376151f, 0.05683979f, -0.51297867f,
    -0.18706861f, -0.13427377f, 0.14412674f, 0.10646993f, -0.63707346f, -0.75999779f, -0.01627646f, -0.14732409f,
    -0.38591057f, 0.01496918f, 0.02333449f, 0.11741237f, 0.75363040f, -0.01532453f, -0.15334493f, -0.04667917f,
    -0.50683337f, -0.21837568f, 0.96320885f, -0.35700023f, 0.91717726f, 0.33928812f, -0.01658551f, 0.35661805f,
    -0.45921054f, 0.08914128f, 0.68653935f, -0.03000610f, 0.10919813f, 0.28161520f, 0.87448382f, -0.10802575f,
    0.09508983f, 0.39169240f, 0.52385217f, -0.11792644f, -0.06998593f, 0.43864295f, 0.09879237f, 0.02499655f,
    -0.34226105f, -0.74792618f, -0.49527234f, -0.07861882f, 0.42197597f, 0.17172891f, -0.08749419f, -0.12594804f,
    -0.42009932f, -0.42045471f, -0.03348930f, 0.14483610f, 0.82273495f, -0.29664847f, -0.85562098f, -0.11709285f,
    0.47022462f, 0.55032581f, 0.43115866f, 0.01912755f, -0.09395456f, -0.09985109f, 0.24655247f, 0.05852183f,
    -0.05533164f, 0.07804012f, -0.34059989f, 0.08926061f, 0.55231494f, 0.55718595f, -0.16320184f, -0.41101104f,
    0.61914521f, 0.14718091f, -0.96698338f, -0.84644437f, 0.12367026f, -0.59475142f, 0.50482476f, 0.69338077f,
    0.63789332f, 0.49561855f, -0.51491493f, -0.95202368f, -0.11730517f, -0.10976867f, 0.07364343f, 0.36135098f,
    0.17710231f, 0.06253770f, -0.57821506f, 0.60802317f, 0.36799198f, 0.52810103f, 0.10593691f, 0.03896666f,
    0.11514783f, 0.49535990f, -0.07941263f, -0.55969995f, -0.30018309f, 0.17149752f, -0.00830403f, 0.16947284f,
    0.01571384f, -0.01327631f, -0.15151988f, 0.25322694f, 0.68340582f, -0.13251454f, -0.17053637f, -0.48217565f,
    -0.29309422f, -0.62142462f, -0.17053282f, 0.01339334f, 0.38551703f, -0.29830405f, -0.53873610f, -0.25405258f,
    -1.08605719f, -0.27825138f, -0.07100439f, -0.31949222f, 0.59343195f, 0.10749388f, -0.09196994f, -0.66343933f,
    0.02183112f, 0.56904155f, -1.42677927f, 0.06763279f, -0.13057557f, 0.01510438f, 0.00288184f, -0.16841812f,
    -0.14067908f, -0.03716193f, -0.16889736f, -0.08925911f, 0.11119902f, -0.15564090f, 0.06979555f, 0.00497600f,
    0.01147605f, -0.05720994f, 0.09919992f, -0.06603108f, 0.01077944f, 0.12623179f, -0.09654728f, -0.00271240f,
    0.14479887f, -0.11060007f, -0.01414075f, -0.00916235f, -0.03927924f, 0.07690558f, 0.05825509f, 0.14931095f,
    0.11722004f, 0.12292874f, -0.07087807f, 0.00035134f, -0.12330870f, 0.10108250f, -0.00295559f, -0.03077450f,
    -0.05824187f, -0.14657220f, 0.16033974f, -0.11263625f, 0.07708669f, -0.14564604f, 0.01226591f, -0.03549567f,
    0.15962309f, 0.11856768f, -0.11063091f, -0.15390262f, -0.02135314f, 0.07688260f, 0.03508355f, 0.06009327f,
    0.13562945f, -0.04302059f, -0.02945375f, 0.01027642f, -0.07341786f, -0.04921013f, -0.07245576f, -0.16874559f,
    0.16789764f, -0.02130260f, -0.10073870f, 0.08078602f, 0.05524395f, -0.10893967f, 0.10397321f, -0.04043096f,
    -0.16752842f, -0.06392308f, 0.16940191f, -0.13451064f, -0.01707606f, -0.06313594f, -0.10763486f, 0.01634865f,
    0.15783033f, 0.09002197f, 0.14475209f, -0.06064955f, 0.14661416f, -0.11936066f, -0.00475830f, 0.08201846f,
    -0.14109641f, -0.12815763f, -0.01530008f, -0.13241328f, 0.14207006f, 0.08878008f, 0.08322605f, -0.10857230f,
    0.01230571f, 0.00164987f, 0.15388429f, -0.07171889f, 0.16143373f, -0.07805487f, 0.06704298f, -0.08336895f,
    0.15664040f, -0.03054752f, 0.03955484f, 0.07218965f, -0.11607917f, 0.75590777f, 0.00031748f, -0.34068152f,
    -0.30111226f, -0.56167835f, -0.37457922f, -0.09735406f, 0.02847133f, -0.14271954f, 0.12213369f, 0.18538822f,
    -0.26185372f, 0.55775940f, 0.10421392f, -0.11061753f, -0.09495250f, -0.48692268f, 1.08781207f, 0.12702516f,
    -0.61409080f, -0.05729060f, -0.13988686f, -0.61353505f, 0.16321179f, -0.43634203f, -0.33779621f, 0.00039630f,
    0.09706140f, -0.01013759f, -0.33445397f, -0.53646940f, 0.01656089f, -0.98769730f, -0.70931178f, -0.73936039f,
    0.57248729f, -0.16989847f, -0.61472631f, -0.49522087f, 0.07542527f, -0.25673813f, -0.11959755f, 0.06568850f,
    -0.15056741f, 0.43146378f, 1.24673617f, -0.77281326f, 0.11675669f, -0.12727235f, 0.07060345f, 0.67974943f,
    0.18176219f, -0.04010455f, -0.83502156f, -0.86555004f, 0.50146240f, 0.83632147f, 0.14433324f, -0.10437156f,
    0.50597841f, -0.24758664f, -0.02504973f, 0.19569995f, -0.36073273f, 0.02735253f, 0.04942723f, 0.11179367f,
    0.63741642f, 0.48977789f, 0.12131703f, 0.77714926f, 0.66275918f, -0.01381567f, -0.02884869f, -0.31723085f,
    -0.89014333f, -0.22241189f, -0.08368804f, -0.10768203f, 0.68806911f, -0.48704597f, -0.70462602f, -0.73040974f,
    -0.47325769f, -0.41706076f, 0.04023851f, -0.45741135f, 0.95824975f, -0.01126540f, -0.89463258f, -0.25275627f,
    0.84490210f, 0.42040589f, -0.79253554f, -0.08950305f, 0.01375967f, -0.06116302f, 0.01320603f, -0.03181325f,
    -0.01542024f, -0.16986974f, 0.03794923f, -0.09738111f, 0.15216106f, 0.04492289f, 0.06755942f, 0.03841558f,
    -0.14634174f, -0.01484579f, 0.06690221f, -0.07541168f, -0.09849947f, -0.11560287f, -0.01507853f, -0.05590526f,
    0.01757590f, -0.05086145f, 0.03522152f, -0.10783894f, 0.12724304f, -0.12649731f, -0.10707535f, 0.03951395f,
    -0.04142956f, 0.13259390f, -0.07342934f, -0.11523609f, -0.08910375f, 0.05413440f, 0.04982902f, 0.01260130f,
    0.16339669f, -0.02419628f, 0.03796898f, 0.13072872f, -0.17090955f, 0.11932462f, -0.10652265f, 0.12146977f,
    -0.10810216f, -0.14840828f, 0.07165454f, 0.02545975f, 0.02059838f, -0.02297918f, -0.03459072f, 0.05168100f,
    -0.00940745f, 0.00882721f, -0.03702372f, -0.06319198f, 0.05859590f, -0.14828262f, 0.10900429f, 0.11332205f,
    0.02932301f, 0.16464671f, 0.13727099f, 0.12212494f, 0.12073019f, -0.16326992f, -0.07124717f, 0.14506736f,
    0.13295996f, -0.16081078f, 0.00796752f, 0.09222177f, -0.07072523f, 0.10399786f, 0.12331358f, 0.16818571f,
    0.05729093f, -0.06589488f, -0.07457165f, 0.09326228f, -0.16298944f, 0.04962370f, -0.07077264f, 0.16001543f,
    -0.12538469f, -0.05664581f, 0.00340186f, 0.05037829f, 0.15368962f, -0.13100490f, 0.06373771f, 0.09228700f,
    -0.17231281f, 0.17049554f, -0.14050907f, 0.16839856f, 0.09182686f, -0.00383286f, 0.09063074f, 0.12002307f,
    0.00028113f, -0.03696004f, 0.20826605f, -0.09649839f, -0.09986515f, 0.16586420f, 0.04312709f, 0.11404391f,
    -0.04457343f, -0.20362782f, 0.20427947f, -0.11118303f, 0.29739806f, 0.17649889f, -0.07847681f, 0.18240231f,
    -0.20614848f, 0.09737887f, -0.11619191f, -0.18209988f, -0.05763211f, -0.13855803f, 0.36098909f, 0.09065476f,
    0.09283733f, 0.04494800f, 0.00600884f, -0.11139335f, -0.05975781f, -0.20079397f, 0.14090951f, -0.04353227f,
    0.08315315f, -0.14729582f, -0.15341520f, -0.10291442f, 0.00227036f, 0.10465762f, -0.11032140f, -0.22513784f,
    0.04252929f, 0.16540617f, -0.14191043f, -0.36518577f, 0.03210183f, -0.01323145f, 0.25350380f, 0.25932121f,
    0.22067122f, 0.27825731f, 0.36040798f, -0.23072611f, -0.12292928f, 0.10469076f, 0.05570042f, 0.04853022f,
    0.17309208f, 0.07765293f, -0.08968121f, -0.04692903f, 0.09192619f, 0.34869897f, 0.02304649f, -0.16352612f,
    0.22273099f, 0.04678401f, -0.11066213f, 0.07209744f, 0.04463134f, 0.00357804f, 0.06635387f, -0.04903062f,
    0.19604288f, 0.17076966f, -0.10433750f, 0.28029072f, 0.28961220f, 0.09046134f, -0.15079065f, -0.22643027f,
    -0.07438160f, 0.05860534f, 0.12626970f, 0.09178404f, 0.19059311f, 0.14843875f, -0.02092130f, -0.20214836f,
    -0.13703306f, 0.10830773f, -0.08816924f, -0.22242674f, 0.31894991f, -0.16502501f, -0.21382506f, -0.17218058f,
    0.00056748f, -0.10299013f, -0.31045541f, 0.00820631f, 0.12181601f, 0.40284553f, 0.38189796f, 0.00832012f,
    -0.02986853f, -0.13682987f, -0.02901016f, 0.59490991f, 0.05340830f, 0.23410237f, 0.32680890f, -0.08906525f,
    0.43247390f, 0.56235254f, 0.05102545f, 0.08071250f, -0.16472077f, -0.17277963f, -0.01941338f, -0.08947774f,
    0.05593675f, -0.27405554f, -0.12463168f, -0.09466922f, 0.06624538f, 0.21264230f, 0.46681973f, -0.42692497f,
    -0.03412876f, -0.48716241f, -0.31074291f, 0.12373766f, -0.14007011f, -0.06051588f, -0.10824430f, 0.28621349f,
    -0.15594725f, -0.05900119f, -0.04905921f, 0.28894609f, -0.27363583f, -0.06381232f, 0.02644127f, 0.06870846f,
    -0.03406075f, 0.32038569f, 0.38574970f, 0.49064207f, 0.29884160f, 0.38323697f, 0.23963107f, -0.28548843f,
    0.07889290f, -0.06268615f, 0.03843237f, -0.03217401f, -0.42930740f, -0.09003691f, 0.05328657f, -0.09285212f,
    -0.19694802f, -0.02647958f, -0.11796150f, -0.15426353f, 0.01099734f, 0.20249088f, 0.02270667f, -0.36266881f,
    -0.18996784f, 0.15013450f, 0.10605049f, -0.13078031f, 0.57377422f, 0.31529135f, 0.12576377f, 0.21082485f,
    0.04149790f, 0.05553484f, 0.10050452f, -0.04885411f, -0.14511037f, -0.17800774f, -0.15615730f, -0.12073564f,
    0.06610093f, 0.74363333f, -0.34635842f, 0.03586992f, 0.07887308f, 0.46374419f, 0.04236548f, -0.12977664f,
    0.12331486f, 0.03168130f, 0.25406218f, -0.33322459f, -0.62007642f, -0.24217543f, 0.02974202f, 0.10613792f,
    -0.02435339f, 0.52714831f, 0.78445011f, -0.13836537f, 0.05741976f, 1.18684649f, 0.12758082f, -1.54858649f,
    -1.44961870f, 2.20103788f, -0.15305950f, -0.08540928f, -0.24280946f, -0.14741418f, -0.11967204f, -1.83936083f,
    -0.96314311f, -1.80746949f, 0.10689661f, -0.01363716f, 1.24690962f, -1.37012732f, -2.47235155f, -0.15222114f,
    -1.36427546f, 1.02381802f, -0.23721808f, 1.57798052f, 0.06445636f, 1.83516395f, -1.02993846f, 0.15747973f,
    -0.02652574f, -0.07102880f, -1.25775421f, -1.29326880f, 2.12870455f, -1.01837623f, -0.88126218f, -1.75077248f,
    1.80001187f, 0.05697928f, 2.43341637f, 2.39520741f, -0.02885021f, 2.18132091f, 1.06353593f, 0.19115669f,
    0.98182499f, -1.39485025f, -1.47068727f, 1.97556460f, -0.01176482f, -0.05752176f, -1.54946148f, -0.82298964f,
    -0.39630541f, 0.16746908f, 2.24717665f, 0.46786103f, -0.54100883f, -0.36350790f, 0.11338037f, 0.03004785f,
    -1.94508374f, 2.02969432f, -0.10491168f, -1.11729372f, -1.19282639f, -0.00705184f, -0.16629109f, 0.10363689f,
    -0.00328007f, -2.00021648f, -0.00209484f, 0.47061092f, -0.87814015f, -0.14055647f, -0.02422804f, -0.71346462f,
    2.21804166f, -0.67299807f, -0.08519041f, 0.05957107f, -1.19779861f, -1.80613852f, 2.43659592f, -0.96901405f,
    2.35877275f, 0.57640439f, 0.04430561f, -0.33048117f, -0.33331162f, -0.13893947f, 1.00256538f, -0.81639153f,
    1.01132798f, 1.44181716f, 0.90129817f, -0.17097279f, -0.06309684f, 0.04410492f, 0.11228821f, -0.07266917f,
    -0.06994984f, -0.04453492f, -0.03310145f, 0.10001299f, -0.02534474f, -0.05507704f, 0.11198676f, 0.16473991f,
    -0.12493516f, 0.07969293f, -0.15187278f, 0.09333104f, 0.04800691f, 0.00394458f, 0.05133411f, 0.09578750f,
    -0.13313380f, 0.07796526f, 0.16628593f, 0.08193657f, 0.02260521f, -0.07936698f, 0.06301887f, -0.05581982f,
    -0.00576110f, -0.06981183f, 0.11577389f, -0.15189955f, 0.15229553f, -0.13465112f, 0.16672155f, -0.13221493f,
    -0.16587219f, 0.14162153f, 0.03587736f, 0.05432117f, -0.09077700f, -0.09814272f, -0.01876748f, -0.00919420f,
    0.01866354f, -0.09740246f, -0.12006888f, -0.07510960f, -0.04523219f, 0.06499973f, -0.04992933f, 0.17063308f,
    -0.07078474f, 0.07714549f, -0.11536835f, -0.02763540f, -0.12911788f, 0.04208305f, -0.14169498f, 0.00174910f,
    -0.16879094f, -0.05101631f, 0.14033827f, -0.03347646f, 0.12980291f, 0.07527581f, 0.12015912f, 0.10088366f,
    -0.03478642f, 0.05794553f, -0.10021438f, 0.14571565f, -0.04310545f, 0.13565791f, -0.00184445f, -0.15495230f,
    0.05119735f, -0.12043248f, 0.14509457f, -0.01041120f, -0.00416683f, 0.06753199f, -0.08275951f, -0.12294600f,
    -0.00514176f, 0.02539323f, 0.13635722f, -0.02227688f, 0.00854610f, 0.12970310f, -0.09327565f, -0.15190975f,
    0.09543544f, 0.09463105f, -0.02767128f, -0.12606132f, -0.09086421f, 0.00377215f, -0.05947681f, -0.16661972f,
    -0.02623698f, 0.15236592f, -0.17044899f, 0.00935161f, 0.15710375f, -0.06039360f, -0.02895705f, -0.12704782f,
    -0.15967421f, -0.06693755f, -0.13076964f, -0.01434769f, -0.07708752f, -0.16894534f, 0.00031140f, -0.02547343f,
    -0.16262551f, 0.15191936f, 0.00803821f, -0.00270100f, -0.16239735f, -0.17019564f, -0.14883073f, 0.03895947f,
    -0.12082049f, -0.13926344f, -0.02602476f, 0.00238332f, -0.16078432f, 0.09444147f, 0.16944167f, -0.07879785f,
    0.13059002f, -0.04679307f, 0.16869351f, 0.16176850f, 0.09264520f, 0.04876022f, -0.04535133f, 0.08989015f,
    -0.03310278f, 0.00786626f, 0.01366317f, -0.07358419f, 0.00644921f, -0.11370717f, 0.16120383f, -0.10995557f,
    -0.12298334f, -0.10164605f, 0.00955677f, 0.00060163f, 0.10443851f, 0.00938047f, 0.00085650f, 0.01903503f,
    0.02333032f, 0.02789085f, -0.10398696f, -0.03753430f, 0.06386860f, -0.03708839f, -0.01084605f, -0.15304933f,
    -0.11485047f, -0.15528122f, -0.14302886f, 0.16363502f, -0.16535695f, -0.15170150f, 0.07712418f, -0.04069348f,
    0.03535531f, 0.12895691f, 0.00897698f, -0.06843685f, 0.01433492f, 0.03063175f, -0.06991242f, 0.01503062f,
    0.12803912f, -0.05359875f, -0.08334021f, -0.09325632f, -0.10658365f, 0.03188753f, 0.05970542f, 0.09280765f,
    0.04574917f, 0.05636975f, 0.06610474f, 0.08846235f, 0.05135766f, -0.05314112f, -0.01949184f, -0.09496149f,
    -0.15323797f, 0.05873391f, 0.01727845f, 0.05778770f, -0.05308374f, 0.40296018f, 0.20231070f, 0.00936115f,
    0.15011007f, 0.96970409f, 0.09977055f, -0.60388899f, -0.79237592f, -0.21353710f, -0.60859019f, 0.12604058f,
    0.13311575f, 0.15403068f, 0.08134737f, -0.26042539f, -0.38267192f, -0.32743737f, 0.04086894f, 0.00864421f,
    0.43824455f, -0.75569224f, -0.29412541f, -0.05986151f, -0.02436751f, 0.63752830f, 0.06961642f, 0.46754748f,
    -0.13734701f, 0.38684979f, 0.02317200f, 0.03023899f, 0.10651150f, -0.03307849f, -0.69222814f, -0.64138097f,
    0.91183889f, 0.00514062f, -0.52140164f, -1.97898281f, 1.11395907f, -0.14501092f, -0.27484939f, 0.25256181f,
    -0.11570909f, 0.66965955f, 1.03103256f, 0.36436629f, 0.72304821f, -0.07904351f, 0.22622730f, -0.78248906f,
    -0.10074816f, -0.13322964f, -0.25315231f, 0.25194055f, 0.02112379f, 0.03795418f, 0.32883981f, -0.16307993f,
    0.26368764f, 0.71310675f, -0.08425337f, 0.15845567f, -0.19562685f, 0.95834506f, -0.04127266f, -0.19388214f,
    -0.71517605f, -0.15629345f, -0.13227643f, 0.10484949f, -0.32075515f, -0.31853104f, -0.13374314f, 0.60055238f,
    0.30305794f, 0.01977979f, -0.08606186f, -0.46621528f, 0.40233901f, -0.34227028f, 0.00019565f, -0.15186647f,
    0.27804387f, -0.98673838f, 0.36645401f, -1.11515677f, -0.01522261f, -0.33684662f, -0.11611262f, -0.39506003f,
    0.64068371f, 0.06342670f, -0.14862061f, -0.17729972f, 0.91342282f, 0.71271169f, -2.01994038f, -0.03919625f,
    -0.11303015f, 0.82294989f, 0.46244189f, 0.16922402f, 0.01974861f, 0.19260935f, 0.15029535f, 0.21371982f,
    -0.33552852f, 0.45722872f, 0.04349545f, 0.05520425f, 0.75267452f, 0.87092072f, 0.07124130f, -0.38336042f,
    -0.62514693f, -0.47536719f, -0.12310053f, -0.03984147f, 0.36669913f, -0.50774187f, -0.45659262f, 0.06290239f,
    -0.46344984f, 0.42723140f, 0.71188784f, -0.13043107f, -0.08901237f, -0.10456291f, -0.54023516f, -0.12182235f,
    0.04693791f, -0.15372397f, -0.46297693f, -0.06897871f, 0.41229910f, -0.16392700f, -0.30810341f, -0.36485222f,
    0.05820509f, -0.16960797f, 0.56073606f, 0.58335727f, 0.12876278f, 0.89509237f, 0.81918937f, 0.91228622f,
    0.81950748f, 0.13632496f, 0.00687518f, 0.18946305f, 0.08102599f, -0.07380108f, -0.45270586f, -0.07799606f,
    -0.20156531f, -0.11965716f, 0.32131210f, -0.46693280f, -0.07242025f, -0.11059374f, 0.04340252f, -0.09362922f,
    -0.27783713f, 0.33689171f, 0.07083091f, -0.27590126f, -0.53816074f, -0.16722243f, 0.05680509f, -0.04373974f,
    0.65637648f, -0.45414335f, 0.01129347f, 0.43919539f, 0.12739636f, -0.08098625f, -0.12040634f, -0.54445940f,
    0.32617903f, -0.53830993f, 0.08518124f, -0.06514806f, -0.06062496f, 0.27311751f, 0.13550904f, -0.67309415f,
    0.54661208f, 0.20335667f, -0.11520598f, -0.39758214f, 0.16322245f, 0.11001545f, 0.22432342f, -0.62571216f,
    -0.28315911f, 0.18239897f, -0.69044888f, 0.08232084f, 0.10785595f, -0.17319004f, -0.14015934f, -0.16427372f,
    -0.15422960f, 0.08017683f, -0.08545358f, -0.16164322f, 0.07552883f, -0.11775424f, 0.01067141f, -0.06422168f,
    -0.07896935f, -0.04064441f, 0.00222181f, -0.17310604f, 0.13832235f, -0.04483700f, 0.16878590f, 0.04683970f,
    0.09756014f, -0.15797529f, 0.12130162f, -0.13565253f, 0.12636411f, -0.15212382f, -0.13464628f, -0.00052284f,
    0.13852549f, -0.07547940f, -0.11667474f, 0.12896860f, -0.07778285f, -0.08690684f, -0.08583787f, 0.17059764f,
    0.05437610f, 0.08828610f, 0.05262376f, 0.08534542f, 0.04545131f, 0.01452170f, -0.10351124f, 0.00506908f,
    -0.13338941f, -0.14840075f, -0.11212374f, 0.04578151f, -0.13030268f, -0.14345601f, 0.04475966f, 0.01013134f,
    0.00769332f, 0.02302644f, 0.16419306f, -0.07664583f, -0.09495654f, -0.10598370f, 0.02128075f, -0.13499238f,
    -0.05227565f, -0.14915672f, -0.03150733f, 0.03919007f, -0.16686729f, 0.08030537f, -0.03448732f, -0.14721583f,
    -0.16364104f, -0.15371238f, -0.09100928f, 0.09667179f, 0.09441206f, -0.13784002f, -0.03405711f, -0.01378714f,
    -0.07109805f, -0.09968068f, 0.14653203f, -0.16363849f, 0.16675779f, -0.09401542f, -0.03733781f, -0.06617437f,
    -0.10084050f, 0.03807931f, 0.08382943f, 0.12053472f, 0.16217947f, -0.03604522f, -0.05871797f, 0.12732935f,
    0.05669330f, 0.05109736f, -0.06158192f, 0.14644217f, 0.08476940f, 0.07343057f, -0.04553679f, 0.08503562f,
    -0.09947658f, 0.59723514f, 0.47885802f, -0.07166728f, -0.09663110f, 0.25026020f, 0.08883822f, 0.06180044f,
    -0.29787439f, 0.70151269f, 0.29284847f, -0.17476374f, 0.51961988f, 0.58436364f, -0.02291611f, -0.55204076f,
    -0.31694460f, -0.67684531f, -0.08879111f, -0.02263466f, 0.36851242f, -0.37946182f, -0.56554037f, 0.14154200f,
    -0.42106369f, 0.17256460f, 0.59048527f, 0.49266073f, 0.15821894f, 0.31114927f, -0.47472975f, 0.13557020f,
    -0.04090241f, 0.00082454f, -0.45333967f, -0.15858716f, 0.46526286f, -0.22385406f, -0.36473778f, -0.69280255f,
    0.54013914f, -0.17474124f, 0.61961907f, 0.95544738f, 0.10240886f, 0.92721134f, 0.87784874f, 0.58193642f,
    0.61237097f, -0.26029101f, -0.44723919f, 0.38115329f, -0.01510075f, 0.06190002f, -0.38625392f, -0.28169745f,
    -0.22931592f, -0.03886239f, 0.87375104f, 0.38442773f, -0.08408835f, -0.28686568f, 0.00535010f, 0.06101928f,
    -0.68765867f, 0.49605358f, -0.13865209f, -0.33662865f, -0.56157404f, -0.17044906f, 0.09565628f, -0.01549000f,
    0.16610475f, -0.57450682f, -0.05640299f, -0.05877534f, -0.24799596f, -0.12336412f, 0.01467639f, -0.53873771f,
    0.49946719f, -0.55343437f, 0.00202017f, -0.01126793f, -0.27389866f, -0.08969008f, 0.49851450f, -0.34024781f,
    0.58862460f, 0.23561065f, -0.02204876f, -0.03767927f, -0.22264674f, 0.00116585f, 0.31691521f, -0.24635087f,
    0.14285026f, 0.13830610f, 0.00621019f, 0.10765456f, -0.16064586f, 0.01976563f, 0.10380095f, -0.16816582f,
    0.13164613f, -0.13666505f, -0.11305536f, -0.02305397f, 0.06821753f, 0.08787647f, 0.05738974f, 0.00277261f,
    -0.02743837f, -0.10750457f, 0.03241062f, 0.09241602f, 0.06229897f, 0.15438706f, 0.07595412f, 0.09034798f,
    -0.00376564f, -0.14734216f, 0.06672731f, -0.13686492f, -0.03892025f, -0.08280837f, 0.06220569f, 0.11744431f,
    -0.15907758f, -0.14360894f, 0.13931125f, 0.11353880f, 0.00366232f, -0.06704561f, -0.05847234f, -0.14665975f,
    0.07506265f, -0.10931814f, -0.06572124f, -0.04784690f, 0.09921548f, 0.12561917f, -0.02969880f, -0.09696828f,
    -0.14615905f, 0.08639267f, 0.01859784f, -0.09372362f, 0.03042601f, 0.11800927f, 0.05568825f, -0.15683079f,
    -0.04779288f, -0.14346106f, -0.09394398f, -0.09580681f, -0.08665412f, 0.16271558f, 0.00782980f, -0.02268554f,
    0.09076259f, -0.07527470f, -0.03257729f, 0.14920264f, -0.05796722f, 0.11863384f, 0.15137079f, 0.09362283f,
    -0.01077713f, 0.02097096f, 0.16215342f, 0.00778355f, 0.03096624f, 0.00863390f, -0.16914286f, -0.10134401f,
    -0.10414970f, 0.13650626f, 0.05609861f, 0.06639740f, -0.02841857f, 0.07753897f, 0.06038092f, -0.10746939f,
    0.13333368f, 0.12735662f, 0.10894802f, 0.15311357f, -0.03549832f, 0.14658454f, 0.13352743f, -0.08002857f,
    0.08597234f, -0.03730738f, 0.14407116f, 0.16764554f, 0.06408086f, 0.13285267f, 0.02862731f, 0.14635977f,
    -0.09577195f, 0.02084334f, -0.06960060f, 0.03311735f, -0.10478114f, 0.11050734f, -0.09314273f, -0.14630590f,
    0.05410556f, 0.04578193f, -0.14857127f, 0.16585898f, -0.14663884f, 0.14190012f, 0.01074876f, -0.00006767f,
    -0.04984295f, -0.05548953f, -0.09589828f, -0.12956522f, 0.09068721f, -0.06658594f, 0.05790539f, 0.13926008f,
    -0.10743739f, 0.03849474f, -0.00881145f, 0.09037972f, -0.01243584f, 0.14954373f, -0.16414033f, -0.01483947f,
    -0.03817193f, -0.04965670f, -0.05782500f, -0.09559356f, 0.00552405f, 0.02735582f, -0.14767686f, -0.01054728f,
    -0.15628338f, 0.01568504f, 0.09012413f, -0.11121491f, 0.06639847f, 0.03472333f, -0.10802568f, 0.08446737f,
    -0.02935985f, -0.09762860f, -0.15981132f, -0.13424742f, 0.01577713f, 0.02238713f, -0.13198806f, 0.10192432f,
    -0.08516418f, -0.10352284f, -0.00491853f, 0.04490869f, -0.13959618f, 0.06159154f, -0.00025648f, -0.01476055f,
    0.05621308f, -0.10934027f, -0.02370079f, -0.11728685f, 0.16405387f, 0.02386096f, 0.00333919f, 0.00363936f,
    -0.05220615f, 0.11778899f, -0.08531363f, 0.02843470f, 0.13044301f, 0.03134120f, -0.15842280f, -0.04796936f,
    -0.15896782f, 0.06647968f, -0.07970837f, -0.07930710f, -0.16101925f, 0.09526687f, 0.15060228f, -0.10406963f,
    0.07606661f, -0.10051364f, -0.17282495f, -0.07613355f, 0.14016432f, 0.13047579f, 0.08249140f, -0.16109289f,
    -0.03298905f, 0.01845000f, -0.12463531f, 0.09186989f, 0.14622942f, -0.03412442f, -0.16134751f, 0.12076077f,
    -0.09890866f, -0.08255581f, -0.10718069f, 0.01221631f, -0.12407679f, 0.06800640f, -0.13530011f, -0.13668153f,
    0.02709955f, -0.10270788f, -0.09572339f, 0.15819341f, 0.16120395f, -0.01016587f, -0.16956696f, -0.15921745f,
    0.15591002f, -0.02811018f, 0.01325315f, -0.13934371f, 0.04696380f, 0.09053910f, -0.09546901f, -0.09982765f,
    -0.03538789f, -0.08029183f, 0.12939182f, 0.09108716f, -0.01637049f, 0.05096200f, -0.06567945f, 0.04925226f,
    0.02660570f, -0.14148942f, 0.06277473f, -0.03101914f, -0.15220323f, -0.08390744f, -0.14321597f, 0.14307073f,
    -0.05223865f, 0.05629711f, -0.11774804f, -0.02948865f, -0.17031676f, -0.07195786f, 0.09098542f, -0.10925896f,
    0.16396463f, 0.11995026f, -0.14058545f, 0.04858443f, 0.00680973f, 0.12610725f, 0.09314781f, 0.05115518f,
    -0.13018420f, -0.01562347f, 0.03646244f, 0.06388941f, -0.09204741f, 0.05235229f, 0.09684950f, -0.16846962f,
    -0.01090159f, 0.09592906f, 0.17113572f, 0.10336518f, 0.09024552f, -0.10601352f, -0.14833130f, -0.12703742f,
    -0.13057275f, -0.06494752f, 0.11582819f, 0.02966812f, 0.11447170f, -0.02347943f, 0.05549917f, -0.12502824f,
    0.11370426f, -0.11505865f, 0.05227040f, 0.07990211f, -0.06654830f, -0.10200048f, -0.05965739f, -0.06061247f,
    0.10782713f, 0.15624407f, 0.00092679f, 0.11221525f, -0.03415002f, 0.10763255f, 0.07520933f, -0.09947218f,
    0.02724091f, -0.27627084f, 0.55880815f, 0.12237161f, 0.07948396f, 0.50231183f, -0.10338251f, -1.12135851f,
    -0.68907112f, 2.23382235f, 0.85077602f, -0.05622689f, -1.12576675f, -0.56222391f, -0.02212170f, -1.83254671f,
    -0.32974043f, -1.75543654f, -0.06616215f, -0.06077497f, 0.68800890f, -0.64585632f, -1.73654437f, -0.03210487f,
    -1.26115644f, 0.42546725f, -0.48315895f, 1.83405423f, 0.01022397f, 1.51157451f, -0.82210100f, 0.09967858f,
    -0.13921775f, -0.10692165f, -0.75157732f, -0.81089550f, 1.08770919f, -2.22789001f, -0.71132368f, -0.46149579f,
    0.85893261f, -0.09447719f, 2.14773703f, 1.98351848f, 0.03232270f, 1.30828834f, 0.53156412f, -0.54384929f,
    0.62342399f, -1.51949012f, -0.58793449f, 2.20415211f, -0.02175821f, 0.08419237f, -1.72566092f, -1.67064583f,
    -0.91480553f, -0.04517719f, 1.20105159f, -0.49227571f, -1.57478833f, -1.43348575f, -0.17123157f, -0.17202401f,
    -1.87147188f, 0.93526489f, 0.04895764f, -0.98651797f, -0.73922908f, 0.14762965f, -0.08926076f, 0.06414995f,
    0.56200713f, -2.15693259f, 0.11033231f, -0.70733809f, -1.67310643f, -0.03439908f, -0.04164541f, -0.24411058f,
    1.24054253f, -0.88166773f, -0.00879057f, -0.03726579f, -1.73136377f, -0.83884001f, 1.56476176f, -0.36057568f,
    1.88396478f, 1.17159021f, 0.17106089f, 0.33577114f, -1.16212475f, 0.13609162f, 1.43340385f, -0.79463971f,
    0.55395293f, 0.59276801f, 2.24021244f, -0.02823092f, -0.00601839f, -0.10619316f, 0.08209834f, -0.06294982f,
    -0.04497068f, -0.15325291f, -0.03230219f, -0.17184292f, -0.15214373f, 0.06319273f, -0.09342366f, -0.14013188f,
    0.01400733f, 0.15303025f, 0.14339387f, -0.14185475f, -0.10668251f, 0.16569436f, 0.09904873f, 0.15378720f,
    0.13843718f, 0.07763726f, -0.04070495f, 0.01049305f, -0.11916120f, 0.07264195f, -0.02558558f, -0.09324869f,
    0.13736480f, -0.01031978f, 0.07468376f, 0.09058303f, 0.04173362f, -0.04259978f, -0.01186696f, -0.04984339f,
    0.09259433f, 0.11802500f, 0.05180191f, -0.04698271f, 0.07359815f, 0.05238830f, -0.01591897f, 0.14368236f,
    -0.13611759f, 0.15353343f, 0.16931692f, 0.09083733f, -0.10624911f, -0.06568564f, -0.03581770f, -0.16508947f,
    0.07879546f, 0.02650498f, 0.05455808f, 0.01762706f, -0.14393625f, 0.14553401f, -0.03538892f, -0.06465842f,
    0.01670325f, 0.04409835f, 0.09397343f, 0.14570063f, 0.16848817f, -0.09287719f, 0.07572515f, -0.05294715f,
    -0.12459922f, 0.07429320f, -0.11310129f, 0.05296206f, -0.11545016f, 0.11597246f, 0.05331667f, 0.02364524f,
    -0.07436802f, 0.16032678f, 0.00646569f, -0.02543606f, 0.14283970f, 0.06568024f, -0.02998123f, 0.10114476f,
    -0.12513664f, 0.05175194f, -0.14037870f, -0.13341168f, 0.11359993f, 0.05499168f, 0.11545750f, -0.13709547f,
    0.15070415f, 0.06743544f, 0.07835045f, -0.00842428f, -0.01152028f, 0.06908457f, 0.05276726f, 0.05539146f,
    -0.07009332f, 0.65873736f, 0.40902999f, -0.12676919f, -0.08983522f, -0.04878691f, 0.12127122f, 0.13319774f,
    -0.04219976f, 0.17163537f, 0.12060288f, -0.05988117f, 0.46166322f, 0.37988868f, 0.10421623f, -0.11771967f,
    -0.15079525f, 0.18464369f, 0.12645856f, -0.00134966f, 0.13665880f, -0.30408311f, 0.20230190f, -0.17491037f,
    -0.39697671f, 0.15067939f, 0.33977687f, -0.25864691f, 0.06160942f, -0.39009783f, -0.42337087f, 0.02400308f,
    -0.00457918f, -0.06729153f, -0.24986309f, -0.18593197f, 0.13554548f, -0.30648041f, -0.51935893f, -0.25560352f,
    0.08671772f, -0.02481757f, 0.21757476f, -0.02907936f, 0.13764995f, 0.36326608f, 0.48490280f, 0.62074196f,
    0.63225281f, 0.24223644f, 0.56482136f, -0.23487689f, -0.14203146f, 0.05971991f, -0.09050235f, 0.40783092f,
    -0.12832975f, -0.12612306f, 0.00763070f, -0.55196255f, -0.04603435f, 0.14735346f, -0.13678220f, 0.03801044f,
    0.02087041f, 0.24395970f, 0.00980080f, -0.23125835f, -0.40249673f, -0.00001900f, -0.07309525f, -0.01416281f,
    0.60180414f, -0.06641579f, -0.00851592f, 0.54197162f, 0.25506413f, 0.10841158f, -0.12895046f, -0.32070944f,
    -0.01380022f, -0.37204888f, 0.04492517f, 0.10533313f, 0.25025153f, 0.41872889f, -0.31129873f, -0.31699365f,
    0.12418564f, 0.17987879f, -0.07077252f, -0.26993695f, 0.28634501f, -0.09614477f, -0.06890956f, -0.44691128f,
    -0.13682942f, -0.03157999f, -0.54388297f, 0.03029562f, -0.08611584f, 0.14166705f, 0.26366124f, 0.07182200f,
    -0.14244148f, 0.46749780f, -0.06715117f, 0.18928093f, -0.10856717f, -0.32037783f, -0.14897688f, 0.04256090f,
    0.29533997f, 0.16184761f, -0.13218135f, 0.01285013f, -0.06381423f, 0.33142528f, -0.09951562f, 0.08154681f,
    -0.16814686f, -0.27525431f, 0.50425524f, 0.09477668f, -0.32859921f, 0.00321701f, -0.13208389f, -0.43346789f,
    -0.05985988f, -0.56687969f, -0.17602837f, -0.06590728f, 0.02901517f, -0.12989481f, -0.22491705f, -0.19337559f,
    -0.13659227f, -0.62779599f, -0.45865729f, -0.42939550f, 0.23224600f, 0.09295616f, -0.18639611f, -0.46511203f,
    0.12458891f, -0.15548691f, 0.17796806f, 0.28112298f, 0.06084640f, 0.11188536f, 1.10177183f, -0.65467286f,
    -0.14567588f, -0.16464765f, 0.12258027f, 0.33480376f, -0.00968168f, 0.12356338f, -0.31766480f, -0.84050995f,
    0.22842611f, 0.60484403f, -0.02960952f, 0.16025133f, 0.29984292f, -0.02237243f, 0.02767400f, -0.02567737f,
    -0.40107101f, -0.14223441f, 0.10119101f, -0.06654132f, 0.53382665f, 0.39731342f, -0.13119665f, 0.58543861f,
    0.38405567f, 0.04778358f, 0.03072441f, -0.14849485f, -0.43905908f, -0.37775418f, -0.06776606f, 0.15608901f,
    0.24948207f, -0.16206606f, -0.37144551f, -0.68357438f, -0.18355089f, -0.07315956f, -0.10490982f, -0.33172411f,
    0.61933535f, 0.07565734f, -0.55099350f, -0.38119832f, 0.48498669f, 0.18762359f, -0.69502050f, 0.00619263f,
    0.05788513f, 0.10042056f, -0.08128437f, -0.12211527f, 0.13762462f, -0.14183262f, 0.04259507f, 0.08777487f,
    -0.11461636f, 0.02059658f, 0.01225124f, 0.13828155f, -0.05748695f, -0.04980384f, -0.14539492f, -0.06194144f,
    -0.01933372f, 0.16916376f, -0.14845622f, 0.10655957f, 0.09105203f, 0.03638203f, 0.04745913f, 0.02440256f,
    0.00074266f, -0.12938002f, -0.09807549f, 0.14479497f, -0.12849638f, -0.04691309f, 0.10619372f, 0.13399816f,
    0.02055408f, -0.11617105f, 0.16099161f, -0.13159271f, -0.15904450f, -0.15863118f, -0.01047997f, -0.16682036f,
    0.03240967f, -0.06493840f, -0.04377092f, 0.16317567f, 0.11497349f, 0.13505358f, 0.07243206f, 0.08295143f,
    0.09318358f, 0.11919159f, 0.02937864f, 0.14935550f, -0.03293127f, -0.16514580f, 0.15665996f, 0.12579265f,
    -0.11109363f, 0.11626294f, -0.01059687f, -0.10882846f, -0.08639003f, 0.16405025f, 0.03239572f, 0.12993890f,
    0.14897993f, -0.05619412f, 0.12035954f, -0.08925985f, 0.14131549f, -0.13877061f, 0.09144855f, 0.12851468f,
    0.00947306f, -0.11630179f, 0.03506669f, 0.03992832f, -0.07959662f, 0.15616763f, -0.08571391f, -0.11802278f,
    -0.07516915f, 0.01734506f, 0.02503705f, -0.15109545f, -0.12265116f, -0.05824807f, -0.07030720f, 0.09016198f,
    -0.02852626f, -0.12920246f, -0.11107390f, 0.15382981f, 0.09394118f, 0.01785241f, -0.11969528f, -0.08914013f,
    -0.00047581f, -0.03867674f, -0.15509403f, -0.04000859f, -0.03937443f, 0.28359196f, -0.12011276f, 0.07355578f,
    -0.06285501f, -0.55997866f, 0.01572050f, 0.09992411f, 0.07230446f, 0.49059251f, 0.16701078f, 0.09536024f,
    0.10818101f, -0.01893058f, -0.00144612f, -0.28803882f, 0.25680286f, -0.54827416f, -0.03883567f, 0.15597267f,
    0.27205342f, 0.40907037f, -1.64895689f, -0.16279845f, 0.36566964f, 0.13777739f, 0.52501696f, 0.36782110f,
    0.15403041f, 0.23053034f, -0.25397825f, -0.11055617f, -0.08489753f, 0.03358085f, 0.48406860f, 0.61327803f,
    -0.03748729f, 1.00581765f, 0.42687568f, 0.50135225f, -0.24596298f, 0.04349335f, 0.60162061f, 0.47575757f,
    0.07025411f, 0.39396822f, 0.15196189f, 0.28641728f, 0.25250924f, 0.32311964f, -1.89489925f, 0.54344565f,
    -0.05369457f, -0.02182804f, 0.06580383f, -0.20480059f, -0.41767871f, 0.00297694f, 0.30210507f, 0.92601860f,
    -0.36930582f, -0.49560261f, 0.00671346f, -0.00847772f, -0.18123329f, 0.23988439f, 0.13589841f, -0.43277836f,
    0.24669915f, 0.14283130f, -0.12234305f, 0.05649520f, -0.83238131f, -0.02190041f, 0.15446322f, -0.21943399f,
    -0.02214902f, 0.06118578f, -0.08813724f, -0.04363552f, 0.59988964f, 0.09458744f, -0.04544511f, 0.04945315f,
    -0.05855999f, 0.36186376f, 0.55069381f, 0.37666458f, 0.50245506f, 0.14664482f, -0.16856484f, 0.27173471f,
    -0.27158466f, 0.01198684f, 0.73188978f, -0.17890681f, -0.77850461f, -0.55083901f, 0.22518373f, -0.06183830f,
    -0.04726467f, 0.66873640f, 0.43362278f, -0.17003417f, -0.11282931f, 0.07931853f, 0.05115040f, 0.40696841f,
    -0.09797470f, 0.38238159f, 0.35105515f, -0.07999689f, 0.52769071f, 0.62863654f, -0.02630488f, -0.32326248f,
    -0.23388241f, -0.33164781f, -0.05799947f, 0.08516794f, -0.02969797f, -0.43331781f, 0.03896983f, 0.16209921f,
    -0.67186272f, 0.43810529f, 0.46898848f, -0.28777874f, -0.07937805f, -0.11408113f, -0.72690922f, -0.14870256f,
    0.16385867f, 0.01030074f, -0.48479488f, 0.00276669f, 0.04995420f, -0.19076236f, -0.33553603f, -0.36888191f,
    -0.08855612f, -0.06428915f, 0.30761313f, 0.17600299f, 0.11888959f, 0.68598336f, 0.58214617f, 0.78450394f,
    0.83457637f, 0.28297108f, 0.43542242f, 0.03201451f, -0.08432498f, -0.02133757f, -0.21315880f, 0.04410775f,
    -0.48142222f, 0.14036936f, 0.19648445f, -0.47041669f, -0.23789957f, -0.12736297f, -0.01074240f, -0.03420996f,
    -0.27122325f, 0.40241745f, -0.06734530f, -0.42316380f, -0.46719655f, -0.09458794f, -0.00140128f, 0.03186944f,
    0.70304179f, -0.18330775f, -0.01888286f, 0.40393937f, 0.17835397f, 0.01695751f, 0.05341692f, -0.42451137f,
    -0.06551690f, -0.32308370f, -0.01798870f, -0.05797938f, -0.06552364f, 0.39441571f, -0.06175936f, -0.13411072f,
    0.20552675f, 0.52340406f, 0.16286352f, -0.46806514f, 0.35191759f, -0.15260966f, 0.19928053f, -0.62347978f,
    -0.31429476f, -0.31432560f, -0.14643480f, -0.03316921f, -0.10948943f, -0.04305696f, -0.16848820f, 0.16609654f,
    -0.11556108f, 0.00895935f, 0.04263493f, 0.05946788f, 0.07147537f, -0.05139177f, -0.05889900f, -0.04733938f,
    0.00805242f, 0.04684325f, 0.15401006f, 0.03533565f, -0.15625347f, -0.12332410f, -0.07436744f, 0.14449969f,
    -0.08688099f, -0.10382743f, 0.05322444f, -0.11525566f, -0.03168428f, 0.15512893f, 0.09859619f, -0.01805741f,
    -0.07682993f, -0.06597520f, 0.06543997f, 0.12292877f, -0.17212851f, 0.12562925f, -0.06275916f, 0.13073757f,
    0.09613588f, 0.16195765f, -0.12032569f, -0.12326501f, -0.09902190f, -0.06088357f, 0.09627193f, -0.14677005f,
    -0.08410801f, -0.14479101f, 0.00055513f, -0.04897711f, -0.16594672f, 0.15462813f, -0.12734136f, -0.07931574f,
    -0.15014115f, -0.04599810f, -0.09088577f, 0.16663972f, 0.03747046f, -0.16172209f, 0.05943654f, -0.00840689f,
    -0.16357298f, -0.06197290f, -0.02698211f, 0.13210201f, 0.08473715f, -0.11985005f, 0.00340654f, 0.04469681f,
    -0.07425471f, -0.04471985f, 0.11209092f, -0.15803958f, 0.05583663f, 0.06326202f, -0.08081686f, 0.14803377f,
    -0.09005065f, -0.06711896f, -0.12597147f, -0.00063682f, 0.07197765f, -0.09015013f, 0.05113292f, -0.02786541f,
    0.09380075f, -0.14567553f, 0.03146802f, -0.05146077f, 0.08539966f, -0.09678559f, 0.06544980f, 0.14168581f,
    0.03538024f, -0.10412183f, 0.11661452f, 0.13175410f, -0.10674363f, -0.14166054f, 0.09828043f, 0.11710745f,
    0.16451859f, 0.22718175f, 0.23972346f, -0.04857945f, 0.01542313f, 0.34444398f, -0.15241788f, 0.07617598f,
    0.01482306f, 0.36752841f, -0.00500329f, -0.18153307f, 0.30492073f, 0.25761953f, 0.03106338f, 0.01816309f,
    -0.03183954f, -0.27279532f, 0.07587467f, -0.06596199f, -0.01147819f, -0.01207098f, -0.04078867f, -0.16741237f,
    -0.35987926f, 0.26742849f, 0.02300425f, 0.19972976f, 0.01555981f, 0.32840729f, -0.39080611f, 0.12501767f,
    -0.19318627f, 0.00162621f, -0.15682837f, 0.04102680f, 0.17415282f, -0.04569516f, -0.05143227f, -0.50087035f,
    0.37828112f, -0.05852028f, 0.18915215f, 0.38965899f, 0.05217287f, 0.48639968f, 0.28771776f, 0.04778423f,
    0.21602169f, -0.10014978f, -0.00073849f, 0.16001756f, -0.14488381f, 0.04539953f, -0.13582763f, 0.18606928f,
    0.05233848f, -0.13087343f, 0.44018495f, 0.11597571f, 0.02486264f, 0.26088971f, 0.06965932f, 0.11360849f,
    -0.13745859f, 0.46066704f, 0.08178070f, -0.05561553f, -0.20530263f, -0.11092255f, -0.04753436f, -0.10295565f,
    -0.18334356f, -0.07884815f, 0.11206760f, 0.26548898f, 0.15152207f, -0.14561214f, 0.06627208f, 0.09976257f,
    0.27267492f, -0.00844707f, 0.08210132f, 0.11631937f, 0.22422612f, 0.00190441f, 0.35196653f, -0.30808008f,
    0.17340647f, 0.25608712f, 0.12666470f, 0.12970394f, 0.24483937f, 0.01727374f, 0.12546296f, -0.12553161f,
    0.15027575f, 0.22038117f, 0.00046387f, 0.00548408f, -0.09160402f, -0.26675582f, 0.38714954f, 0.03169586f,
    -0.01172395f, 0.22486822f, -0.07754041f, -0.26906791f, -0.07136159f, 1.14737976f, 0.61632293f, 0.10302165f,
    -0.38925326f, -0.35024601f, 0.11905161f, -0.58552802f, 0.42451823f, -0.69102883f, 0.17274472f, 0.07133470f,
    0.02314301f, 0.26361930f, -0.78919148f, 0.06324892f, -0.73805380f, -0.00495621f, -0.39018154f, 1.06680334f,
    0.00023279f, 0.88808453f, -0.88346618f, -0.14361621f, 0.04684924f, 0.13365474f, 0.13586277f, -0.29541647f,
    0.38008448f, -0.46205983f, 0.20447627f, -0.11084609f, 0.04961662f, -0.09219189f, 1.07243848f, 0.99119461f,
    0.14926110f, 0.71847403f, 0.17911676f, -0.22935338f, 0.11395457f, -0.58248574f, -1.36894512f, 1.10275459f,
    0.04623981f, 0.15450966f, -0.56609207f, -0.52067584f, -0.10718414f, 0.16911528f, 0.77188045f, 0.56312114f,
    -0.87853652f, -0.76794237f, 0.02338228f, -0.08140665f, -0.74791670f, 0.32391807f, 0.03935022f, -0.13969527f,
    0.07290943f, -0.09284032f, -0.05700690f, 0.06625779f, -0.40997514f, -0.74120647f, -0.03859191f, -0.32816291f,
    -0.88877523f, -0.07934869f, 0.09323597f, 0.17035745f, 0.56051099f, -0.13497247f, -0.09853280f, 0.12364654f,
    -0.66829145f, -0.27563834f, 1.02954733f, -0.21691827f, 1.01981056f, 0.62508035f, 0.14956918f, 0.47660354f,
    -0.70196247f, 0.14031422f, 0.36196405f, 0.12767448f, 0.34150556f, 0.02043444f, 1.11056221f, -0.13624991f,
    -0.02140091f, -0.03143567f, -0.53270012f, 0.07509063f, -0.05524883f, 0.44652405f, 0.12565780f, -0.17566207f,
    -0.12616988f, -1.13659775f, -0.63874197f, 0.15592010f, -0.15070145f, -0.06787076f, -0.05202978f, 0.43231189f,
    0.02690639f, 0.33035278f, 0.17234620f, -0.01371333f, 0.37012446f, 0.05307492f, 0.54908061f, -0.06844354f,
    0.33079937f, 0.05280205f, -0.24741080f, 0.26374716f, -0.05509123f, 0.15047704f, 0.50297213f, -0.07032073f,
    -0.15244012f, 0.13088226f, 0.16587473f, -0.22962634f, 0.24364005f, 0.13634633f, 0.23675862f, -0.56099367f,
    0.70868766f, -0.05260978f, -1.04022586f, -0.53357726f, -0.02210286f, -0.50576687f, -0.16137077f, -0.19343233f,
    -0.17589423f, 0.11339934f, 0.21407478f, -0.85049927f, 0.13022926f, -0.00077449f, 0.19075510f, 0.23673469f,
    0.52752149f, -0.10618155f, -0.19425741f, 0.03766063f, 0.62104475f, 0.57996917f, 0.15589640f, 0.05896852f,
    0.32235521f, 0.07375152f, -0.03300713f, 0.49096924f, 0.29820275f, 0.04000682f, -0.10008162f, -0.13918436f,
    -0.70939249f, 0.05650099f, 0.02494868f, 0.16676240f, 0.29117987f, 0.13694239f, 0.01822676f, 0.25792086f,
    -0.26455671f, 0.36242962f, 0.11209008f, -0.02512456f, 0.41714159f, -0.45963830f, -0.03848837f, -0.26261431f,
    -0.78868103f, -0.46334386f, 0.00115272f, -0.04259377f, 0.28303844f, -0.09367667f, -0.03544902f, 0.47583291f,
    0.66679823f, 0.43577272f, -0.67711818f, -0.03991668f, -0.03850557f, 0.06581724f, 0.13280690f, 0.12786847f,
    -0.07945378f, -0.09721871f, -0.07679730f, 0.14896291f, 0.00944345f, -0.09405881f, -0.04713802f, 0.16973329f,
    -0.08459392f, -0.05432928f, -0.13158758f, 0.12173659f, 0.02930114f, 0.12178588f, -0.07791186f, -0.13768446f,
    -0.06471165f, 0.00432565f, -0.17013712f, -0.02319376f, -0.04237625f, 0.12635013f, 0.12567532f, -0.03819182f,
    0.08567661f, 0.13494675f, -0.11648264f, -0.02112639f, 0.15348406f, -0.05722642f, 0.03762529f, 0.12300059f,
    0.10753440f, -0.12315016f, 0.06252869f, -0.13598147f, -0.02905856f, -0.14817759f, -0.07460928f, -0.14802510f,
    -0.02272436f, 0.03606074f, -0.11599668f, -0.01509477f, 0.09384472f, 0.03190338f, 0.01889461f, 0.06074094f,
    -0.11705011f, -0.12678792f, -0.02357453f, -0.04889641f, -0.12689906f, -0.06898699f, 0.06951147f, -0.10092392f,
    0.06800579f, -0.03633847f, 0.11962757f, 0.15916227f, -0.10791180f, -0.14862549f, 0.05272035f, 0.02538102f,
    0.06300040f, -0.12318601f, -0.04770517f, -0.07579453f, -0.07990906f, 0.01257372f, -0.04064198f, -0.05445377f,
    0.16404578f, 0.09713730f, 0.06249830f, -0.03923784f, -0.06831411f, -0.12177734f, 0.09611079f, -0.14334424f,
    -0.05527046f, 0.01922197f, 0.05265026f, -0.07028639f, -0.05759715f, -0.02942054f, 0.06142351f, 0.14340141f,
    0.16149709f, -0.09314214f, 0.11178826f, -0.01452466f, -0.06679554f, 0.15530588f, -0.08357187f, -0.14118454f,
    -0.07233135f, 0.30090043f, 0.37333450f, 0.09760168f, 0.07454084f, 0.15170617f, -0.00216094f, -0.09695143f,
    -0.06818313f, 0.43481401f, 0.20256998f, -0.01633257f, 0.46105912f, 0.46996126f, -0.12816782f, -0.30159271f,
    -0.08288411f, -0.55675632f, -0.09133445f, 0.12960647f, 0.27390516f, -0.16803177f, -0.76576352f, 0.01366830f,
    0.08251573f, 0.35322362f, 0.38128853f, 0.20582913f, -0.15745308f, 0.26113990f, -0.36074620f, -0.14785208f,
    -0.07579361f, -0.08101173f, -0.00698855f, -0.16679870f, 0.24638906f, 0.31030977f, -0.08858486f, -0.47991017f,
    0.23361054f, -0.07690231f, 0.42697713f, 0.52341890f, -0.06678902f, 0.44373176f, 0.54829568f, 0.35853302f,
    0.33687678f, 0.04243439f, -0.76924026f, 0.05491741f, -0.06450393f, -0.08301253f, -0.29151961f, 0.28209537f,
    -0.05280776f, -0.13438451f, 0.52594072f, 0.53094137f, -0.05920374f, 0.09667286f, -0.05484327f, 0.15125938f,
    -0.24599975f, 0.65073401f, -0.03257724f, -0.32973281f, -0.15238644f, -0.16237786f, -0.09702093f, 0.13928011f,
    -0.42823094f, -0.30045864f, 0.02980162f, 0.05387741f, -0.01042080f, -0.07639504f, -0.04580475f, -0.08192688f,
    0.27311692f, -0.14467677f, 0.14582217f, -0.06314261f, 0.10617935f, -0.00646835f, 0.33731440f, -0.50127339f,
    0.52598000f, 0.09062728f, 0.12331462f, -0.15588883f, 0.00127833f, -0.12667501f, 0.28847367f, -0.07173147f,
    0.00438666f, 0.24484059f, -0.25951558f, -0.15050377f, -0.17145461f, 0.67673123f, 0.60415089f, -0.14129393f,
    0.05506027f, 0.18915550f, -0.10809138f, 0.07397897f, -0.42933717f, 0.71947688f, 0.14586638f, -0.07088028f,
    0.77200598f, 0.48800820f, -0.05603440f, -0.41970670f, -0.23494515f, -0.45062503f, -0.14024299f, 0.07883492f,
    0.59232247f, -0.28548366f, -0.91378433f, 0.05977318f, -0.02153729f, 0.26370603f, 0.64523619f, 0.50485557f,
    -0.01058575f, 0.23550607f, -0.39936787f, 0.06612451f, -0.19419457f, 0.16735816f, -0.25801384f, -0.13875191f,
    0.47032747f, 0.32870123f, -0.03672859f, -0.90750694f, 0.22472113f, -0.02169436f, 0.60902965f, 0.93290615f,
    -0.17288800f, 0.83458799f, 0.72409880f, 0.62411231f, 0.78786790f, -0.11059511f, -0.97303832f, 0.28969353f,
    -0.01902833f, -0.05721093f, -0.31838977f, -0.18940739f, -0.23539458f, 0.12229741f, 0.48747113f, 0.51800138f,
    -0.14364588f, -0.24727947f, 0.05759142f, 0.04318680f, -0.26187035f, 0.72521770f, 0.13903353f, -0.43580997f,
    -0.26137057f, -0.16742167f, -0.09125768f, -0.00336730f, -0.28530079f, -0.24958780f, 0.12088299f, 0.04686430f,
    -0.10085696f, -0.15025897f, -0.04602642f, -0.45256767f, 0.59815317f, -0.32759529f, -0.02388264f, 0.11622108f,
    0.06893576f, -0.12482527f, 0.57004237f, -0.68020988f, 0.75178695f, 0.17259182f, -0.13984706f, -0.10419382f,
    -0.00875012f, 0.11461666f, 0.54137594f, -0.31602812f, -0.08186737f, -0.01617391f, -0.44660586f, 0.01949503f,
    -0.11549024f, -0.40791750f, -0.25489938f, -0.15445940f, 0.04585129f, -0.28142396f, 0.14814055f, 0.28358856f,
    0.21979137f, -0.69182611f, 0.12586825f, -0.15335473f, -0.08617412f, 0.02807405f, 0.08427776f, 0.66049629f,
    0.34920663f, 0.63149422f, -0.00449491f, -0.02111774f, -0.23955919f, 0.47190458f, 0.41378602f, -0.06711707f,
    0.47772834f, -0.21219260f, -0.15396981f, -0.43298030f, 0.04564306f, -0.37293822f, 0.24136962f, 0.06134033f,
    -0.09117566f, -0.06958206f, 0.62243569f, 0.36764836f, -0.41171181f, 0.13903169f, 0.34600252f, 0.49022365f,
    -0.35901937f, -0.07334325f, -0.74808621f, -0.86909312f, -0.00706479f, -0.86811781f, -0.44394174f, -0.20228377f,
    -0.40024012f, 0.43871400f, 0.47513121f, -0.31703264f, 0.03652418f, -0.03544149f, 0.28817075f, 0.20103097f,
    0.24539231f, -0.06250478f, -0.74837947f, -0.20878281f, -0.03041872f, 0.05612313f, -0.11840732f, 0.06136681f,
    0.57487768f, -0.48570013f, -0.10483334f, 0.29065728f, 0.73120773f, -0.10169507f, 0.09158832f, 0.02124636f,
    0.38214555f, 0.56638336f, -0.11539397f, -0.18864723f, 0.07682812f, 0.04734983f, 0.00177322f, 0.55579323f,
    -0.56179345f, 0.52073956f, -0.10299546f, -0.16863196f, 0.18820380f, 0.51346272f, -0.60288078f, 0.20068400f,
    -0.45880339f, -0.08598397f, -0.10239007f, 0.23444495f, 0.14071798f, 0.02059735f, -0.34731171f, 0.54677147f,
    -0.01116164f, -0.14901704f, 0.29915449f, -0.11539478f, -0.07461717f, -0.37875748f, -0.82368696f, -0.09133366f,
    0.04040919f, 0.05004921f, -0.04447983f, -0.13747659f, 0.27905008f, -1.23181248f, -0.55100143f, -0.01155160f,
    -0.42491198f, -0.49142447f, -0.12866655f, 0.36442399f, 0.50398391f, 0.40936831f, 0.16207793f, -0.03612428f,
    0.02656357f, 0.73556429f, 0.30487978f, 0.11121989f, 0.53531796f, -0.32090381f, -0.21021514f, -0.05744240f,
    -0.02733718f, 0.18814357f, 0.49207255f, -0.10560635f, -0.12186304f, 0.02725209f, 0.88212764f, 0.19606459f,
    0.02905084f, 0.45726120f, 0.58772486f, 0.22836077f, 0.11816533f, -0.06477148f, -0.80619276f, -0.98880756f,
    -0.13272698f, -1.09702015f, -0.66114712f, -0.62475699f, -0.74651396f, 0.27139679f, -0.15446973f, -0.71200883f,
    0.06404617f, -0.06421796f, 0.46721986f, 0.34407231f, 0.53034568f, -0.00806502f, -0.55178404f, 0.33772886f,
    0.43374756f, 0.25972039f, -0.10690369f, -0.11295760f, 0.46452758f, -0.22714123f, -0.13453348f, 0.81621301f,
    0.72590715f, 0.11641911f, -0.04736039f, -0.06924219f, -0.84552932f, 0.42513999f, -0.06759052f, 0.09947678f,
    0.35384059f, -0.10579284f, 0.02953582f, 0.75200701f, -0.16858181f, 0.73740387f, 0.13889024f, -0.15179081f,
    0.37473530f, -0.18077356f, -0.13805525f, 0.11212724f, -0.93061113f, -0.45023021f, -0.12351179f, 0.35999984f,
    0.14865798f, 0.11055550f, -0.01328520f, 0.72326148f, 0.09009743f, 0.21078169f, -0.24499540f, 0.03071412f,
    -0.15689810f, -0.12169513f, 0.05799286f, -0.09272680f, 0.01966296f, 0.14412439f, 0.07676806f, 0.07784206f,
    -0.15366347f, 0.07425173f, -0.16825952f, -0.09711207f, 0.01574104f, -0.15739323f, -0.02534859f, -0.09688833f,
    0.02037837f, 0.05718867f, 0.13241848f, 0.07477358f, 0.00961193f, 0.04968548f, 0.13332760f, 0.08497554f,
    -0.11733951f, 0.03134277f, -0.13587107f, -0.17228241f, -0.06371813f, 0.02801432f, 0.00785783f, 0.17205456f,
    -0.13003975f, -0.14132844f, -0.04257588f, 0.05244339f, 0.07715529f, -0.14432929f, 0.01051110f, -0.15231085f,
    -0.16663483f, -0.05877087f, -0.15568240f, -0.03530522f, 0.06941415f, 0.12871537f, 0.04271285f, -0.02726564f,
    -0.03496045f, 0.00144963f, -0.12016584f, 0.15556884f, -0.07713885f, -0.17286001f, 0.01706500f, -0.12803400f,
    -0.05562280f, -0.08460711f, -0.11138402f, -0.05453343f, -0.09914400f, 0.10777444f, 0.04081017f, -0.02079627f,
    0.15614781f, 0.14657801f, 0.16678217f, 0.04332845f, -0.07315245f, -0.03543554f, 0.02708031f, -0.03914127f,
    -0.10258279f, -0.07448695f, 0.05927412f, -0.10689601f, -0.05766353f, -0.08234739f, 0.00786118f, -0.06859270f,
    -0.02418943f, 0.01447326f, -0.13449262f, -0.00929648f, -0.05177309f, 0.10635075f, 0.11160314f, 0.13988683f,
    -0.00172077f, 0.09453210f, -0.16504830f, 0.11727875f, 0.02711120f, -0.13668719f, 0.04725347f, 0.00958072f,
    0.04920211f, -0.01021534f, 0.12422982f, -0.11890662f, 0.01624751f, -0.11789072f, -0.16848932f, -0.03915633f,
    -0.12422074f, 0.01489134f, 0.02354522f, -0.08511215f, -0.06123966f, 0.15933976f, 0.16783395f, -0.14393117f,
    0.06108679f, 0.10560969f, 0.10096338f, -0.15757340f, 0.11494315f, 0.15355384f, -0.01820116f, 0.16192910f,
    -0.05208953f, 0.13816798f, -0.09949262f, 0.02350859f, 0.16937605f, -0.14306298f, -0.05335304f, 0.14973807f,
    0.06840560f, -0.03924723f, 0.16250318f, 0.13791546f, 0.07549460f, 0.08846447f, -0.06640285f, -0.00978105f,
    0.06491895f, 0.06777118f, -0.06428738f, -0.02925913f, 0.02038923f, -0.09240156f, -0.04994919f, -0.06036470f,
    -0.15237407f, -0.02793796f, 0.00458960f, -0.12439477f, 0.08197638f, 0.06725185f, 0.08739316f, 0.01587871f,
    0.14586696f, -0.06928932f, -0.14042895f, -0.02943228f, 0.12942475f, 0.03286161f, -0.02688693f, 0.04052651f,
    -0.04833967f, 0.07701436f, 0.04276617f, 0.13968036f, 0.08093128f, -0.06078736f, -0.03450607f, 0.05768323f,
    -0.02723368f, -0.03306194f, 0.11228269f, 0.14060909f, 0.13507229f, -0.04906902f, 0.05956258f, 0.17266649f,
    0.05027464f, -0.15102404f, -0.10405216f, 0.08403137f, 0.09953550f, 0.07822075f, 0.11730877f, -0.12623167f,
    -0.14505072f, -0.00710998f, 0.09030944f, -0.15416369f, 0.13821727f, 0.09710580f, 0.03867553f, 0.03997506f,
    -0.05207747f, 0.00391707f, -0.06284139f, -0.16331659f, 0.03374529f, -0.00311424f, -0.01739198f, -0.09969518f,
    0.15230942f, -0.70865142f, -0.44581401f, 0.10710546f, 0.08044377f, -0.10138354f, -0.05082466f, -0.29542267f,
    0.28292963f, 0.13649330f, 0.07493570f, 0.00341431f, -0.57631433f, -0.56359130f, -0.03676084f, -0.03880784f,
    0.63404846f, 0.01314593f, 0.12123403f, -0.00467592f, -0.03800267f, 0.83454245f, -0.12849467f, -0.13542552f,
    0.25564209f, -0.23063873f, -0.37510020f, 0.48563436f, 0.15459767f, 0.70474774f, -0.04388897f, -0.02824128f,
    -0.06172600f, -0.13806868f, 0.85005170f, -0.00860489f, -0.10819596f, 0.29663414f, 0.52620238f, 0.46426821f,
    -0.13422571f, 0.06329925f, 0.16440213f, 0.10743573f, -0.08583318f, -0.28522050f, -0.36635461f, -0.71127772f,
    -0.75582892f, -0.25729370f, -0.90308285f, 0.65053052f, -0.02382341f, -0.06004892f, 0.14916568f, -0.25605330f,
    0.44416896f, -0.05149756f, 0.10869295f, 0.28611955f, -0.16323709f, -0.36884490f, -0.14802749f, 0.06137373f,
    0.01902029f, -0.05777030f, 0.12800261f, 0.34665382f, 0.59648031f, -0.12616311f, -0.02030990f, 0.00750360f,
    -1.08254778f, -0.19731666f, -0.05704888f, -0.36214590f, -0.27687329f, 0.02691872f, -0.10409821f, 0.71860951f,
    0.19669674f, 0.45964539f, 0.09404972f, 0.08639815f, -0.28983513f, -0.14737570f, 0.27904361f, 0.34058857f,
    0.17565936f, -0.04371240f, -0.09214466f, 0.79378557f, -0.54588205f, 0.15593469f, 0.44747847f, 0.73154759f,
    0.14137304f, -0.10458248f, 0.94825363f, 0.06736884f, -0.04684721f, 0.56752563f, -0.05298486f, -0.06636906f,
    -0.12156212f, 0.20060498f, -0.13608199f, 0.07677245f, -0.14059632f, -0.79306316f, -0.30127653f, -0.02278945f,
    0.34384668f, 0.21265402f, -0.10063562f, 0.14292049f, -0.34536362f, 0.11681505f, -0.06428783f, 0.08284799f,
    0.17123030f, -0.24858280f, 0.27194667f, -0.14053270f, 0.26848200f, 0.28780907f, 0.31064472f, -0.32141036f,
    -0.06621045f, -0.46048364f, 0.27280053f, 0.04805322f, -0.00432139f, 0.01591566f, -0.41733131f, 0.06419659f,
    0.24589765f, 0.26277483f, -0.30104879f, -0.58630788f, 0.26709166f, 0.00602730f, -0.59265500f, -0.26061347f,
    0.15380046f, 0.03098441f, 0.56580520f, 0.52471113f, 0.62682241f, 0.20811771f, 0.19177879f, -1.23198366f,
    0.00770470f, 0.03904364f, 0.19851053f, 0.35100245f, 0.10017680f, -0.11098990f, -0.01550166f, -0.33212033f,
    0.29727778f, 0.36289716f, -0.16804399f, 0.00106892f, 0.30769616f, 0.38816282f, 0.13935715f, -0.01071347f,
    -0.14848424f, -0.12423524f, -0.14873216f, -0.07561658f, -0.01726583f, 0.08367005f, -0.14773257f, 0.32006466f,
    0.48988742f, -0.07823467f, -0.14983280f, -0.45214328f, -0.05199122f, -0.00375921f, -0.00220963f, -0.04178020f,
    0.28726831f, -0.05540988f, -0.27883914f, -0.33076295f, -0.33111572f, -0.19803920f, 0.14400846f, -0.45802668f,
    0.25480986f, 0.03635052f, 0.10713234f, -0.15611288f, 0.10296118f, 0.22167107f, -1.54918611f, -0.09944553f,
    -0.15989600f, 0.69173574f, 0.85934240f, 0.00564763f, -0.15181997f, 1.16865706f, -0.09488704f, -1.46547747f,
    -1.27153456f, 2.06095648f, -0.33594966f, 0.14057730f, -0.20067540f, 0.11363483f, 0.15068315f, -1.55174923f,
    -0.74458373f, -1.33100808f, -0.13657573f, -0.01208998f, 1.06514406f, -1.05032206f, -2.40789986f, -0.14668682f,
    -1.62510765f, 0.90654212f, -0.15997636f, 1.35438395f, -0.12687850f, 1.90520906f, -1.37211919f, 0.04294567f,
    0.11556657f, -0.10585127f, -1.33490038f, -1.32437754f, 1.68754542f, -0.86791760f, -0.81809998f, -1.65002000f,
    1.79269290f, -0.04297492f, 1.90167665f, 2.31245160f, -0.01270945f, 1.87723756f, 0.94536269f, 0.08352496f,
    0.95978290f, -1.34567165f, -1.39093244f, 1.94383335f, -0.04683863f, -0.00085118f, -1.14177132f, -0.45428985f,
    -0.47052595f, 0.01840578f, 1.87153339f, 0.79432857f, -0.30864647f, -0.24632944f, -0.05636740f, -0.14550816f,
    -1.36891043f, 1.67961442f, -0.06400222f, -1.10887146f, -1.21924555f, 0.06402086f, -0.04992000f, -0.09088730f,
    -0.50034124f, -1.86778986f, -0.09072803f, 0.51721287f, -0.49305531f, 0.12605831f, 0.07405442f, -0.75875145f,
    1.95763075f, -0.68073827f, 0.01900026f, -0.00415608f, -0.67589188f, -1.92603087f, 2.32795811f, -1.01057827f,
    2.11947966f, 0.51313514f, -0.10296047f, -0.25547379f, -0.05240980f, -0.06942328f, 0.40204585f, -0.71904022f,
    1.33885717f, 1.37650883f, 0.57740015f, 0.10431429f, -0.05252255f, 0.13679817f, -0.06303254f, 0.02953032f,
    0.09698334f, 0.11716163f, 0.07163262f, 0.03123565f, 0.08421323f, -0.11550913f, 0.10249388f, 0.05598029f,
