// Auto-generated from kws_mlp.h5
// MLP Weights for STM32 Inference

#ifndef KWS_WEIGHTS_H
#define KWS_WEIGHTS_H

// Layer 0: hidden1
// Input: 26, Output: 100
#define KWS_LAYER0_INPUT_SIZE 26
#define KWS_LAYER0_OUTPUT_SIZE 100

static const float kws_layer0_weights[2600] = {
    -0.11667267f, 0.01083930f, -0.14920644f, 0.21938153f, -0.03316160f, 0.02021325f, -0.14404388f, -0.29869658f,
    0.13844952f, -0.05988018f, -0.09520411f, 0.17923898f, -0.11107595f, -0.10812490f, -0.04093912f, -0.19203740f,
    0.07091276f, -0.03044751f, -0.01962157f, 0.05271220f, -0.22268467f, 0.19131546f, 0.02046028f, 0.17815946f,
    -0.07123815f, 0.18972550f, 0.06936817f, 0.15758631f, 0.12512685f, 0.10461413f, -0.02074762f, 0.10310607f,
    -0.08567038f, 0.12126175f, 0.02375588f, 0.14459434f, -0.05886041f, -0.06955402f, -0.01237396f, 0.19466047f,
    -0.17413041f, -0.04730131f, 0.12230837f, 0.20426981f, -0.08356202f, -0.04848016f, 0.10695623f, -0.18349952f,
    -0.12528007f, -0.12809467f, -0.05918926f, -0.15094417f, -0.03855073f, 0.09145676f, 0.12435023f, 0.08900575f,
    -0.07430704f, 0.07446092f, -0.05214816f, 0.04282557f, -0.01105464f, -0.08149541f, -0.08930589f, 0.00760146f,
    0.10708236f, 0.09203563f, -0.01431471f, 0.09165072f, -0.04422898f, -0.02183153f, 0.05092584f, -0.09675138f,
    -0.14067721f, -0.03875460f, -0.07243051f, -0.16572446f, -0.04964529f, 0.09747636f, -0.00062779f, 0.09346068f,
    -0.18915670f, -0.02590473f, 0.04098944f, 0.11711110f, -0.00245362f, 0.01511698f, -0.00641662f, -0.20884399f,
    0.13670358f, 0.08451761f, -0.09636176f, 0.14355564f, 0.02849921f, 0.09894357f, 0.14427529f, 0.04701912f,
    0.14534870f, -0.12146147f, 0.14294130f, -0.15506563f, -0.15860428f, 0.13395315f, -0.16537762f, 0.35990745f,
    0.34826088f, 0.01356947f, 0.19700824f, 0.10456950f, 0.02857392f, -0.17156489f, 0.01895851f, 0.11872005f,
    0.35365251f, -0.15665358f, -0.17354417f, -0.00651127f, -0.23368743f, 0.17087942f, -0.20045242f, 0.53574181f,
    -0.20786145f, 0.13100575f, -0.15671183f, 0.36462429f, -0.09078410f, 0.16051574f, 0.28380987f, -0.38327220f,
    0.32560369f, 0.12808429f, 0.12231107f, -0.48003486f, 0.05041746f, 0.46221793f, -0.25170609f, -0.28607860f,
    -0.10095733f, -0.32994369f, 0.41299155f, 0.42125770f, 0.07599021f, -0.27010301f, -0.19412151f, -0.12414180f,
    0.13780117f, -0.26517987f, -0.13322188f, -0.29230946f, 0.11322003f, -0.09824853f, -0.17788760f, 0.20076813f,
    0.13812728f, 0.22176419f, 0.35475069f, -0.39631644f, -0.11438672f, -0.27166823f, -0.04045168f, -0.18843223f,
    -0.06892636f, 0.21514949f, 0.12059171f, -0.12030645f, 0.01060208f, 0.13441943f, 0.05511100f, -0.02230166f,
    -0.53741688f, 0.07702449f, -0.05219930f, -0.08463570f, 0.21633850f, 0.29628462f, 0.30508980f, -0.02553116f,
    -0.19053802f, -0.07900786f, 0.22765505f, -0.22508161f, 0.05402930f, 0.26499200f, 0.06403006f, 0.25156060f,
    0.35305354f, 0.16508317f, -0.07892942f, -0.21605861f, -0.23695730f, -0.27723762f, -0.17478471f, 0.12318241f,
    0.30081999f, 0.18730785f, -0.15817703f, -0.35476092f, 0.27015260f, 0.10699271f, -0.12385106f, -0.27847067f,
    0.52771807f, -0.44507894f, -0.55759943f, 0.22949518f, 0.00531910f, -0.12848657f, 0.10273588f, 0.18357790f,
    -0.13005637f, -0.09567069f, -0.06241323f, 0.07804277f, 0.62306321f, -0.20317423f, -0.17560326f, -0.01973461f,
    0.01012639f, -0.05347777f, 0.05455139f, -0.32564411f, -0.06257620f, 0.16099872f, -0.09415498f, 0.24056447f,
    0.12051064f, -0.22096997f, -0.17932954f, -0.15187179f, 0.54062814f, 0.29630822f, -0.10677142f, 0.20551883f,
    -0.06325799f, 0.37645856f, -0.24570335f, -0.50450444f, -0.42996144f, 0.01064483f, 0.03159017f, -0.39918384f,
    0.11992596f, -0.31476289f, 0.19279376f, 0.29358882f, 0.22872806f, 0.31725714f, 0.11584352f, -0.19615464f,
    0.09828200f, 0.21184468f, 0.16570903f, -0.10789380f, 0.21224950f, 0.04802478f, 0.21005931f, 0.04273076f,
    0.15546326f, 0.33605492f, -0.13175458f, -0.31924626f, 0.14291699f, 0.36280805f, -0.16506790f, -0.20739354f,
    0.27542943f, 0.07058101f, 0.35024276f, -0.04457694f, 0.31419259f, -0.04067911f, -0.25401440f, 0.03306753f,
    -0.01123152f, 0.03234692f, -0.18602782f, 0.09203328f, -0.11964758f, 0.18482897f, 0.29056907f, 0.22989583f,
    -0.17479490f, -0.10549057f, 0.26265028f, 0.21408673f, 0.01303738f, -0.07437418f, -0.10578597f, -0.20198832f,
    0.15499382f, -0.32392487f, 0.11237271f, 0.01547090f, 0.02364583f, -0.01799139f, -0.24243452f, 0.08803032f,
    -0.54472733f, -0.43059665f, -0.25293872f, 0.30384502f, 0.48440987f, 0.00732471f, 0.28246149f, -0.44234961f,
    0.43258387f, 0.18668146f, -0.39485466f, -0.53030741f, 0.06452105f, 0.15160389f, -0.12341986f, 0.33927715f,
    0.55843526f, -0.11992691f, -0.04763257f, -0.01140127f, -0.32780102f, 0.14307886f, 0.02435927f, -0.68224359f,
    0.43777320f, -0.18376535f, -0.09101811f, 0.27691978f, 0.28445563f, 0.13647604f, -0.39304897f, -0.13689452f,
    -0.06815355f, -0.27972439f, -0.20746246f, 0.05511666f, -0.17393440f, 0.11403526f, -0.21678714f, 0.03029680f,
    0.13020447f, -0.28611153f, -0.35714567f, 0.22603017f, 0.14636172f, 0.35479495f, 0.10822826f, 0.22036409f,
    -0.06647037f, -0.35564637f, -0.35512716f, -0.28304866f, 0.14873722f, -0.33826548f, 0.12012409f, -0.14427850f,
    0.06036835f, 0.35445109f, 0.12927994f, 0.02648632f, 0.10769424f, 0.05782429f, 0.16236575f, -0.47741485f,
    -0.10839628f, -0.21712010f, -0.11386174f, -0.01176458f, 0.13748085f, -0.82872027f, 0.16882728f, -0.18978736f,
    -0.32806620f, -0.02771517f, -0.18147360f, -0.26669919f, 0.02288276f, 0.28181273f, -0.18590745f, -0.01922170f,
    -0.04555123f, -0.01356191f, 0.14320861f, 0.07532262f, 0.15390860f, -0.02652124f, 0.22974519f, 0.16113198f,
    0.29605618f, 0.07339805f, -0.07217629f, 0.06055425f, 0.21584871f, -0.36768112f, -0.18293035f, -0.14614969f,
    -0.08013575f, -0.05888850f, 0.19374329f, -0.39710543f, 0.26327518f, 0.13352400f, 0.28811890f, 0.06580600f,
    -0.38304737f, 0.16527425f, 0.17663680f, -0.10741974f, -0.08891558f, 0.05537261f, 0.08123121f, 0.01356085f,
    0.09194282f, 0.13140540f, -0.08256665f, -0.11127786f, -0.31056592f, 0.18360727f, -0.05052165f, -0.16189688f,
    -0.07940025f, 0.09187160f, -0.31770250f, 0.16321644f, -0.26602185f, -0.25080997f, -0.10905830f, -0.10110759f,
    -0.06420308f, -0.13728938f, -0.28156087f, -0.26385921f, -0.25555038f, -0.29227099f, 0.14174078f, -0.32901573f,
    0.06238756f, -0.03225880f, 0.24223761f, 0.08838923f, 0.23432927f, 0.13105619f, 0.29009211f, -0.01911853f,
    -0.11198631f, 0.14392342f, 0.03617393f, 0.07362088f, 0.22993430f, -0.32562995f, -0.17275554f, 0.03043870f,
    0.17379797f, -0.15380679f, -0.14368956f, 0.18237875f, -0.19140285f, -0.01366473f, 0.07100415f, 0.00066638f,
    -0.15854430f, -0.22775050f, 0.14312057f, 0.03621195f, -0.18602580f, -0.15978128f, -0.05798171f, -0.14544639f,
    0.33301419f, 0.13051571f, -0.10340299f, 0.12310040f, -0.43932292f, 0.20751627f, 0.15737465f, -0.15852776f,
    0.25884354f, -0.02948251f, 0.03475328f, -0.72974098f, -0.02410924f, -0.00696845f, -0.32240996f, -0.25183660f,
    0.19397442f, -0.08620407f, 0.19169708f, -0.02869153f, -0.16648230f, 0.10313667f, 0.14853917f, -0.08343555f,
    0.35743740f, 0.34789956f, 0.02021340f, 0.06738082f, -0.29597458f, -0.22781722f, -0.17235062f, -0.46807963f,
    -0.03745190f, 0.28166699f, 0.22087179f, 0.30207661f, 0.36101437f, -0.18024585f, 0.00871941f, 0.51965189f,
    -0.37054393f, -0.09921998f, -0.13051480f, -0.25871381f, 0.24707906f, 0.10135464f, -0.12060082f, 0.27984065f,
    -0.03573508f, 0.11006899f, 0.06807140f, 0.29532102f, 0.08872814f, -0.06102335f, 0.37244311f, 0.04912308f,
    0.67302048f, 0.27806282f, -0.14881320f, -0.21505234f, 0.26719546f, -0.02679332f, -0.03294721f, 0.17734589f,
    -0.15034734f, 0.05960967f, -0.16576225f, 0.11600019f, -0.09421115f, -0.30670944f, 0.31821072f, -0.27307686f,
    -0.31698993f, 0.08291914f, -0.29436654f, -0.05958453f, 0.17824940f, 0.02436143f, 0.54808384f, -0.32424518f,
    -0.22860084f, 0.37961453f, 0.39098564f, 0.11403409f, -0.16422912f, -0.25532389f, -0.02142256f, 0.05710770f,
    0.04312053f, -0.06573386f, 0.02841267f, -0.18418518f, -0.15604319f, -0.38714874f, -0.00252624f, 0.13136898f,
    0.02353430f, -0.00208091f, -0.07580811f, -0.14652626f, -0.22638802f, 0.63399911f, -0.10229398f, -0.34269512f,
    0.29474854f, -0.06478389f, -0.21097420f, 0.11909980f, 0.28230628f, 0.33037490f, 0.07641599f, -0.17529829f,
    0.04380967f, -0.30314738f, -0.38485584f, 0.40533724f, -0.18178439f, 0.38684204f, 0.00099992f, -0.00379943f,
    -0.49676612f, -0.16294064f, -0.13060233f, -0.08791129f, 0.29957756f, 0.16335382f, 0.15992142f, -0.04140290f,
    0.41897339f, -0.71638978f, -0.15517104f, 0.05288143f, -0.18937699f, 0.09173343f, 0.01449332f, -0.21718344f,
    0.15194838f, -0.21908498f, -0.12998031f, 0.06718639f, -0.17747390f, 0.14003505f, 0.27173430f, 0.49149859f,
    0.34350738f, -0.18278742f, -0.18471904f, 0.73080242f, 0.14237155f, 0.17583488f, -0.49667639f, 0.28543991f,
    -0.33371195f, 0.31133544f, -0.86826223f, -0.09974819f, -0.16853267f, -0.15484513f, 0.00169753f, -0.69395643f,
    0.15590850f, -0.34781349f, -0.53099078f, 0.08417360f, 0.52450895f, -0.43235064f, -0.07666051f, 0.19696598f,
    0.24217367f, 0.06087905f, 0.43741360f, -0.12489027f, -0.19161627f, 0.38909644f, 0.00036872f, 0.33660132f,
    -0.00568771f, -0.16817144f, 0.07184322f, -0.09632877f, 0.30725515f, -0.23089759f, -0.21092904f, -0.37747672f,
    -0.11797491f, -0.26605612f, 0.10353063f, 0.07610799f, 0.46696278f, -0.19212201f, 0.80190492f, -0.09993435f,
    -0.05909028f, 0.46305332f, -0.04383203f, -0.13219808f, 0.11207347f, -0.21412429f, 0.01486480f, -0.05111434f,
    -0.54393607f, 0.13947658f, -0.29882729f, -0.34125879f, -0.23746763f, 0.52011156f, 0.40169650f, -0.23718783f,
    -0.47083992f, -0.03805645f, -0.31817582f, 0.59674776f, -0.16922528f, 0.10937688f, -0.13623960f, 0.14803769f,
    0.19961764f, 0.15552150f, 0.23871645f, -0.10022037f, -0.62216312f, 0.22036088f, 0.02833089f, -0.09707974f,
    0.04081728f, 0.37785155f, -0.00620519f, 0.12242954f, 0.59617037f, -0.05826228f, -0.00260337f, 0.08242030f,
    0.05763656f, -0.18867168f, 0.02572239f, -0.44683164f, 0.10202957f, -0.42628735f, 0.19395107f, 0.23410010f,
    -0.13791555f, 0.17008696f, 0.03406030f, -0.57125473f, 0.42250717f, 0.06552385f, -0.13560906f, 0.12257000f,
    0.06543107f, 0.17041998f, -0.27148297f, 0.31673276f, -0.29974145f, 0.29175079f, -0.51888132f, -0.62562996f,
    0.32559034f, 0.42217070f, -0.12100019f, -0.21460804f, 0.02851893f, 0.09046409f, 0.18591501f, 0.31581488f,
    -0.25014961f, 0.10201171f, -0.01753572f, 0.02598502f, -0.16113099f, 0.03558225f, 0.15014128f, 0.40297997f,
    0.23514418f, 0.65918368f, -0.55569696f, -0.01366822f, -0.01257904f, -0.09536005f, 0.19746538f, -0.21938197f,
    0.20444395f, 0.03140735f, -0.12697142f, 0.32007593f, -0.14244166f, -0.59776598f, 0.06944893f, -0.07082942f,
    -0.03712146f, -0.27362823f, 0.20352612f, 0.35744184f, -0.15263574f, 0.11557670f, 0.03054376f, -0.14685071f,
    0.15569343f, -0.09486009f, -0.01549110f, 0.16092615f, -0.23285045f, -0.20699535f, 0.21700183f, -0.38556671f,
    0.31226817f, -0.27564842f, 0.39134425f, -0.51203382f, 0.66824156f, -0.59611487f, -0.04712331f, -0.09563816f,
    -0.01200069f, 0.40291378f, -0.02684581f, -0.16645162f, 0.06767963f, -0.13682422f, -0.07499040f, 0.17651346f,
    0.01729497f, 0.02637089f, 0.05902173f, 0.08997349f, -0.37431362f, 0.00080242f, -0.11836630f, 0.09601880f,
    -0.29090130f, -0.35843149f, 0.19080295f, 0.01435425f, 0.10402253f, 0.55211163f, -0.29023105f, -0.41464153f,
    0.21604823f, -0.30625936f, -0.13810961f, -0.00538957f, 0.12006658f, -0.19241412f, 0.12727323f, 0.72911870f,
    0.38070861f, -0.10568618f, -0.02539656f, 0.27332246f, -0.11978857f, -0.18375549f, -0.37011620f, 0.01869747f,
    0.23347323f, 0.16905591f, 0.06750149f, 0.24235973f, -0.06101697f, -0.02554125f, -0.08130048f, -0.18293184f,
    -0.33964491f, -0.62593591f, 0.14472006f, 0.07013533f, 0.40779933f, -0.28216708f, -0.02508508f, 0.52766734f,
    0.20388679f, -0.52112275f, 0.08656953f, -0.00646073f, -0.42035779f, 0.05979466f, 0.45236772f, 0.34682414f,
    0.19676952f, -0.33756569f, 0.10076150f, 0.02484589f, 0.12525770f, -0.09885383f, 0.18706566f, 0.01105982f,
    0.10134382f, 0.14057335f, -0.04680809f, 0.08324312f, 0.20294927f, 0.32918838f, 0.36109394f, -0.08847454f,
    0.03907361f, -0.16118810f, 0.09119423f, 0.06375894f, 0.02009378f, 0.61356819f, 0.11015819f, 0.10434419f,
    -0.00906685f, 0.46932861f, -0.06200296f, -0.04330344f, 0.59815353f, 0.21202882f, 0.07906651f, 0.26863250f,
    0.71486408f, 0.12419249f, 0.27405301f, -0.27146381f, 0.15035366f, -0.24218276f, 0.17437924f, 0.03682905f,
    -0.08790958f, 0.15296754f, 0.26217023f, -0.21864262f, -0.43459028f, 0.06173101f, -0.07851191f, 0.02167396f,
    -0.12297948f, 0.27846673f, -0.09509074f, -0.03104305f, 0.27666640f, 0.08195997f, -0.15600188f, -0.50926143f,
    -0.28941563f, -0.19870822f, -0.27137125f, -0.05903424f, 0.39612970f, -0.26923391f, 0.39845261f, -0.31023878f,
    0.43818265f, 0.15387382f, 0.67361313f, -0.23193978f, -0.19096355f, -0.11108957f, 0.17528962f, -0.09048089f,
    -0.16767606f, 0.13967450f, 0.11822984f, 0.11542315f, 0.04659472f, -0.16027735f, -0.26482299f, -0.44913110f,
    -0.12569186f, -0.77533358f, 0.03006103f, 0.38027307f, 0.11300193f, -0.48696789f, -0.65025920f, -0.10498981f,
    0.39890942f, -0.76709628f, 0.01779950f, -0.30655992f, -0.02263396f, 0.35825267f, 0.01590013f, -0.12876222f,
    -0.07837287f, 0.08020833f, -0.09142973f, -0.15289320f, -0.10091456f, -0.18102089f, 0.22360836f, 0.21737695f,
    -0.09960144f, 0.27447966f, 0.11963145f, 0.22414829f, -0.08572286f, 0.16936973f, -0.15195304f, 0.11241688f,
    0.24269891f, -0.50429845f, 0.40525258f, 0.00742385f, -0.19619921f, 0.49073866f, -0.07996784f, -0.15424298f,
    0.02546169f, 0.20132749f, -0.14024687f, -0.01741220f, 0.23259006f, -0.56855220f, 0.01509788f, -0.38671821f,
    -0.67359257f, 0.22138418f, -0.46986949f, -0.01307823f, -0.46076357f, -0.27493283f, 0.04051271f, 0.15748207f,
    0.09227456f, 0.15212800f, 0.48957270f, -0.42043993f, 0.19253044f, 0.35466084f, -0.21670550f, 0.07123641f,
    0.33184227f, -0.19445977f, 0.08545448f, -0.17046124f, 0.12577704f, 0.06159360f, 0.04504447f, 0.13921490f,
    -0.30213821f, 0.35350052f, 0.08456448f, 0.30856904f, -0.07746539f, -0.21875143f, -0.21626136f, 0.12312444f,
    -0.31420273f, -0.24882625f, -0.39222068f, -0.44696108f, 0.54988599f, 0.01430540f, 0.05327249f, -0.01149911f,
    -0.13332233f, -0.08879034f, -0.06748797f, 0.11013021f, -0.44313845f, -0.16658080f, -0.06943358f, 0.20765139f,
    0.03175511f, -0.15766765f, -0.12142120f, -0.07691810f, 0.12902962f, 0.41557562f, -0.12560098f, -0.38481957f,
    -0.17285304f, 0.14342159f, -0.62233913f, -0.20319931f, 0.03527129f, -0.16232482f, -0.03567146f, -0.18643074f,
    0.56838465f, 0.11203819f, -0.09068565f, 0.45764023f, -0.01957748f, 0.31773695f, -0.23928457f, 0.22487207f,
    -0.01874623f, 0.10472319f, 0.09038238f, 0.13645311f, -0.38741934f, 0.11793223f, 0.06961103f, -0.44135502f,
    0.04267212f, -0.34733617f, 0.05404247f, -0.15718561f, -0.39582506f, -0.14458513f, 0.24501762f, 0.19702348f,
    0.21870497f, 0.11954595f, -0.17629240f, -0.16793746f, -0.01859348f, -0.39391589f, 0.04098774f, 0.14203835f,
    0.34522131f, -0.12857743f, 0.29540423f, -0.19652355f, 0.21221521f, 0.00047464f, 0.14805835f, -0.40143597f,
    0.16646793f, 0.18279515f, 0.37936211f, -0.61455345f, 0.15642051f, -0.16328168f, 0.15988915f, -0.26716101f,
    0.14927198f, 0.50033063f, 0.02334310f, 0.64324206f, 0.14931209f, -0.15787688f, 0.13366385f, -0.05630374f,
    0.16866709f, -0.28007489f, 0.16122486f, -0.22489010f, -0.30749947f, -0.69034845f, 0.52228767f, 0.26917663f,
    -0.10346493f, 0.25146115f, 0.06716492f, -0.49768937f, 0.36152515f, 0.16427614f, 0.51453549f, 0.03470274f,
    -0.37642086f, 0.00333619f, 0.29244319f, -0.60766232f, 0.43079686f, -0.07841992f, 0.20585208f, 0.33338794f,
    -0.24733174f, -0.04871458f, 0.11994060f, -0.42008278f, -0.01935821f, 0.09405670f, 0.07405888f, 0.43240559f,
    -0.02910171f, -0.05791672f, -0.04654969f, 0.10481092f, 0.11738793f, -0.52310193f, 0.12879863f, -0.19748579f,
    -0.08413349f, -0.30500120f, 0.17402007f, -0.03421570f, -0.01052477f, -0.24062751f, 0.42199728f, -0.20592535f,
    -0.02231378f, -0.47187391f, -0.06866738f, 0.39512232f, 0.16041620f, -0.23828389f, 0.15584213f, 0.17685726f,
    0.09702262f, -0.27214676f, -0.05076493f, -0.09267104f, 0.22607635f, -0.26457545f, -0.15086988f, 0.14270140f,
    0.82060128f, 0.13065657f, -0.26548889f, 0.26244205f, -0.06080537f, -0.10533462f, 0.00398232f, -0.35348928f,
    -0.11154226f, 0.14946574f, -0.16371357f, -0.16477647f, -0.64032423f, 0.18829285f, -0.55785060f, 0.04363865f,
    -0.08502603f, 0.17213374f, 0.14310393f, -0.34329140f, -0.41609201f, 0.15403141f, -0.26932067f, -0.39355138f,
    0.16471650f, -0.12215264f, -0.58249360f, -0.00856675f, 0.08318092f, 0.42324862f, -0.07144461f, 0.04676491f,
    -0.65989953f, 0.08127403f, -0.10095764f, -0.04749236f, -0.02779063f, 0.30365214f, -0.00542322f, 0.20422126f,
    0.47241980f, 0.14279005f, -0.39115787f, -0.71132928f, 0.07311968f, -0.50754362f, -0.16851564f, -0.05359116f,
    0.00406162f, -0.09145928f, -0.90346670f, 0.11803474f, 0.10746964f, 0.03167093f, -0.10634158f, -0.04959973f,
    -0.38986665f, 0.01644471f, -0.15180627f, -0.47907618f, -0.27270338f, -0.10552537f, 0.07015202f, -0.24806947f,
    0.27356082f, 0.42063338f, 0.37665418f, 0.09597513f, -0.24307656f, 0.30161828f, 0.03526260f, -0.12475562f,
    -0.16947338f, 0.37321746f, -0.13880314f, 0.07942760f, -0.14367539f, -0.01313017f, 0.15464960f, 0.06683977f,
    0.18963790f, -0.05321605f, -0.42633310f, -0.21026307f, -0.16961741f, 0.21222076f, -0.41217530f, -0.16006254f,
    0.16275622f, 0.09687476f, -0.06989203f, 0.09620447f, 0.45774111f, -0.09320913f, -0.14748712f, -0.01619724f,
    -0.08245382f, 0.00690506f, 0.07752885f, 0.13882636f, -0.64562130f, -0.07411786f, 0.46518481f, 0.08282460f,
    0.09943985f, 0.47659439f, 0.02525894f, 0.37610427f, 0.01015233f, -0.02523287f, 0.02079974f, 0.08392435f,
    0.53068805f, 0.46980551f, 0.39369839f, -0.18976106f, -0.09338807f, -0.23188961f, -0.08627091f, 0.07406569f,
    0.35493803f, 0.32228079f, -0.09988714f, 0.62513059f, -0.18941116f, 0.43838021f, 0.08579841f, -0.46878439f,
    -0.20651761f, -0.06260858f, -0.10742571f, -0.18046951f, 0.23310566f, 0.04304351f, 0.08983286f, 0.08869265f,
    0.17712985f, -0.38285512f, 0.04919712f, -0.24320565f, -0.48771960f, -0.13186884f, 0.29217497f, 0.11349630f,
    -0.28100812f, 0.04110179f, 0.27474517f, 0.31516939f, 0.07683690f, 0.16261533f, 0.02544978f, -0.11880490f,
    0.11939913f, -0.18959960f, 0.14250638f, 0.06529002f, -0.12410031f, -0.19533394f, -0.18780477f, 0.06197408f,
    0.09162184f, -0.14669767f, -0.09414440f, 0.09921671f, -0.05919160f, 0.20405124f, 0.02009689f, -0.06991423f,
    -0.00725993f, -0.13673699f, -0.19612364f, -0.18669981f, 0.14866599f, -0.08842570f, 0.01745938f, 0.00565198f,
    -0.14843205f, -0.13609667f, -0.16976455f, -0.18576841f, 0.07377822f, -0.10515849f, 0.15680353f, 0.04899012f,
    0.14329264f, 0.05920157f, -0.00820255f, 0.00869918f, -0.17803156f, 0.06761247f, -0.00336396f, -0.09378574f,
    0.13993429f, 0.09531870f, 0.00970058f, 0.14338791f, -0.19322729f, 0.15032156f, -0.13761398f, -0.12567452f,
    0.06448312f, -0.09031979f, -0.09619946f, -0.00584910f, -0.08243395f, -0.02017636f, -0.16862884f, 0.09829590f,
    -0.14744237f, 0.11879975f, -0.19471580f, 0.15715794f, 0.13170964f, -0.05820883f, 0.03133142f, -0.11480242f,
    -0.06488869f, 0.08593699f, 0.12815878f, -0.01365170f, 0.06468344f, 0.12897851f, 0.14165667f, 0.02118304f,
    -0.12279158f, 0.01928231f, 0.08574052f, -0.10439210f, -0.11984986f, 0.11378013f, -0.26413038f, 0.03399018f,
    0.00261444f, -0.16045628f, -0.21805926f, -0.19886127f, -0.02943464f, 0.07212158f, -0.21111321f, 0.10510194f,
    -0.01564285f, -0.11584787f, 0.07322583f, -0.08828575f, -0.04166834f, 0.17007978f, 0.03052295f, 0.16702291f,
    -0.17689048f, -0.11252993f, -0.09814806f, -0.34639636f, -0.16075969f, 0.00668961f, -0.35695991f, 0.56072998f,
    0.27011368f, 0.06143077f, -0.01066729f, 0.13214935f, 0.13642026f, -0.12138685f, -0.36660591f, 0.35766539f,
    0.28563386f, -0.31485599f, 0.01855185f, -0.04464668f, 0.49777865f, 0.02312445f, -0.21968032f, -0.12754351f,
    0.16100952f, 0.20904571f, 0.20447809f, -0.32869199f, -0.08450552f, -0.14272135f, 0.02447984f, -0.31636837f,
    0.02845027f, 0.51111645f, 0.11726688f, -0.15050825f, -0.20057622f, 0.15564436f, 0.50583178f, -0.43973604f,
    -0.12348479f, 0.02204965f, 0.07308902f, -0.15245768f, -0.15407808f, 0.38082212f, 0.04298463f, 0.00064830f,
    0.18451549f, 0.04051601f, 0.06685339f, -0.18979090f, 0.01861671f, -0.26168352f, -0.42762801f, 0.12109105f,
    -0.03965533f, 0.10211337f, -0.02113184f, 0.17107470f, 0.05235709f, -0.37793455f, 0.14690869f, 0.17424592f,
    -0.07870442f, -0.05148703f, -0.02393530f, 0.57646412f, 0.37451145f, -0.03932054f, -0.17679138f, 0.17514482f,
    0.09562778f, -0.13893175f, 0.22110507f, -0.47841093f, -0.09301236f, 0.20663117f, -0.07424967f, -0.18319362f,
    -0.18102214f, -0.32528296f, 0.22688562f, -0.07984806f, 0.57876521f, -0.04898492f, 0.07205580f, -0.06593059f,
    0.38441065f, 0.03823820f, -0.10659380f, -0.13929678f, 0.11655045f, -0.32975918f, 0.02449878f, 0.11153083f,
    -0.06815416f, 0.28460082f, -0.20780930f, -0.38406801f, -0.10727021f, -0.33541638f, 0.82687455f, -0.05491742f,
    0.35775015f, -0.21770944f, 0.07675344f, 0.05342884f, 0.07504766f, 0.14896627f, 0.09450664f, 0.08372643f,
    -0.53187251f, -0.06030509f, 0.28290895f, -0.23578626f, 0.03263275f, -0.41496691f, 0.16207287f, -0.07574430f,
    -0.11460188f, 0.16341013f, -0.07156567f, -0.12331422f, 0.03959667f, -0.09991980f, 0.13009150f, 0.14852116f,
    -0.34529668f, 0.36784917f, -0.00354040f, -0.18234012f, 0.31782833f, 0.29782715f, -0.25765485f, 0.22138262f,
    -0.10983028f, 0.11292905f, 0.08932295f, 0.06602322f, -0.02069236f, -0.39514589f, 0.06937221f, -0.00663428f,
    -0.12171557f, 0.19712332f, 0.13154092f, -0.12663522f, 0.12226158f, -0.16777845f, 0.09804355f, -0.16166490f,
    0.04874407f, 0.05127789f, -0.50385761f, 0.31738222f, -0.17840278f, -0.33552387f, 0.04394306f, -0.23684943f,
    -0.12918261f, 0.15651023f, -0.04573420f, 0.46788463f, 0.07696004f, 0.21957272f, 0.18639192f, -0.20962457f,
    0.33080572f, -0.17146461f, -0.15292542f, 0.33382478f, -0.04783995f, 0.06764995f, 0.09318863f, 0.22314012f,
    -0.18768500f, -0.35442048f, 0.11020219f, 0.34682363f, 0.00466725f, 0.16236919f, -0.09658337f, 0.47795823f,
    -0.29258353f, 0.00205928f, 0.18493317f, 0.05529003f, -0.18863934f, -0.53038031f, 0.09055518f, 0.20754589f,
    0.32993364f, -0.01765562f, 0.17717445f, 0.32426074f, -0.09915723f, 0.12477609f, -0.37185198f, 0.33166096f,
    0.31599239f, -0.18717925f, -0.28482357f, 0.09494040f, 0.24123773f, -0.01826249f, 0.22204244f, 0.18250772f,
    0.75702548f, 0.14837642f, 0.13481586f, 0.17494525f, -0.22843955f, -0.05797979f, -0.04924144f, 0.24667433f,
    0.18045203f, -0.26019087f, 0.21893309f, -0.13211694f, -0.27521768f, -0.10397042f, -0.19734207f, -0.03895986f,
    0.04168317f, -0.27597567f, -0.22306094f, 0.22620274f, -0.07669313f, -0.05351966f, -0.03843489f, -0.66804576f,
    0.83527547f, 0.30285344f, 0.17123660f, 0.19936368f, 0.11741939f, -0.29459623f, -0.49592081f, -0.26519722f,
    -0.05070950f, 0.12096409f, -0.04520665f, 0.02989275f, -0.26060793f, 0.05385226f, -0.05587398f, -0.46074325f,
    0.04351806f, -0.01292549f, 0.19793154f, -0.07716487f, -0.18470937f, 0.53428638f, 0.45692313f, 0.30621824f,
    -0.08145484f, -0.54109859f, 0.20328645f, -0.15051262f, 0.02460887f, -0.21022870f, -0.17997052f, -0.17388852f,
    -0.15272118f, -0.32020658f, -0.17855619f, -0.42818108f, 0.55988574f, 0.06639107f, -0.25489804f, 0.24812537f,
    0.33865190f, 0.31460658f, 0.20497212f, 0.25250903f, -0.03242564f, 0.14781909f, 0.38247991f, -0.22554375f,
    -0.17238407f, 0.78252572f, -0.11961231f, -0.06212633f, -0.00869934f, -0.13593435f, -0.05609021f, -0.16608061f,
    0.03835417f, -0.17576407f, -0.18287769f, -0.22847418f, -0.72239709f, 0.33110234f, 0.09543189f, -0.39452928f,
    -0.27793530f, 0.29991648f, -0.04979712f, 0.19792150f, 0.20782165f, 0.18035403f, 0.48711020f, -0.12042812f,
    0.02541196f, -0.07995212f, 0.09999254f, -0.40621495f, -0.33589956f, -0.11241923f, -0.04146589f, -0.00305803f,
    0.12543428f, 0.08839639f, -0.23400693f, -0.09721537f, -0.26494548f, -0.03077266f, -0.10538720f, 0.07974485f,
    -0.22583254f, 0.14792301f, -0.06140210f, 0.34315819f, 0.25434524f, 0.03044386f, 0.00931079f, -0.31270620f,
    -0.20879434f, -0.20129544f, 0.15501551f, -0.13679387f, 0.11807820f, 0.21672350f, -0.10597065f, 0.26196429f,
    -0.19300559f, -0.21728939f, 0.35609618f, 0.15937932f, -0.06971587f, -0.06493587f, 0.00883349f, -0.12602668f,
    0.20940170f, 0.01508474f, -0.15532963f, -0.36922047f, 0.11870810f, 0.26800296f, 0.06434761f, -0.04232953f,
    -0.12974015f, 0.42430148f, -0.41564199f, 0.32147706f, 0.09898347f, 0.23837805f, 0.00267513f, 0.40964350f,
    0.16928335f, -0.07596881f, 0.13016753f, 0.20754367f, -0.05654923f, -0.19084607f, -0.13488631f, 0.42133272f,
    0.18891202f, -0.33978432f, 0.06370943f, -0.50950712f, 0.22403587f, -0.42489263f, 0.24598968f, -0.29490668f,
    -0.03237492f, 0.22559297f, -0.04287924f, -0.61549866f, -0.11531798f, 0.13156332f, -0.02951881f, 0.24474321f,
    0.05066351f, 0.13587463f, -0.07406452f, -0.07147002f, 0.16206028f, 0.31615683f, -0.18995683f, 0.04485087f,
    -0.26492956f, -0.05201928f, 0.23642592f, -0.00445939f, -0.12292145f, -0.06835253f, 0.10023959f, -0.06158308f,
    0.58189017f, 0.27913788f, 0.53451926f, -0.11454251f, 0.13160487f, -0.01652482f, 0.02277209f, -0.31738961f,
    0.82097501f, 0.03107330f, 0.19245718f, 0.14205240f, 0.69295859f, -0.09429717f, -0.27681479f, 0.69767809f,
    -0.00779345f, -0.06569326f, 0.21167296f, -0.24076211f, 0.48461279f, -0.23010044f, 0.21489000f, 0.27012804f,
    0.36733252f, -0.08205556f, 0.21255805f, 0.12494809f, -0.31937638f, 0.30907202f, -0.16456802f, 0.05988331f,
    -0.29090726f, -0.28700593f, 0.04800304f, 0.09990938f, 0.40609142f, -0.29147801f, -0.12376268f, 0.07813784f,
    -0.19421530f, 0.05740568f, 0.46006674f, -0.07208412f, 0.36614770f, -0.22183196f, 0.05978107f, 0.27390158f,
    -0.17437524f, -0.01390722f, -0.21770121f, 0.21042220f, 0.14615493f, -0.14465824f, -0.35781491f, -0.42568630f,
    -0.11714598f, -0.29241547f, -0.16662283f, -0.09266322f, -0.20178734f, 0.05439574f, -0.04945259f, -0.14800568f,
    -0.04496839f, -0.16061385f, -0.47726977f, 0.06348553f, 0.18874277f, -0.24132305f, -0.12789263f, -0.07613889f,
    -0.25291121f, -0.13389383f, -0.48197466f, -0.32635584f, 0.18721302f, -0.04331597f, -0.36897349f, 0.37372801f,
    -0.11057065f, 0.32215244f, -0.00846545f, -0.30037040f, -0.29676342f, 0.07359348f, 0.11572103f, -0.14291444f,
    0.02040804f, 0.17178443f, -0.02066541f, 0.19794504f, 0.10856333f, -0.02019965f, -0.21347803f, 0.13558838f,
    -0.41152394f, -0.45005137f, 0.06771087f, -0.31123039f, -0.36791342f, 0.07434711f, 0.00038641f, 0.07522101f,
    -0.13721599f, 0.05962099f, -0.55284703f, 0.11389483f, -0.16574778f, -0.10631014f, 0.17454086f, 0.09940653f,
    -0.47001311f, -0.19392431f, -0.55474132f, 0.27452865f, -0.08464389f, 0.41528940f, 0.02704133f, 0.43820739f,
    -0.03676724f, 0.09791269f, -0.11454045f, -0.39703372f, -0.24590649f, 0.00118869f, 0.11937467f, -0.11143560f,
    -0.33465245f, -0.07329501f, 0.13026591f, -0.18231581f, 0.01629399f, 0.42376176f, 0.12979014f, 0.06512261f,
    0.33081129f, 0.67381430f, -0.17133367f, 0.57712221f, 0.18874224f, -0.45053828f, 0.32502767f, -0.43893397f,
    0.29212403f, -0.32092100f, -0.24695770f, 0.37974939f, -0.15316069f, -0.29411325f, -0.01898155f, -0.04972813f,
    -0.14974961f, 0.01478222f, 0.54400635f, -0.19446278f, -0.10196059f, -0.02156280f, -0.17111741f, 0.22058083f,
    0.08138178f, -0.00823965f, 0.02281559f, -0.27848864f, 0.52199531f, -0.18559161f, -0.11361141f, -0.29360440f,
    -0.23478089f, 0.23361357f, 0.42973766f, 0.30648559f, -0.13508713f, 0.11008293f, 0.11714862f, 0.77231574f,
    -0.13569209f, 0.06445114f, -0.05487428f, -0.25813633f, -0.07701534f, -0.17512360f, -0.05399095f, 0.14563157f,
    0.16615520f, -0.08464248f, 0.11911972f, 0.18704958f, -0.14657784f, -0.14135100f, -0.09229381f, -0.08120750f,
    -0.03750655f, -0.09925928f, 0.22391941f, -0.15067762f, 0.60173881f, 0.21378966f, 0.35763213f, -0.57745069f,
    0.35638151f, 0.24148335f, -0.17011616f, 0.45210794f, -0.15980378f, -0.15544948f, -0.09359962f, -0.56241590f,
    0.67794681f, 0.17577030f, -0.11639031f, 0.09386390f, 0.28077242f, -0.20687711f, -0.30396637f, 0.69303095f,
    -0.30209693f, 0.33889884f, -0.48175383f, -0.08677655f, 0.27258924f, -0.12076009f, 0.06934178f, -0.37147090f,
    0.06540842f, -0.07446698f, 0.31086251f, 0.15226994f, 0.15291421f, -0.16600901f, 0.17875905f, -0.13428003f,
    -0.35647690f, 0.06249423f, 0.08861107f, -0.44790226f, -0.04804759f, 0.41733509f, -0.39491373f, 0.13023970f,
    -0.11712259f, 0.65209925f, -0.12205563f, -0.04508711f, 0.33990726f, -0.47463545f, -0.23312329f, 0.52648616f,
    0.21707645f, -0.10448176f, 0.03933276f, -0.09948745f, -0.02941730f, 0.07708594f, 0.45459893f, 0.04973430f,
    0.12811323f, 0.70881093f, 0.12167810f, -0.08036537f, 0.17520805f, 0.08922496f, 0.03033233f, 0.24738288f,
    0.07831824f, 0.19936670f, -0.21138631f, -0.46205539f, -0.18290530f, 0.00222099f, -0.01759689f, 0.21842343f,
    0.14391603f, -0.54480356f, -0.07198749f, -0.35828227f, -0.13439037f, 0.69934291f, -0.34169292f, 0.05952958f,
    -0.14569807f, -0.17383538f, -0.07697000f, -0.17394581f, 0.21110527f, -0.19379279f, -0.04540996f, 0.13278227f,
    -0.09283666f, 0.32759470f, -0.04806361f, 0.25945219f, 0.02886953f, -0.43120185f, -0.16296677f, -0.60900462f,
    -0.09556331f, 0.12164845f, 0.02058206f, 0.19254708f, -0.01885419f, -0.02565674f, 0.47867551f, 0.28153777f,
    -0.10633156f, -0.18249498f, -0.35700715f, 0.66019082f, 0.46712041f, -0.10693010f, -0.07886496f, -0.14541991f,
    -0.15044980f, -0.16445439f, 0.09274490f, 1.18312860f, -0.45696196f, 0.33165559f, -0.40076789f, 0.29091924f,
    0.12494712f, -0.06041553f, -0.10926873f, -0.10972126f, -0.05016632f, 0.24358436f, -0.03523581f, 0.34308985f,
    0.54159266f, -0.01052299f, -0.19770326f, -0.06659163f, -0.52664214f, 0.67832875f, 0.39973214f, -0.10885932f,
    0.26016715f, 0.61773068f, 0.09823544f, -0.52392149f, -0.15175170f, 0.03418345f, 0.51154345f, -0.15003046f,
    -0.05853883f, 0.05082036f, -0.00970106f, 0.36336428f, 0.02192917f, -0.48006290f, 0.16731505f, 0.04932268f,
    0.00919199f, 0.22232714f, 0.37757748f, -0.10649818f, -0.08449606f, 0.04216120f, 0.20708792f, -0.43009385f,
    0.08904867f, -0.18763016f, -0.08071713f, 0.47096404f, 0.17309035f, 0.01344324f, -0.24862127f, 0.09747373f,
    -0.27507776f, 0.31208450f, 0.46453282f, 0.06734325f, -0.38806966f, -0.31942400f, -0.02029927f, -0.11704560f,
    0.18684642f, -0.55641645f, 0.12875108f, 0.03020094f, -0.11439288f, -0.12801127f, -0.21874292f, 0.20743261f,
    0.05507829f, 0.06172508f, 0.12150382f, -0.05923858f, -0.34713027f, -0.16425486f, 0.13813134f, -0.00693276f,
    0.04791989f, -0.64757735f, 0.04395925f, 0.83605123f, -0.03052407f, 0.33592510f, 0.02326575f, 0.39254126f,
    -0.82153535f, -0.38767493f, 0.39409637f, -0.07791091f, 0.32448649f, 0.18911852f, -0.19782908f, -0.06771427f,
    0.33727837f, 0.05609490f, -0.21756886f, 0.33785295f, -0.28600597f, 0.07814454f, 0.12361334f, 0.04322118f,
    0.00461219f, 0.09581892f, -0.02882048f, -0.29108527f, 0.26107803f, -0.06110791f, -0.11309952f, 0.30105320f,
    0.32236475f, 0.01669117f, 0.23309700f, -0.06860071f, 0.25770918f, -0.84008193f, 0.18254252f, 0.56322610f,
    0.25449288f, 0.41580546f, 0.20019993f, -0.14312714f, 0.35637245f, -0.03788427f, -0.17713700f, -0.27624437f,
    -0.16974160f, -0.07421003f, 0.50326961f, -0.40034658f, -0.34835169f, 0.47417209f, -0.06396426f, 0.29285064f,
    -0.10318387f, 0.30966568f, 0.20568089f, 0.05416735f, 0.24439500f, -0.30492133f, 0.20601611f, -0.40204525f,
    0.09150829f, -0.12556687f, -0.06746976f, -0.16680333f, 0.07356931f, -0.04202906f, -0.08847287f, 0.35897943f,
    0.38382798f, -0.15559842f, 0.15229468f, 0.12776601f, -0.57384342f, 0.50514764f, -0.52917308f, -0.17761822f,
    -0.49134326f, 0.14846727f, 0.32450727f, 0.57139975f, -0.07745242f, 0.36165866f, 0.44455025f, -0.21103996f,
    -0.14041409f, 0.80701423f, -0.04750464f, -0.25761414f, -0.12147349f, -0.03020348f, -0.06414059f, 0.06956698f,
    -0.13290302f, -0.57924104f, -0.18254164f, -0.01599162f, 0.24382040f, -0.57235247f, -0.17765939f, 0.11834923f,
    0.55101240f, -0.17884886f, -0.24451511f, -0.05625924f, -0.15941365f, 0.01577127f, 0.15279159f, -0.46676013f,
    -0.26097506f, -0.00608645f, -0.19612521f, -0.66908902f, -0.15707748f, -0.02874435f, 0.09809028f, -0.04709755f,
    -0.06508231f, 0.16759838f, -0.87457514f, -0.53989494f, 0.41764742f, 0.16889961f, 0.18197277f, -0.16074225f,
    0.62261033f, 0.27102733f, -0.05293190f, 0.31396332f, -0.61269456f, 0.14039135f, 0.14233743f, 0.16046976f,
    -0.65619189f, 0.09788045f, 0.01582506f, -0.07046106f, 0.44475707f, -0.07312699f, -0.01151259f, 0.15909517f,
    -0.12021361f, 0.34687218f, -0.37725779f, 0.36387682f, 0.08201839f, 0.09610932f, -0.36196679f, 0.14698380f,
    -0.56576478f, -0.31927764f, -0.23151495f, 0.23486587f, 0.06424390f, -0.20269188f, 0.20566581f, -0.15407866f,
    -0.44135636f, 0.60207629f, 0.22057661f, 0.44508776f, -0.22463048f, 0.08477824f, 0.06794690f, 0.14361124f,
    -0.12492272f, 0.06864376f, 0.13256831f, 0.54399228f, 0.78061295f, 0.28969431f, 0.45217112f, -0.37284535f,
    -0.13897032f, -0.11008961f, 0.11539811f, 0.44456562f, -0.30778846f, 0.26202878f, -0.07519836f, -0.41678059f,
    0.05255340f, -0.27685985f, -0.30583653f, -0.12404202f, -0.17030552f, 0.07029958f, 0.18837704f, 0.31357425f,
    0.16663010f, -0.18723089f, -0.20405886f, 0.01362930f, 0.19105497f, -0.30307969f, -0.06123935f, -0.12447200f,
    -0.00056372f, 0.15926294f, 0.84370214f, 0.04286214f, 0.12424532f, 0.92367893f, 0.09816185f, 0.28231302f,
    0.78623247f, -0.12944843f, 0.22411118f, 0.18686327f, 0.03719285f, -0.10250196f, 0.20917791f, -0.34582645f,
    0.71028012f, 0.19003834f, -0.06906544f, 0.17239730f, 0.31190988f, -0.18712774f, -0.21429422f, 0.09920288f,
    0.23647402f, -0.76460189f, 0.33263466f, 0.01424732f, 0.27083921f, -0.05727058f, -0.17644641f, 0.58069903f,
    0.56932330f, 0.13194883f, 0.28197721f, -0.34270585f, 0.14580558f, 0.44023055f, 0.08767812f, -0.37494817f,
    0.51408303f, -0.08769480f, 0.04316590f, -0.22366546f, -0.09493382f, -0.64837867f, -0.38270906f, -0.29883343f,
    0.20495789f, 0.07698654f, -0.65905499f, -0.14160950f, -0.40105265f, -0.09422565f, 0.04243131f, -0.59733516f,
    0.04717027f, -0.20977071f, -0.17484714f, 0.20440660f, -0.14693689f, -0.35649335f, -0.62486535f, -0.41976413f,
    -0.02155376f, -0.37983114f, 0.19221528f, 0.24547940f, 0.19600745f, -0.54715592f, 0.09986700f, -0.28424287f,
    -0.24832460f, -0.08914764f, 0.44050485f, 0.30342868f, 0.03191651f, -0.29646581f, 0.00869814f, 0.06316154f,
    0.15922070f, -0.00183140f, -0.12436429f, 0.34599158f, -0.13498187f, 0.07172257f, -0.00589078f, -0.14973021f,
    0.14628811f, 0.38718060f, -0.06808574f, 0.58436966f, 0.07372760f, 0.09914595f, -0.09847995f, 0.19416036f,
    0.28034750f, 0.45432562f, -0.07809673f, -0.01395090f, -0.07815178f, -0.52762735f, 0.66630465f, 0.32519996f,
    -0.35950401f, -0.15138242f, 0.61850452f, -0.44185370f, -0.99861419f, 0.03163338f, -0.05820425f, 0.56542164f,
    -0.20559017f, 0.06459509f, 0.18590565f, 0.12049603f, -0.28974202f, 0.12479343f, 0.21207373f, -0.08675851f,
    0.08167700f, 0.06653674f, -0.23923121f, -0.10999974f, -0.25564143f, 0.54908252f, -0.05158793f, 0.21339220f,
    -0.93436223f, 0.20818749f, 0.14611387f, 0.04372102f, -0.57664251f, 0.16231810f, -0.05540539f, 0.10360242f,
    -0.24212013f, 0.44378597f, 0.17463787f, -0.20892584f, -0.11864831f, -0.36771324f, -0.05476376f, -0.35193935f,
    -0.07290564f, -0.24029180f, -0.00179988f, 0.36811924f, -0.11681657f, -0.19867834f, 0.13379575f, -0.28282785f,
    -0.07991887f, -0.69769937f, -0.28033870f, 0.34991652f, 0.06551819f, -0.20185952f, -0.21450420f, 0.11267485f,
    0.26884073f, -0.42126176f, 0.32248831f, 0.08997613f, 0.19257817f, -0.09639042f, 0.07544075f, -0.10255048f,
    0.02043754f, 0.11951862f, -0.04150672f, -0.23654856f, 0.19920212f, 0.15895316f, -0.40702587f, -0.13946930f,
    0.40178278f, 0.02695308f, -0.09931794f, -0.63420224f, -0.86119181f, 0.04101845f, -0.09834269f, -0.51991290f,
    -0.00733428f, 0.47992066f, 0.07085574f, -0.14586647f, -0.04829888f, 0.85190254f, -0.13252831f, -0.08574279f,
    -0.36702842f, 0.20869300f, -0.07157117f, -0.03259437f, -0.28045356f, 0.25917649f, 0.20671453f, -0.06274971f,
    -0.22140305f, 0.34439665f, 0.24892853f, 0.06995048f, 0.22529827f, 0.51109046f, 0.04516714f, 0.57925099f,
};

static const float kws_layer0_bias[100] = {
    0.10698571f, 0.09935068f, 0.19565734f, 0.07888238f, -0.10039961f, 0.00000000f, 0.00534275f, -0.14237441f, 0.07052235f, 0.00000000f, 0.00000000f, -0.14035031f, 0.06126713f, 0.00000000f, -0.01649177f, -0.03071429f, 0.00008085f, 0.00430185f, -0.00847345f, 0.03122389f, 0.07471219f, -0.01580370f, -0.01130649f, 0.00099977f, -0.01948510f, -0.00578411f, 0.03671309f, -0.03738371f, -0.07000834f, 0.02542841f, 0.00000000f, 0.04199160f, 0.01135052f, 0.05829557f, -0.00148772f, 0.05880681f, 0.03641246f, 0.18375571f, 0.04898261f, -0.05067569f, 0.00000000f, 0.03668723f, 0.05329251f, -0.05907343f, 0.03447693f, 0.01677638f, -0.01872077f, 0.07179084f, -0.01264280f, 0.02580620f, 0.00000000f, 0.00000000f, -0.06595398f, 0.07557228f, 0.08770075f, -0.05571122f, -0.01627685f, -0.01950464f, 0.00000000f, 0.11673117f, 0.00000000f, -0.05918881f, 0.00000000f, -0.04152419f, -0.09372251f, 0.07578769f, -0.06083668f, -0.02143697f, 0.05731130f, -0.07661875f, -0.08629172f, -0.02509043f, 0.04366760f, -0.17370257f, 0.00121938f, -0.08891348f, 0.00000000f, -0.02523992f, -0.11267760f, -0.00298898f, 0.00000000f, -0.01768311f, -0.00409186f, -0.22204043f, -0.01054120f, -0.01988724f, 0.00000000f, 0.00000000f, -0.05219210f, 0.13518579f, 0.00000000f, -0.02218695f, 0.02541405f, 0.15262280f, -0.18171217f, -0.08732924f, -0.01131319f, -0.05270383f, -0.08978860f, 0.11315655f
};

// Layer 1: hidden2
// Input: 100, Output: 100
#define KWS_LAYER1_INPUT_SIZE 100
#define KWS_LAYER1_OUTPUT_SIZE 100

static const float kws_layer1_weights[10000] = {
    0.02746604f, 0.13931985f, -0.00254367f, 0.06336724f, 0.20382065f, -0.14300813f, 0.40491363f, -0.04013837f,
    0.19715281f, -0.14823422f, -0.33275342f, 0.21591432f, 0.14176390f, 0.28959927f, -0.05814961f, 0.03857773f,
    -0.08501457f, -0.33049715f, -0.04431930f, 0.29165611f, 0.10268334f, 0.14795314f, 0.44955221f, -0.08261403f,
    -0.21513644f, 0.32423559f, -0.19217552f, 0.06611758f, 0.16512552f, -0.08815255f, -0.02411891f, -0.33255875f,
    0.36809644f, -0.08465941f, -0.09899335f, 0.00030847f, 0.08544843f, -0.12020811f, 0.24835195f, 0.19358900f,
    0.23158325f, 0.04299255f, 0.02778248f, -0.08240930f, -0.35552564f, -0.12308719f, 0.22535738f, 0.20820996f,
    0.27116501f, 0.17084338f, 0.26565525f, 0.08459969f, -0.07167583f, -0.32160705f, 0.14424032f, -0.03924934f,
    0.31715113f, -0.21110280f, 0.16194853f, -0.02640609f, 0.14118662f, -0.18111046f, 0.01922144f, 0.17659876f,
    0.02864425f, 0.23604062f, 0.25206369f, 0.22554998f, -0.13281298f, 0.13559821f, -0.21085733f, 0.16225560f,
    -0.00003468f, 0.00984595f, -0.03398377f, 0.21044047f, -0.09822045f, -0.01117895f, -0.01823935f, -0.08976184f,
    0.25804371f, 0.14875364f, -0.11745387f, -0.16453640f, 0.07951601f, 0.15560244f, -0.14298068f, 0.26766935f,
    -0.07155380f, 0.13693234f, 0.32312709f, 0.23213680f, 0.04068058f, -0.30961508f, -0.13860792f, -0.05135881f,
    -0.18508689f, 0.06832135f, 0.11960078f, 0.18643740f, -0.07546184f, 0.11230172f, -0.15488015f, 0.17160843f,
    0.08627743f, 0.03958200f, -0.09824061f, -0.12193169f, 0.00269310f, 0.03986532f, -0.02191371f, -0.02784945f,
    -0.17161606f, 0.15665734f, -0.20346631f, -0.05241814f, 0.11441664f, 0.04715068f, 0.01992799f, 0.17996800f,
    0.08656976f, -0.00681509f, 0.03048146f, -0.14669010f, 0.09163667f, -0.28124273f, -0.01351491f, -0.02750063f,
    -0.01651253f, -0.03273964f, -0.00409600f, 0.10836495f, -0.10621852f, -0.06060804f, -0.11524121f, 0.04582985f,
    -0.04326937f, -0.06491193f, -0.17313719f, 0.04919998f, 0.18629822f, 0.09481189f, -0.19880414f, -0.26237860f,
    0.08917210f, 0.11861693f, 0.09925921f, 0.15241951f, 0.14182416f, -0.02564805f, 0.09050395f, 0.15073636f,
    0.01774681f, -0.13053975f, 0.02938309f, -0.06284022f, 0.18127443f, 0.12960140f, 0.12837568f, 0.11793619f,
    0.08182301f, 0.00331798f, -0.09597014f, 0.10086294f, 0.17005302f, 0.06663522f, -0.17643502f, 0.20648108f,
    0.10124023f, 0.04371647f, 0.01544554f, 0.06878658f, -0.03681381f, -0.08673226f, -0.18224464f, 0.13184682f,
    -0.12103252f, -0.11424533f, -0.03171881f, -0.16943470f, 0.21451528f, 0.13504133f, -0.19932075f, -0.03014323f,
    -0.11770653f, -0.15849972f, 0.04427428f, -0.02742267f, 0.07524022f, 0.12269607f, -0.15363076f, 0.14437221f,
    -0.09971420f, 0.09455811f, 0.11143401f, 0.07117801f, 0.15791647f, -0.05873713f, -0.12694818f, 0.06955417f,
    -0.14342925f, 0.44859645f, 0.34432358f, -0.00557864f, -0.57670766f, 0.75680858f, -0.21080476f, -0.46501482f,
    -0.11943623f, -0.42006841f, 0.16166428f, 0.01796659f, -0.05991140f, 0.17293173f, 0.73975378f, -0.01273184f,
    -0.22631378f, 0.16398118f, -0.03633294f, 0.32418075f, -0.07748990f, -0.14146410f, -0.50025225f, -0.44997466f,
    -0.50827026f, -0.01982828f, 0.01912667f, 0.00622827f, -0.49829024f, 0.22113101f, 0.32209572f, -0.12264191f,
    -0.36708510f, -0.06862044f, 0.18663949f, -0.08514092f, 0.07872686f, 0.12631996f, 0.01380370f, -0.03755258f,
    -0.35885310f, 0.08068871f, -0.22911565f, 0.12028309f, -0.18695624f, 0.48826876f, 0.29258367f, -0.69771713f,
    0.55131221f, -0.22055130f, 0.00454611f, 0.12661499f, 0.33730820f, 0.73557466f, -0.57157534f, 0.51014113f,
    -0.47661769f, 0.17320934f, -0.01682890f, 0.85454535f, -0.03482033f, -0.53055638f, -0.02780135f, -0.28641742f,
    -0.21224251f, -0.42601880f, 0.03000440f, 0.03555387f, -0.23439974f, 0.03191182f, 0.69467223f, 0.37788182f,
    -0.65124351f, -0.01061966f, -0.06405787f, 0.00151150f, 0.58561289f, -0.57627457f, -0.50119126f, -0.08502543f,
    -0.18046761f, -0.00075494f, -0.24003108f, 0.31522906f, -0.21587192f, 0.02460775f, 0.20365126f, 0.71465242f,
    -0.01633370f, -0.15976192f, 0.05773280f, 0.56630558f, 0.16959216f, -0.36277473f, -0.05320463f, -0.08147841f,
    0.17155991f, -0.39705485f, -0.21894863f, 0.31320640f, 0.05520405f, 0.37460586f, 0.11881422f, -0.13317320f,
    0.03063086f, 0.01737494f, 0.13994028f, 0.11633053f, 0.02152320f, 0.04650569f, 0.01940359f, 0.23329155f,
    0.13718246f, -0.15698826f, 0.15296508f, 0.26316816f, 0.03218951f, -0.02080615f, -0.04948607f, 0.38032472f,
    -0.00284273f, 0.10137579f, 0.10493955f, -0.02241557f, -0.16587101f, 0.12784083f, -0.01709028f, 0.04259303f,
    0.14369778f, -0.06986994f, -0.04127786f, 0.10498202f, 0.26225901f, -0.07313350f, -0.22842848f, -0.06419077f,
    -0.13010740f, 0.10382458f, -0.16037174f, 0.04224673f, -0.12830961f, 0.13207895f, -0.39234006f, -0.02068766f,
    0.01563920f, 0.03103294f, 0.13152534f, 0.03165030f, 0.14597833f, -0.08967685f, -0.12596843f, -0.19374308f,
    -0.00919779f, -0.05154616f, -0.15888576f, -0.24176790f, 0.40778226f, -0.05439941f, 0.18915568f, -0.00056667f,
    -0.18968347f, -0.16881469f, -0.00883519f, -0.00493400f, 0.15389848f, 0.17363878f, 0.28367761f, 0.16734733f,
    0.15098646f, -0.17608042f, -0.07002109f, 0.30230388f, -0.10264655f, 0.14890979f, -0.08724312f, 0.19574368f,
    -0.22405121f, -0.01144980f, 0.15730894f, -0.14889817f, 0.38047916f, -0.10242774f, -0.16161577f, 0.22095387f,
    0.06438071f, -0.17546242f, -0.18886593f, -0.01443058f, -0.25807330f, 0.09622443f, 0.17519538f, 0.05376125f,
    0.08992817f, -0.03483920f, -0.00137145f, -0.02276065f, 0.25825319f, 0.14132713f, -0.41231468f, 0.03390435f,
    0.13158192f, -0.12425929f, 0.06877764f, -0.02870684f, -0.00658291f, -0.07400774f, 0.13228664f, -0.06835750f,
    -0.06000084f, 0.16738911f, 0.21199898f, -0.03029176f, -0.13733819f, 0.20245390f, -0.02785100f, -0.02466355f,
    0.23860726f, 0.16702844f, 0.00035267f, -0.06552164f, -0.43744704f, -0.14548713f, -0.18465047f, -0.04891090f,
    0.00065070f, -0.47547773f, 0.00052112f, -0.18382800f, 0.18703963f, -0.02085846f, 0.21745531f, -0.11950642f,
    -0.22207238f, 0.12954432f, 0.21628325f, 0.07230964f, -0.02364732f, 0.12697262f, 0.07916354f, -0.19736910f,
    0.12102690f, -0.14096838f, -0.12534127f, -0.08528494f, -0.05614131f, -0.00241436f, -0.05082182f, -0.12844376f,
    0.19494551f, 0.13920893f, -0.18887055f, 0.01748528f, 0.10195336f, 0.12541987f, -0.12164126f, 0.17727143f,
    -0.11562568f, -0.46702334f, -0.00159610f, -0.02544047f, 0.06182359f, -0.00062820f, 0.31083542f, 0.08922154f,
    -0.07022172f, -0.17046779f, -0.18899466f, 0.05037037f, 0.06391913f, 0.18906975f, -0.16077819f, 0.06454609f,
    0.08918456f, -0.20269653f, -0.07503574f, -0.31496790f, 0.00903410f, -0.21074548f, 0.17220293f, -0.12833855f,
    0.13366987f, 0.02678357f, 0.17303748f, -0.05507948f, -0.11833827f, -0.10430162f, 0.02454721f, -0.09312049f,
    0.21419367f, 0.13647680f, 0.04370916f, -0.01572774f, -0.15122959f, 0.13789478f, 0.05939813f, 0.03983448f,
    -0.28675440f, -0.00144135f, 0.01304450f, -0.18835413f, 0.01103860f, -0.02642620f, -0.14588262f, 0.13762718f,
    -0.06363434f, -0.04385863f, -0.17293254f, -0.08337931f, -0.16535971f, 0.04830630f, 0.00870460f, 0.09377834f,
    -0.13484500f, 0.12425366f, -0.16321371f, 0.05048195f, -0.14750957f, -0.08154097f, -0.08996439f, -0.15997967f,
    -0.04036769f, 0.01538585f, 0.12367111f, 0.17171428f, 0.04805721f, 0.03458883f, 0.09547743f, 0.12055174f,
    -0.06790394f, -0.08205262f, 0.03165901f, 0.07559788f, 0.00829260f, -0.15264715f, 0.05382475f, -0.06425748f,
    0.05442441f, 0.00606091f, -0.15560684f, -0.17073360f, 0.05031751f, 0.00030901f, -0.15585506f, 0.12418482f,
    -0.12332696f, -0.07749569f, 0.15041280f, 0.12887841f, -0.00553812f, -0.06785695f, 0.01323923f, -0.10693052f,
    -0.12505358f, -0.00303338f, -0.13687533f, -0.00874589f, -0.09983248f, 0.08132511f, -0.03701766f, 0.02373093f,
    -0.02848794f, 0.02792516f, 0.12168154f, -0.13962336f, -0.04907687f, 0.14175785f, 0.07453515f, -0.09427711f,
    0.03165013f, 0.01757705f, 0.09629276f, 0.05677518f, -0.01406464f, -0.03137936f, -0.04425532f, 0.01725000f,
    0.16801408f, -0.13148203f, 0.01533720f, -0.17180282f, 0.09033397f, -0.12133107f, 0.12497398f, -0.05809007f,
    0.03360732f, 0.11092237f, 0.10903543f, -0.07920180f, 0.02275991f, 0.01411152f, 0.00414853f, -0.16778833f,
    -0.13499899f, -0.14604965f, 0.11229214f, -0.15555823f, 0.05238356f, 0.01056404f, 0.13217506f, -0.07510564f,
    0.07090050f, -0.06896117f, 0.06915907f, -0.10294191f, -0.12735865f, 0.05625457f, -0.22920294f, -0.02004665f,
    0.19162951f, 0.02720120f, -0.13996659f, -0.26097101f, 0.05710118f, 0.05082417f, -0.02511499f, -0.36032364f,
    0.02597646f, -0.22321396f, 0.05965351f, 0.19793727f, -0.21738803f, -0.10356559f, 0.04243966f, -0.12066384f,
    0.13841967f, -0.30528453f, -0.09833691f, -0.06880891f, -0.06130261f, -0.01640829f, 0.19379523f, -0.53395796f,
    -0.04741722f, 0.07622821f, 0.19629709f, 0.00917339f, -0.14181049f, -0.07516295f, -0.04820932f, 0.04329791f,
    0.07803015f, 0.12673682f, 0.10211798f, 0.07383366f, -0.15265852f, -0.02514372f, 0.20758757f, -0.13629596f,
    0.17572504f, 0.14915900f, 0.17895265f, 0.09940545f, 0.17813066f, 0.15156995f, -0.14093661f, -0.00914942f,
    0.13460532f, -0.35623339f, 0.06572356f, -0.22887486f, -0.05211839f, -0.16765620f, -0.01193450f, -0.03356361f,
    -0.19727108f, -0.00075928f, 0.04160509f, 0.31366330f, 0.06880205f, -0.10034633f, 0.02330333f, -0.00647883f,
    -0.09886687f, -0.04899926f, 0.02177223f, -0.03823489f, -0.02414022f, -0.09314219f, -0.12264515f, -0.04969341f,
    -0.00673010f, -0.03891877f, 0.18328026f, 0.12279467f, -0.22665820f, -0.09211719f, -0.14641961f, 0.09224846f,
    0.10215502f, 0.08279803f, -0.10522316f, 0.34163323f, 0.30380458f, 0.06841509f, 0.04330830f, 0.03173102f,
    -0.08060483f, 0.12324888f, -0.24989787f, 0.18102397f, -0.08544122f, -0.04771215f, 0.04768696f, 0.04323379f,
    -0.00218068f, 0.03813322f, 0.29647499f, 0.01746601f, -0.30863938f, 0.23472778f, 0.50759608f, -0.23708987f,
    0.12850165f, -0.36476839f, 0.11604010f, 0.31012580f, -0.44614884f, -0.19396497f, 0.00307694f, 0.21529497f,
    -0.02361855f, 0.06802230f, -0.15471555f, -0.41353709f, 0.53899300f, -0.23296997f, -0.03577239f, -0.29046670f,
    -0.17993546f, 0.48151904f, 0.08910596f, -0.03466891f, 0.05560909f, 0.05667435f, -0.25488892f, -0.17884299f,
    0.05003899f, -0.03169785f, 0.01380593f, -0.32881367f, -0.21739049f, -0.16320637f, -0.01325685f, -0.10160048f,
    0.00296988f, -0.02906946f, 0.05257104f, -0.07875082f, -0.10514168f, 0.14796621f, -0.08524363f, 0.40423244f,
    -0.03667997f, 0.13424699f, -0.08567891f, -0.35188204f, 0.32124016f, -0.38032708f, -0.52614188f, -0.08239344f,
    -0.05624909f, -0.33877981f, 0.28820375f, -0.34204319f, 0.03400349f, -0.33626968f, -0.15629913f, 0.31554064f,
    0.39954627f, -0.11631847f, 0.23665795f, 0.11534769f, 0.27119502f, -0.24524763f, -0.10115745f, 0.08677717f,
    0.09968995f, -0.08168501f, -0.25125173f, 0.00803573f, 0.29729804f, -0.26544195f, 0.52952343f, 0.12868099f,
    -0.42355698f, -0.11290475f, 0.13374816f, 0.39216593f, -0.06726401f, 0.03065045f, 0.01304304f, 0.41863048f,
    0.10055815f, -0.23116350f, -0.00528408f, -0.06238598f, -0.97467130f, -0.17738070f, 0.20367326f, -0.18995090f,
    -0.09782448f, 0.28631026f, -0.37528050f, -0.23973157f, 0.12010465f, 0.33197179f, 0.41945738f, -0.72404569f,
    0.14205673f, 0.52008295f, -0.30420583f, -0.25320527f, -0.13993007f, 1.04583752f, 0.23640569f, -0.13615590f,
    0.33918652f, -0.16905978f, 0.07383400f, -0.13627088f, -0.62116164f, 0.14207952f, -0.16817963f, -0.19717026f,
    -0.20134796f, 0.25434616f, -0.01865396f, -0.05227996f, 0.14406991f, -0.11251084f, -0.38229334f, -0.24304736f,
    0.03798237f, -0.74885297f, -0.13838874f, -0.01101544f, 0.14115599f, 0.18137753f, -0.35386020f, -0.26997891f,
    -0.36243898f, 0.03593667f, 0.64827329f, 0.06858353f, 0.14055510f, 0.84069002f, 0.47244233f, 0.13980855f,
    0.64418960f, 0.26101047f, -0.06030970f, 0.22251429f, 0.10950232f, -0.03670679f, -0.39971280f, 0.06972348f,
    0.13585235f, -0.49328193f, -0.41207585f, -0.02125797f, 0.02266617f, 0.44651258f, 0.11337214f, -0.18306647f,
    -0.18071671f, -0.07854482f, 0.39158502f, 0.22366747f, -0.24911699f, 0.55894762f, -0.26936081f, -0.20854767f,
    -0.70401883f, -0.21711215f, -0.16503638f, 0.35315096f, 0.47133386f, -0.46475717f, -0.45059398f, 0.16171226f,
    0.29720163f, 0.53217888f, 0.49943170f, 0.01923425f, 0.05792041f, -0.10896206f, 0.13972686f, -0.25838447f,
    0.34505811f, -0.08373845f, 0.11417755f, 0.41591883f, 0.08842943f, 0.32399723f, 0.01528344f, -0.00805373f,
    -0.18658498f, -0.33736733f, 0.65936249f, 0.50246924f, -0.15284587f, -0.02342653f, 0.07929823f, 0.10337323f,
    -0.12158020f, -0.07488710f, -0.12478442f, -0.14576468f, -0.06918232f, -0.03496052f, 0.03604543f, 0.14584476f,
    0.14026013f, -0.13314347f, -0.14863797f, -0.01749282f, -0.01886241f, -0.06639538f, 0.00561480f, 0.16354218f,
    -0.16199352f, 0.15357333f, -0.16616687f, 0.14513507f, -0.07998046f, -0.01743504f, 0.14005196f, 0.05139615f,
    -0.06095736f, -0.07010659f, 0.06222415f, -0.04380974f, 0.03962421f, 0.08172929f, -0.09443989f, -0.08409748f,
    0.08755332f, 0.10566735f, 0.15995172f, 0.14036638f, -0.02724607f, -0.15488809f, -0.03074729f, 0.16079101f,
    -0.09540009f, -0.10660578f, 0.15724456f, 0.10688192f, 0.17303565f, -0.05660430f, -0.10832313f, -0.01215726f,
    0.00172722f, -0.01194070f, 0.03037815f, -0.16591150f, 0.04257108f, -0.02607584f, 0.10859919f, 0.09734985f,
    -0.00867705f, -0.02331777f, -0.04315297f, -0.08283550f, -0.02014448f, 0.03662007f, -0.16428848f, 0.04312800f,
    -0.01411432f, -0.05539431f, 0.13041425f, 0.00979847f, -0.16611145f, -0.05870182f, -0.08947144f, -0.05923366f,
    0.02689865f, 0.16078877f, 0.13626501f, 0.05789763f, -0.09931113f, -0.05234094f, 0.01239359f, 0.04338382f,
    -0.10579251f, -0.15794808f, -0.10237280f, -0.01921389f, -0.04646602f, 0.11010987f, 0.01516327f, -0.17164177f,
    -0.03513104f, -0.14400661f, 0.13526568f, -0.12379438f, 0.13307133f, -0.13029149f, 0.05006081f, -0.15661812f,
    0.14423874f, -0.04568091f, -0.14957297f, 0.10107207f, 0.11612105f, 0.07717296f, 0.14710245f, -0.16724071f,
    -0.12518533f, -0.04096895f, -0.01501262f, -0.04249002f, -0.15496506f, 0.07540235f, 0.09630185f, 0.00993252f,
    -0.12937023f, -0.02510081f, -0.16770178f, -0.07097057f, -0.01593380f, -0.05319496f, -0.09584910f, -0.04350267f,
    -0.00832270f, 0.09821287f, 0.02640674f, -0.06926449f, -0.16915925f, -0.01019552f, 0.12830961f, -0.14162630f,
    0.13200489f, 0.02701077f, -0.02179526f, 0.09064594f, 0.09741676f, -0.00598370f, -0.04098651f, -0.01252908f,
    -0.14479081f, 0.09729192f, 0.00084820f, 0.11268884f, 0.10134187f, -0.09391623f, -0.06625944f, 0.12670395f,
    0.15253896f, 0.12983274f, 0.16210607f, 0.12346298f, 0.05099446f, 0.08472154f, -0.01719843f, -0.03259212f,
    0.10735464f, 0.08015275f, 0.03912260f, -0.15939882f, -0.01695837f, 0.15717080f, 0.05293848f, -0.15281865f,
    0.04787427f, 0.02893917f, -0.09346714f, -0.01143020f, 0.15029824f, -0.11017150f, 0.01450044f, 0.14217418f,
    0.06763969f, 0.08978853f, -0.01844315f, 0.15782899f, -0.01674248f, 0.12858066f, -0.08498219f, -0.13523842f,
    -0.09212963f, -0.14024407f, 0.01834705f, -0.17022108f, -0.17166823f, -0.00969540f, 0.15858170f, -0.04232365f,
    0.16912308f, 0.01014990f, 0.08870780f, -0.00229387f, 0.15505293f, 0.10172543f, 0.13504973f, -0.15698816f,
    0.12149727f, -0.03816409f, 0.08646610f, 0.04932906f, 0.04775703f, -0.03863173f, -0.01205259f, 0.12362060f,
    0.10032121f, -0.05548284f, 0.03857729f, -0.02580800f, -0.02475889f, 0.00378445f, 0.24116135f, 0.15418258f,
    -0.06309665f, -0.16809154f, -0.00144643f, -0.03740053f, 0.12117352f, -0.07556660f, -0.07410058f, 0.19733059f,
    -0.17428961f, 0.11064224f, -0.14799656f, 0.09783817f, 0.04799698f, 0.09784964f, -0.19539203f, 0.06647892f,
    0.20166004f, 0.19191650f, 0.12673204f, 0.18204825f, 0.06321027f, 0.17014162f, -0.10439823f, 0.01623848f,
    -0.16319290f, -0.13373774f, 0.10910527f, -0.18680634f, -0.07785581f, -0.16399036f, -0.24178666f, -0.24637304f,
    0.13510273f, -0.06527553f, 0.12962668f, -0.11049083f, -0.06723664f, 0.01609077f, 0.10137831f, -0.38106644f,
    -0.04046999f, -0.04162825f, -0.08079205f, 0.10102747f, 0.13406575f, -0.09725295f, -0.00999058f, 0.15981096f,
    -0.05865476f, 0.11720690f, 0.00999164f, -0.17222287f, 0.13563958f, -0.04918269f, 0.19076546f, 0.12517147f,
    0.14344990f, -0.02423344f, 0.09427020f, -0.15177502f, 0.15411890f, -0.01869738f, -0.02444270f, -0.04442732f,
    -0.02731625f, 0.10788163f, 0.07390038f, -0.03043692f, 0.12338993f, -0.17552418f, -0.19802386f, -0.14071327f,
    0.01859638f, 0.13732979f, -0.19856644f, 0.09304643f, 0.16301654f, -0.16940710f, 0.15071802f, -0.12646388f,
    -0.12871753f, -0.09945503f, -0.08129533f, -0.11558191f, -0.11266021f, -0.03886127f, -0.03078099f, 0.03883293f,
    -0.10614295f, 0.31641996f, -0.48709619f, -0.13201261f, 0.05057498f, 0.39572051f, 0.28329876f, 0.05698865f,
    0.18815720f, 0.37686324f, -0.41772124f, -0.00145575f, 0.00156757f, 0.32769060f, 0.04832532f, -0.14108498f,
    0.43181792f, -0.19018379f, -0.10658863f, 0.28626800f, -0.50580251f, -0.01722137f, -0.03331183f, 0.13463986f,
    -0.32624713f, 0.10714485f, -0.13970089f, 0.45503044f, 0.56603462f, 0.06619835f, -0.16145836f, -0.28628108f,
    0.60104555f, -0.02829852f, -0.35775191f, -0.20562121f, 0.14226839f, 0.03576760f, 0.02778726f, 0.02165500f,
    0.09561879f, 0.11431912f, 0.22336540f, 0.22649829f, 0.07681423f, -0.17480262f, 0.27487251f, 0.34778941f,
    0.19143936f, 0.24166307f, 0.10248667f, 0.27454138f, -0.18454304f, -0.09147599f, 0.11145080f, -0.12793411f,
    0.29412940f, -0.42943028f, -0.05171930f, -0.06562447f, 0.01486169f, -0.03501555f, -0.06787713f, -0.12309031f,
    0.19209637f, 0.05743137f, 0.29875129f, 0.26769221f, 0.17701732f, -0.10443037f, -0.22730194f, -0.27797076f,
    -0.12168690f, -0.24901591f, -0.04025420f, 0.08811918f, 0.05579803f, -0.35156178f, 0.10038206f, -0.15979050f,
    0.39556524f, -0.17984092f, 0.37299201f, -0.07124644f, -0.74670142f, -0.23378642f, 0.23216312f, 0.55868685f,
    0.33799568f, -0.09097311f, 0.13164525f, 0.09625525f, -0.02534873f, -0.02840347f, 0.02822003f, -0.16918139f,
    0.26705670f, -0.02907232f, -0.03944223f, 0.37366906f, -0.05111814f, 0.14802191f, 0.17134923f, 0.15894628f,
    -0.04977621f, -0.07216173f, 0.08913258f, 0.13387588f, 0.08613327f, 0.06341316f, 0.06668966f, 0.00731923f,
    0.06654255f, 0.00887056f, 0.09469736f, -0.06053008f, -0.04897045f, -0.07587720f, -0.14693466f, -0.02283205f,
    0.16636616f, 0.01773791f, 0.09615803f, -0.07763671f, 0.10027984f, 0.02324310f, -0.00480364f, 0.09743598f,
    -0.08735436f, 0.14751220f, 0.05244793f, -0.07337635f, -0.03848942f, -0.03372934f, 0.06483400f, -0.01116373f,
    -0.11181889f, 0.06986064f, -0.16883141f, 0.00075178f, 0.01776735f, 0.11185098f, -0.16476762f, 0.09662092f,
    0.04646011f, 0.00644809f, -0.07009020f, 0.02743702f, -0.06596091f, -0.11205701f, -0.11991683f, -0.08640230f,
    0.04631983f, -0.09469204f, -0.06633992f, 0.06056820f, 0.02782449f, 0.00058916f, -0.10783473f, 0.04475829f,
    -0.10710818f, -0.04020825f, 0.05924325f, 0.08306879f, -0.12530491f, -0.15110746f, 0.06326008f, 0.11446828f,
    0.12850773f, 0.10494959f, -0.09390289f, 0.03971237f, -0.08832868f, 0.14424691f, -0.16729687f, -0.14362776f,
    -0.03505844f, 0.03114918f, -0.08288857f, 0.00570007f, -0.07744555f, 0.07373162f, 0.02376330f, -0.07518868f,
    -0.14227650f, 0.17228445f, 0.15206522f, 0.10440722f, 0.14207074f, 0.05853073f, -0.11674435f, -0.01302248f,
    0.11849657f, 0.11412656f, 0.03298400f, -0.10398952f, -0.10822687f, 0.11785612f, 0.06664266f, 0.00704387f,
    -0.05084487f, 0.08850593f, -0.41913903f, 0.31434765f, 0.04892603f, 0.35992900f, -0.81596452f, 0.30468193f,
    0.01706493f, 0.44046360f, -0.20310625f, 0.30837786f, -0.07000608f, 0.27179036f, -0.33811510f, -0.35426536f,
    0.27196419f, 0.09313770f, -0.15032852f, 0.16119169f, 0.27380833f, -0.00539575f, 0.32426500f, 0.50961363f,
    -0.16387160f, -0.08566832f, -0.11043414f, 0.51864070f, 0.40855104f, 0.90137941f, -0.39866182f, 0.19769602f,
    0.92741829f, 0.14140193f, -0.28810880f, -0.14520408f, 0.00527036f, -0.06870521f, -0.55915552f, -0.07267996f,
    0.25816655f, -0.00581041f, 0.22281274f, -0.12365069f, 0.46697226f, -0.08210183f, 0.28313884f, 0.35439253f,
    -0.36344767f, -0.08064334f, 0.09578725f, 0.38676560f, -0.63783371f, 0.15414494f, -0.13553281f, -0.01340786f,
    0.57632518f, 0.16286612f, 0.09402366f, 0.05800568f, 0.08828670f, -0.24888508f, -0.34466895f, -0.15860900f,
    0.13220508f, 0.33270168f, -0.54715365f, -0.06446630f, 0.51353145f, -0.35107899f, 0.40721977f, 0.03713910f,
    0.07439828f, -0.16064386f, -0.02366757f, -0.30073503f, -0.34921181f, -0.21012592f, 0.61261177f, -0.11852055f,
    0.37773937f, -0.02859674f, -0.15800461f, 0.14085332f, 0.07642369f, -0.01182681f, -0.17123315f, 0.18041328f,
    -0.19375743f, -0.00858629f, 0.12797181f, -0.26127926f, -0.39235970f, 0.18935587f, 0.01019118f, -0.01292957f,
    -0.06686600f, 0.14216864f, 0.23665918f, 0.06668641f, -0.06322204f, 0.01845764f, -0.26771459f, 0.15189742f,
    0.49364457f, -0.03272141f, 0.41706187f, 0.12483264f, 0.26710868f, 0.26459709f, -0.03718970f, 0.01541803f,
    -0.14558831f, -0.26967713f, -0.05482277f, 0.03293535f, -0.19406089f, -0.11601320f, -0.00843304f, 0.20421296f,
    0.01807019f, -0.04361726f, -0.05442788f, 0.10713048f, 0.09524669f, 0.01623585f, 0.12801993f, 0.16858587f,
    0.21188581f, 0.09593343f, -0.49175277f, 0.22274077f, 0.34760728f, -0.09127445f, -0.08512156f, -0.04562265f,
    -0.16514768f, 0.08860712f, -0.01771121f, -0.35523778f, 0.08979152f, -0.13844851f, -0.08523169f, 0.17725803f,
    0.39826089f, -0.18215573f, 0.36487412f, 0.42707947f, -0.07815193f, -0.17970334f, -0.08357193f, 0.12215830f,
    -0.02249373f, -0.07219579f, 0.06617787f, 0.18778820f, 0.12706977f, -0.23391303f, -0.09053556f, 0.11277606f,
    -0.11761228f, 0.00315746f, -0.28312525f, -0.05857283f, 0.00742387f, 0.21941130f, -0.03063321f, 0.17381319f,
    0.47447985f, 0.07674424f, 0.25024009f, 0.15311833f, 0.14266773f, -0.25572586f, -0.16210449f, -0.14382805f,
    -0.42890301f, 0.23100816f, -0.02794668f, 0.01008168f, 0.40012646f, 0.31441879f, 0.05999780f, -0.37742773f,
    0.15102135f, -0.03391442f, -0.09810524f, 0.07930945f, -0.45304808f, -0.12387474f, 0.13619691f, -0.45095420f,
    0.08056496f, 0.36504936f, -0.19639410f, 0.04606682f, -0.22036673f, -0.06525562f, 0.17023394f, -0.10665151f,
    -0.19083865f, -0.00510611f, 0.18799041f, 0.05079448f, 0.05895472f, -0.17856276f, 0.19924718f, -0.14816798f,
    -0.09671853f, -0.31542134f, 0.05563153f, -0.14603642f, -0.03670501f, -0.27644897f, -0.13434936f, -0.23300907f,
    0.04158654f, -0.03152824f, 0.07129868f, 0.00120298f, -0.05543478f, -0.05458071f, 0.01338075f, -0.03212716f,
    0.04248790f, -0.10025501f, -0.05103850f, 0.10571250f, -0.17820990f, -0.10160255f, -0.09014680f, 0.16463317f,
    0.04381626f, -0.17268956f, -0.00461148f, 0.12336575f, 0.03630709f, -0.11646250f, -0.09362633f, 0.10610873f,
    -0.04531787f, -0.12739648f, 0.23025021f, 0.12698771f, 0.09199604f, 0.17763743f, 0.12412364f, -0.14912722f,
    0.10946744f, 0.06672531f, 0.06399912f, 0.03075394f, 0.16326120f, -0.10596318f, -0.01932599f, -0.15300302f,
    -0.03358390f, 0.04196636f, -0.02156764f, 0.15176022f, -0.11272033f, 0.00835503f, -0.08913576f, -0.05476721f,
    0.01812307f, -0.24442960f, -0.31381726f, 0.18451674f, -0.17729893f, 0.25248125f, 0.10331906f, 0.10775162f,
    0.00339421f, 0.25392535f, -0.03305491f, -0.04717116f, 0.00755661f, 0.14862005f, 0.02088841f, 0.15068299f,
    0.02417372f, 0.25648481f, 0.22038831f, -0.15894391f, 0.19457826f, -0.02441937f, 0.00304366f, 0.07282270f,
    -0.02692421f, -0.07104227f, -0.03238928f, 0.05766055f, 0.23751475f, 0.11316629f, 0.14810874f, 0.00484878f,
    0.12280022f, 0.15293059f, 0.27969235f, 0.01731287f, 0.08708057f, 0.19608012f, 0.03151992f, 0.05533748f,
    -0.03742640f, -0.13099113f, -0.22645311f, 0.06482793f, 0.04212107f, 0.05492749f, 0.17741969f, 0.26029757f,
    -0.11641252f, 0.25704554f, -0.00050509f, 0.19035773f, 0.04284607f, 0.18719672f, -0.01930325f, 0.08676201f,
    0.13334455f, -0.16696210f, -0.06553563f, 0.12230325f, -0.11825727f, 0.03501216f, -0.06360261f, 0.20932461f,
    0.23972404f, -0.09929425f, 0.06571585f, -0.09545356f, 0.15222056f, 0.10035095f, -0.23892465f, -0.18873003f,
    0.01824663f, 0.20593616f, -0.02087063f, 0.12920800f, 0.11936984f, -0.12229428f, 0.15375564f, 0.11991976f,
    0.14965576f, -0.04514268f, -0.08486154f, 0.14956859f, -0.06029411f, -0.01501132f, -0.00770562f, -0.07824309f,
    -0.09798822f, 0.21052478f, -0.07060969f, 0.08812026f, 0.05523365f, 0.14216480f, 0.11983985f, 0.16304080f,
    0.11966266f, 0.11422903f, 0.20066099f, -0.07483187f, 0.19971700f, -0.00907870f, -0.04509341f, 0.14456686f,
    -0.16289066f, -0.03564098f, 0.11959367f, 0.10143338f, -0.09804673f, 0.17358449f, 0.14802359f, -0.00710686f,
    0.04048967f, -0.08797091f, 0.10870421f, -0.14568833f, 0.08135472f, -0.06604027f, -0.26487401f, 0.06327289f,
    -0.11051940f, -0.09082073f, -0.03931046f, -0.24896054f, 0.07036759f, -0.01743975f, -0.33670616f, 0.00509378f,
    -0.16449241f, 0.01806126f, -0.11790256f, 0.03326773f, 0.19420560f, 0.19606309f, 0.03021527f, 0.20813711f,
    0.14372699f, 0.14172235f, 0.12587039f, -0.01095239f, 0.05455312f, -0.07210919f, 0.44982016f, -0.03839090f,
    -0.43456525f, -0.11356708f, 0.24830854f, -0.21920542f, -0.07481116f, -0.38624713f, -0.15711217f, -0.00381680f,
    -0.37396988f, 0.14183475f, 0.01148436f, -0.27904180f, 0.13068813f, 0.13035178f, -0.19457631f, -0.44960690f,
    0.46266645f, 0.03607205f, 0.02485288f, -0.34785071f, -0.60068959f, -0.05112521f, -0.22479193f, -0.08243876f,
    -0.40131360f, -0.21620356f, 0.06112007f, -0.03793539f, -0.17614499f, 0.09421364f, -0.02321289f, 0.08606271f,
    -0.04464877f, 0.05168042f, 0.23060589f, 0.24407887f, -0.09129157f, 0.16136813f, -0.01641508f, 0.04454719f,
    0.15941648f, 0.07272768f, -0.02956998f, -0.51588070f, 0.18777138f, 0.09307911f, 0.25860909f, -0.06045258f,
    -0.16272648f, -0.35238969f, -0.03101839f, 0.32775390f, -0.11697492f, -0.28079259f, 0.34322566f, -0.22066817f,
    0.16916548f, -0.06106571f, 0.11117203f, -0.15231301f, -0.15886062f, 0.16456185f, -0.09472290f, 0.30094582f,
    0.13201416f, 0.09513506f, -0.03888196f, -0.09847249f, 0.29666105f, 0.19663924f, -0.03593408f, -0.09732231f,
    -0.05538068f, 0.02455829f, 0.05404871f, 0.16840059f, 0.19977891f, -0.17881653f, -0.17048997f, -0.13019216f,
    -0.30431938f, -0.03118507f, 0.06970917f, 0.10658345f, 0.11629424f, -0.41480008f, -0.19853427f, -0.00608899f,
    0.08265884f, 0.03642131f, 0.43281379f, 0.02936954f, 0.13216792f, 0.08964761f, -0.08772565f, 0.10983270f,
    0.36786526f, -0.03279031f, 0.03024531f, 0.21638848f, 0.11868727f, -0.05169245f, -0.41322622f, -0.24411334f,
    0.02539095f, -0.04886520f, -0.18364756f, 0.52400243f, 0.01227242f, -0.38062939f, 0.04299005f, 0.09046635f,
    0.36867926f, -0.19715011f, -0.10122306f, -0.13111055f, -0.00250798f, 0.11685358f, -0.00632133f, -0.38724807f,
    -0.04447228f, -0.15616500f, 0.04065159f, 0.15865768f, 0.41367254f, -0.32655010f, 0.04453529f, 0.03131825f,
    -0.00562253f, -0.27296731f, 0.04009690f, 0.10898246f, -0.41733479f, -0.04780291f, -0.16640532f, -0.14266917f,
    -0.28468078f, -0.19534855f, 0.30085686f, 0.11369414f, 0.00833462f, 0.35957032f, 0.11777225f, -0.07828648f,
    0.22734134f, -0.09377208f, 0.21215209f, -0.34413144f, 0.52748114f, 0.19617470f, -0.24554764f, -0.15255390f,
    -0.16969395f, -0.27802411f, -0.57930261f, -0.00956489f, -0.03967298f, 0.20502976f, 0.37023646f, 0.42526719f,
    0.19627547f, 0.16711941f, -0.02569321f, 0.22524707f, -0.13255104f, -0.16033350f, -0.00775795f, 0.18043281f,
    -0.09961468f, 0.14369796f, 0.04334788f, -0.10087292f, 0.27935839f, 0.27972746f, -0.08618524f, -0.07795409f,
    0.09977467f, -0.07409681f, 0.15221059f, 0.31232584f, 0.16952500f, -0.18447901f, -0.41131616f, 0.27245495f,
    0.26719573f, 0.08904009f, 0.09428205f, -0.16016912f, 0.21079428f, -0.03083542f, -0.27085295f, 0.09863221f,
    -0.03546546f, 0.37804082f, 0.05143497f, -0.10222626f, 0.56397390f, 0.45192817f, 0.44329366f, -0.38949850f,
    0.00468304f, 0.08178733f, -0.47697487f, 0.06847861f, 0.13759840f, -0.09627222f, 0.04221180f, -0.15639974f,
    0.25797811f, 0.01083156f, -0.04324001f, 0.04714596f, -0.28486124f, -0.02511054f, -0.23206945f, -0.36601856f,
    -0.37696829f, 0.24168865f, -0.10931965f, 0.26306370f, 0.06711611f, 0.15046477f, -0.58541638f, 0.25358295f,
    0.42476016f, -0.24723680f, 0.31680158f, 0.09905988f, -0.04783247f, -0.52251309f, -0.42932242f, 0.05748183f,
    -0.10315277f, -0.02442031f, 0.22503661f, 0.34991267f, -0.11936191f, 0.21318872f, 0.14399257f, 0.15076810f,
    0.01670505f, 0.30121756f, -0.14560419f, 0.01194075f, 0.25736326f, 0.48090476f, 0.19284530f, 0.18757543f,
    0.45744753f, 0.28030112f, 0.33872640f, 0.51365161f, -0.10987381f, 0.11049077f, -0.15391506f, 0.22342528f,
    0.04444895f, -0.05954811f, 0.25098372f, -0.05309005f, -0.09871545f, 0.11451630f, -0.10118451f, 0.04342289f,
    0.05038958f, -0.39094123f, 0.00080514f, 0.33527085f, 0.05273558f, -0.17153503f, -0.59699869f, 0.14019224f,
    0.37922823f, -0.21602315f, -0.30031049f, 0.11940353f, 0.19339770f, -0.10838148f, 0.07913167f, 0.20892823f,
    -0.09890331f, 0.03082521f, -0.10499969f, -0.26841438f, 0.36463645f, -0.47600815f, -0.03987973f, 0.14110234f,
    0.00582314f, -0.43109077f, 0.07227810f, 0.37383139f, 0.00985290f, 0.06026931f, 0.09413612f, 0.03472607f,
    -0.05370791f, 0.10061757f, 0.13886400f, -0.10160118f, -0.28443024f, -0.13248971f, -0.20317766f, 0.17182073f,
    -0.09325164f, 0.17510232f, 0.14907193f, 0.04976705f, -0.07414793f, -0.12629652f, -0.03071480f, 0.16720840f,
    0.17909127f, -0.07970918f, 0.17451929f, -0.00004295f, -0.13737731f, -0.17511402f, -0.00525346f, -0.06424214f,
    -0.08920533f, 0.04090520f, -0.06850002f, 0.05175000f, -0.03655733f, 0.08517847f, -0.24987261f, 0.12378347f,
    0.05484273f, -0.05899172f, 0.18552062f, 0.01138284f, 0.07680441f, 0.07933071f, 0.07588389f, -0.09533183f,
    0.28901914f, -0.09393640f, 0.17409229f, -0.17230637f, 0.01678535f, -0.10368286f, -0.00800826f, -0.22444403f,
    -0.23922364f, 0.00490276f, 0.12135538f, -0.00397761f, 0.04054042f, 0.18864660f, -0.05694916f, -0.10524397f,
    -0.06790683f, 0.21862119f, 0.10492907f, 0.12967512f, 0.19418156f, 0.08701679f, -0.00896173f, 0.08732273f,
    0.09534092f, -0.04350548f, 0.06289424f, -0.15155458f, -0.07980444f, 0.20746541f, -0.16148122f, 0.24257115f,
    -0.10443741f, -0.12369256f, 0.07907765f, -0.06722686f, 0.14225914f, -0.00195828f, 0.02807196f, -0.22477490f,
    0.14867215f, -0.10621208f, 0.14963986f, 0.08703912f, 0.03308190f, 0.14921886f, 0.17086430f, -0.16876890f,
    0.15596098f, 0.01344628f, -0.04815672f, -0.07389598f, 0.07545954f, -0.22726230f, -0.23538677f, 0.20084889f,
    -0.03200953f, -0.04243300f, 0.14638127f, 0.11395404f, 0.15678599f, -0.00820413f, -0.16144989f, 0.04638478f,
    0.12181172f, 0.13465595f, -0.12707193f, -0.15343793f, 0.11995465f, -0.11356412f, 0.05351529f, -0.12982382f,
    0.07392925f, -0.02182548f, 0.13824943f, 0.03316709f, -0.08746403f, 0.09403831f, -0.08051304f, -0.10819566f,
    -0.06759815f, -0.05947305f, -0.15741545f, -0.03339614f, -0.07055072f, -0.07350777f, -0.16812447f, -0.15903635f,
    -0.03369708f, 0.00730276f, 0.16850254f, 0.12832299f, -0.03831948f, -0.16127026f, -0.06865296f, 0.12534788f,
    0.06797415f, 0.01990421f, -0.12166324f, -0.05766118f, -0.11955421f, -0.02430289f, 0.06616605f, 0.07864407f,
    0.07648449f, 0.11355773f, 0.09991163f, -0.00367859f, -0.12463886f, 0.06073644f, 0.14114700f, 0.00459867f,
    0.01965161f, 0.10276017f, 0.12034964f, -0.06376378f, -0.00101210f, 0.11086672f, -0.16610943f, -0.02680971f,
    0.01479150f, -0.08125186f, -0.10453776f, -0.11492459f, 0.05786786f, -0.04239638f, 0.07274313f, 0.13026321f,
    0.16989222f, 0.02427982f, 0.08721769f, 0.11846395f, -0.16940689f, -0.13583951f, 0.14740196f, 0.07408342f,
    0.01732540f, 0.11236953f, 0.17041495f, 0.03858083f, 0.14218883f, -0.08092790f, 0.07749584f, -0.15799236f,
    0.05746028f, 0.15652457f, 0.13147357f, -0.13955611f, -0.06249157f, 0.03700115f, 0.13609818f, -0.14630164f,
    0.05747733f, -0.08957472f, -0.09651267f, -0.07961875f, 0.00661287f, -0.30023190f, -0.29404047f, -0.20446004f,
    0.09822770f, 0.08551423f, 0.24766812f, 0.01699135f, -0.24820647f, -0.22244640f, 0.25217888f, -0.32333401f,
    0.09113346f, -0.01998404f, -0.33847019f, 0.13787881f, -0.25620794f, 0.21658751f, 0.03270009f, -0.05202655f,
    0.23428965f, 0.11932986f, -0.07743499f, -0.02690028f, 0.25244358f, -0.21434692f, 0.08156896f, -0.42009109f,
    -0.16350785f, -0.10588493f, 0.13603666f, -0.27762645f, -0.20803404f, -0.21488145f, -0.00355293f, -0.07291364f,
    -0.11117498f, 0.15395795f, 0.16621074f, -0.16912870f, 0.31511822f, 0.06774078f, -0.08408654f, 0.04375970f,
    0.07644768f, 0.16344953f, 0.02902360f, 0.15600668f, 0.17145409f, -0.25937545f, -0.06323177f, -0.15758346f,
    -0.03878822f, -0.08044308f, -0.04994483f, 0.09339076f, -0.12052871f, 0.04528561f, -0.33375335f, -0.07413360f,
    0.16743985f, -0.08178762f, 0.07561009f, -0.14434724f, -0.19080703f, -0.57499063f, -0.08724077f, 0.12541690f,
    0.26393926f, 0.17988689f, -0.22670813f, 0.02083315f, 0.09060772f, 0.11235540f, 0.02022390f, -0.24106367f,
    0.26348722f, 0.49251050f, 0.48375985f, -0.10001947f, -0.33284694f, 0.24238536f, 0.23761362f, 0.19564268f,
    0.13160293f, 0.03473803f, -0.14676514f, -0.35858366f, -0.17852125f, 0.12616037f, 0.37146708f, 0.06539138f,
    -0.19248253f, 0.10878645f, 0.16263445f, -0.03024068f, 0.14072049f, -0.06919697f, 0.09661619f, -0.60852009f,
    0.06939854f, 0.03538552f, 0.04536147f, 0.21364470f, 0.17651573f, -0.01554562f, 0.11121087f, -0.07137050f,
    0.24156690f, -0.10184605f, 0.12122788f, 0.12628773f, -0.13277544f, 0.05546415f, -0.10165431f, -0.31771153f,
    -0.18184364f, -0.05231724f, -0.03770797f, -0.02308431f, -0.24066274f, -0.18193637f, -0.07321014f, -0.17699213f,
    0.02310711f, -0.10427506f, -0.00797187f, -0.04936359f, -0.20162229f, -0.14022009f, 0.13955523f, -0.13674505f,
    -0.08361698f, -0.12322555f, -0.09649634f, 0.04204829f, -0.14668915f, 0.08261488f, -0.06247258f, 0.09607873f,
    -0.11055667f, -0.01916267f, -0.08755555f, 0.13965476f, -0.22996061f, -0.08620495f, 0.01887221f, 0.04526496f,
    -0.08406860f, 0.04662109f, 0.11419243f, 0.12106636f, 0.09890696f, -0.12995687f, -0.12520863f, -0.13387491f,
    0.03934138f, -0.20412302f, -0.05496168f, -0.03027698f, 0.03122139f, -0.06355338f, 0.16486946f, 0.01309549f,
    0.13079101f, 0.24764866f, 0.19295941f, -0.08572130f, -0.05788576f, -0.12102979f, -0.12171168f, 0.17966162f,
    -0.02476774f, -0.08168961f, -0.17022046f, -0.01303446f, 0.18478674f, 0.23558310f, 0.19232026f, -0.16375510f,
    0.06273681f, -0.08058577f, 0.09566040f, -0.12155358f, -0.13867253f, -0.09943865f, -0.16288853f, 0.27041849f,
    0.11783826f, 0.03974088f, 0.03068243f, 0.15583913f, 0.15607966f, -0.21199442f, -0.14301217f, -0.12544210f,
    -0.32996061f, -0.10147377f, -0.07417949f, -0.02846441f, 0.02443010f, -0.05676695f, -0.21016751f, 0.01434752f,
    0.20777184f, 0.09502202f, -0.13957137f, -0.06484435f, -0.13114637f, 0.18964514f, 0.10034449f, -0.13249470f,
    -0.17795011f, 0.14785561f, -0.13092189f, -0.04608855f, -0.01404096f, 0.21836089f, 0.04828566f, -0.13763964f,
    0.17149867f, 0.08739027f, 0.00995333f, 0.26146591f, -0.09985328f, 0.12406347f, -0.14548144f, 0.05569789f,
    0.12133556f, -0.24537353f, -0.08538052f, 0.06475294f, 0.07657580f, 0.07750680f, 0.03826032f, 0.06022489f,
    0.16962060f, 0.17486712f, 0.06037388f, 0.16784689f, 0.08188649f, 0.01071985f, 0.17395237f, 0.05464736f,
    -0.02147290f, -0.04427297f, 0.10522141f, 0.14193821f, 0.15197980f, -0.19362095f, 0.04010122f, -0.04489156f,
    -0.10320234f, -0.00823493f, 0.07374873f, 0.14120305f, -0.13675217f, 0.16719943f, 0.02542268f, 0.14767724f,
    0.04650372f, 0.14494880f, -0.30967724f, -0.04106640f, 0.06861282f, 0.24273197f, -0.01372032f, 0.07596701f,
    0.06450547f, -0.01557646f, -0.16086277f, -0.36737481f, 0.09344719f, 0.08850759f, -0.06443933f, 0.22731282f,
    -0.19204617f, -0.11444401f, -0.04350827f, -0.00855808f, 0.09801383f, 0.10243659f, 0.00386051f, 0.13064919f,
    0.16079502f, 0.08395807f, 0.04619447f, -0.06351422f, -0.07397125f, -0.10828347f, -0.08153899f, 0.01119198f,
    -0.00248368f, 0.05014274f, -0.10737858f, -0.15595448f, -0.06600500f, 0.02541479f, -0.12292683f, -0.03088482f,
    -0.00173450f, 0.09920029f, 0.11224586f, -0.05922958f, 0.31915703f, 0.08553316f, 0.10813595f, -0.05106558f,
    0.00616441f, 0.25914007f, -0.22763586f, 0.20897391f, -0.11001293f, -0.10886968f, 0.07059764f, -0.09160613f,
    0.02004891f, 0.08037268f, 0.02744190f, -0.01425398f, 0.06035203f, -0.09073976f, 0.10645943f, 0.02130808f,
    0.02706360f, -0.16393095f, 0.02148246f, -0.02520071f, 0.01766768f, -0.10774279f, -0.12730511f, 0.01222871f,
    0.10337357f, -0.01410169f, -0.06610250f, -0.12939332f, 0.04262562f, -0.20021647f, 0.03794236f, 0.13017185f,
    0.08862004f, -0.02113523f, -0.13405159f, -0.27817994f, 0.17865528f, 0.03802897f, -0.01082780f, -0.14347096f,
    -0.11133093f, 0.08896594f, -0.04890513f, -0.15738669f, 0.11800804f, -0.19013605f, 0.12591670f, 0.17318308f,
    0.22364646f, 0.07932351f, -0.01006246f, 0.00289607f, -0.14875613f, 0.01638127f, -0.14425771f, 0.08867015f,
    0.03880461f, 0.00581965f, -0.16606143f, -0.06770798f, 0.06124970f, 0.05002004f, -0.03709567f, 0.18099213f,
    0.19591640f, 0.08227164f, 0.13412116f, 0.29108825f, -0.14482018f, -0.13736475f, 0.10491822f, -0.00073436f,
    -0.03924326f, 0.13974781f, 0.10666855f, -0.03004716f, 0.23147091f, -0.13297009f, 0.00617774f, 0.18823703f,
    -0.14088885f, 0.11826464f, -0.03683770f, -0.11236535f, -0.10744766f, 0.13263196f, -0.09711498f, -0.09127770f,
    -0.01882145f, -0.05180706f, -0.08300132f, 0.09731286f, -0.10019812f, -0.04080534f, 0.14606544f, 0.05588479f,
    -0.11436866f, -0.39252591f, 0.07894772f, 0.16918409f, 0.03959998f, -0.16746379f, 0.07611239f, 0.02728282f,
    0.02867397f, -0.18598567f, -0.11324288f, -0.14099561f, -0.08106373f, -0.02170160f, 0.12710904f, 0.01570096f,
    -0.10881730f, -0.08089291f, -0.07305381f, 0.14689933f, 0.00205041f, 0.09645641f, -0.12092420f, -0.14892556f,
    -0.11341088f, 0.10306805f, -0.15285166f, 0.01302229f, 0.15150627f, 0.16358367f, -0.10261377f, -0.10790047f,
    0.02988668f, 0.02183374f, 0.10248373f, 0.11765958f, 0.05181857f, -0.14429857f, -0.04238876f, 0.05223040f,
    0.09629337f, 0.17234893f, -0.02969627f, -0.14893939f, -0.10873472f, -0.17145969f, 0.13748613f, -0.27494943f,
    -0.01741170f, 0.10696044f, 0.04834504f, 0.19105726f, -0.11554193f, -0.09636633f, 0.03132597f, 0.16644923f,
    -0.05042091f, 0.04770276f, 0.12128839f, 0.11943229f, -0.02720403f, 0.05932775f, 0.08053579f, 0.13251385f,
    0.06919767f, 0.00489180f, -0.10477699f, 0.01360467f, -0.11374107f, 0.08547554f, 0.04903129f, -0.15476906f,
    0.06920913f, 0.05923519f, 0.05722209f, -0.07727025f, -0.00763200f, 0.18859409f, 0.01380078f, 0.17686065f,
    0.10341420f, -0.11893930f, 0.08712470f, -0.06651386f, -0.07052181f, -0.12616318f, 0.13046981f, 0.02828011f,
    -0.01139458f, 0.10421204f, -0.14549750f, -0.02796387f, -0.10069834f, -0.08755723f, 0.13269755f, 0.07465973f,
    0.08328084f, -0.13406040f, 0.42118382f, -0.61954832f, -0.13153498f, -0.20351024f, 0.05040282f, 0.15389569f,
    -0.05196536f, -0.50604904f, 0.24589396f, -0.08103722f, -0.05506437f, -1.03989875f, -0.00166667f, 0.32733905f,
    -0.21918340f, 0.23508614f, -0.13496567f, -0.15698162f, 0.17463052f, 0.09112205f, -0.35620761f, -0.32599679f,
    0.15899558f, -0.01690907f, 0.11859873f, -0.06739458f, -0.36395910f, -0.09930201f, 0.06463382f, 0.04706370f,
    -0.08712636f, 0.16812791f, -0.07431759f, -0.04729218f, 0.11615629f, -0.28779307f, -0.05322386f, -0.09023212f,
    -0.31589067f, 0.06763589f, -0.31770769f, -0.17610145f, -0.08478646f, -0.09192486f, 0.04760344f, -0.04182882f,
    -0.22425096f, 0.09446764f, 0.00871344f, -0.01081244f, 0.36513442f, 0.17920616f, -0.08926270f, -0.04602085f,
    0.17777796f, 0.23791355f, 0.11044119f, 0.01972218f, 0.03947467f, -0.16295110f, 0.18490504f, -0.02471165f,
    0.09882753f, -0.18857077f, -0.19605833f, -0.28043306f, 0.14855503f, -0.05492668f, 0.06679841f, 0.20688573f,
    0.26163399f, -0.23578623f, -0.15185413f, 0.07159553f, 0.05744322f, -0.09225455f, -0.17111832f, -0.02149412f,
    -0.23752837f, -0.32378551f, -0.18418150f, -0.01650454f, 0.02895480f, -0.07646608f, -0.17318888f, -0.14643882f,
    -0.21350248f, -0.15741742f, 0.16263793f, 0.16559620f, 0.12732121f, -0.16569208f, -0.13677925f, 0.13476795f,
    -0.03382492f, 0.06580999f, -0.23790137f, -0.03656690f, -0.11280219f, 0.17340092f, -0.33911607f, 0.43575415f,
    0.11663793f, 0.20350783f, 0.19916257f, -0.23327532f, -0.51727432f, 0.06159497f, 0.02023649f, 0.33319965f,
    0.10556699f, -0.39886689f, -0.05909619f, -0.02400918f, -0.29655188f, 0.13494875f, 0.10832622f, 0.01749649f,
    0.17385755f, 0.12256067f, 0.16058668f, 0.29202029f, 0.06699062f, -0.26776093f, -0.07810601f, -0.02664680f,
    0.15543465f, -0.04256479f, -0.53264165f, 0.21461581f, 0.15257509f, -0.19423032f, -0.42109719f, -0.08364851f,
    0.12459823f, 0.25461394f, 0.08338812f, -0.31481349f, 0.37851155f, 0.11774328f, -0.25232235f, -0.03319787f,
    0.32935223f, -0.06601969f, 0.21091594f, 0.08538941f, -0.13511918f, -0.36852145f, 0.04046554f, -0.09494221f,
    -0.28145012f, -0.04952142f, 0.25469702f, 0.06980037f, 0.18839672f, 0.00500411f, -0.17227104f, -0.01165898f,
    -0.04043982f, 0.07801214f, 0.09804214f, 0.03165071f, 0.16404942f, 0.28965557f, -0.12733455f, -0.13080761f,
    0.25632334f, 0.10020133f, 0.07490558f, 0.23611899f, 0.05232669f, -0.04674886f, -0.09913632f, -0.01939308f,
    -0.41816944f, 0.18914562f, 0.05834239f, -0.17295767f, 0.17974165f, 0.25908434f, -0.02412926f, -0.06537855f,
    0.29606110f, -0.09659474f, -0.12477730f, -0.13069414f, -0.46477202f, 0.10832873f, 0.21717437f, -0.02571726f,
    -0.24813785f, 0.24782534f, -0.15307641f, -0.13280885f, -0.09915099f, -0.17868292f, -0.12461881f, -0.17982769f,
    -0.10493930f, -0.06072582f, -0.06458297f, 0.08051246f, -0.08456850f, -0.03220984f, 0.15907460f, 0.12583637f,
    0.03968623f, -0.02427074f, 0.14929518f, -0.04995948f, 0.05987461f, -0.15832935f, -0.14940333f, -0.08323685f,
    -0.09866267f, 0.12913695f, 0.08835527f, 0.09675556f, 0.13850588f, 0.11682227f, 0.09889701f, -0.00627284f,
    0.03589739f, -0.04145843f, -0.05636603f, 0.14369991f, -0.15113026f, 0.07661577f, -0.06938801f, -0.03938618f,
    -0.05787509f, 0.12906098f, 0.13795120f, -0.05728361f, -0.06585908f, 0.12350622f, 0.07244241f, -0.06898588f,
    0.12354121f, 0.03752385f, -0.15471750f, -0.08443396f, -0.05475886f, 0.10020384f, -0.06548569f, -0.03459002f,
    0.12008709f, -0.16983642f, -0.09899609f, 0.10733730f, 0.07577437f, 0.12640107f, -0.09930506f, 0.13709587f,
    -0.09753077f, 0.05069093f, 0.08598524f, 0.11737823f, 0.02760690f, -0.16592702f, 0.10795650f, 0.14925057f,
    -0.00274280f, -0.06670848f, 0.09278008f, -0.09522677f, -0.07283927f, -0.15928599f, -0.02115583f, -0.06054305f,
    -0.04650939f, -0.06741025f, -0.02028157f, -0.07867975f, 0.17134684f, -0.11022440f, 0.13163349f, 0.12374184f,
    0.06482129f, 0.00793336f, 0.06645992f, -0.12964538f, -0.07559011f, -0.03252026f, 0.06653805f, 0.16514245f,
    -0.00843869f, -0.04857381f, -0.10956273f, 0.00160895f, -0.06647616f, 0.11750254f, -0.04850361f, -0.16195834f,
    -0.01440814f, -0.15598902f, -0.13541505f, -0.10321548f, -0.10731036f, 0.13368011f, 0.16392574f, -0.31952250f,
    -0.06721556f, -0.30315629f, -0.14893143f, 0.47223946f, -0.89199835f, 0.16652288f, 0.17383207f, -0.26369554f,
    -0.16604303f, -0.21835305f, -0.40135926f, 0.03893162f, 0.21623005f, -0.16509555f, -0.08051055f, 0.42197537f,
    0.19472060f, -0.08868362f, -0.11311945f, -0.04800236f, 0.31676298f, 0.10070445f, -0.12494501f, 0.49373704f,
    -0.06710726f, 0.45284861f, -0.00181465f, 0.06996422f, 0.23428039f, 0.26228145f, -0.12388313f, 0.01430347f,
    0.16931887f, -0.07303930f, 0.07804137f, 0.51212162f, -0.41626641f, -0.08251781f, 0.35572103f, 0.15067296f,
    -0.08638275f, -0.38285619f, 0.04102023f, -0.07161041f, -0.04939664f, -0.17198454f, 0.01540169f, -0.25003579f,
    -0.17841735f, -0.07188559f, 0.33982930f, -0.10918780f, 0.61449987f, 0.27875766f, 0.42399251f, -0.27891260f,
    -0.08842841f, 0.15971412f, 0.29474542f, 0.10989188f, 0.34916320f, 0.03536298f, -0.12386268f, -0.03471918f,
    0.07820137f, -0.51895696f, -0.96115583f, -0.46938723f, 0.32388660f, -0.26764604f, 0.11683844f, -0.01869324f,
    -0.38395008f, 0.52451730f, 0.72163570f, 0.06280641f, -0.00533843f, -0.48277199f, -0.12485781f, -0.19644131f,
    -0.38210025f, -0.08045635f, -0.19977741f, -0.03204954f, -0.18189289f, 0.05747501f, -0.00316699f, -0.03234915f,
    0.14340059f, -0.37392884f, 0.13227020f, 0.15297703f, 0.11407303f, -0.07171673f, -0.19000877f, 0.18505655f,
    -0.04571824f, -0.33111310f, 0.13320704f, -0.18664566f, 0.19674104f, -0.31405881f, 0.11197465f, 0.30388016f,
    -0.31373513f, 0.12329794f, 0.35816813f, -0.15032011f, 0.12739751f, -0.02178680f, -0.57797199f, -0.06394278f,
    -0.16846257f, 0.03272428f, -0.12075883f, -0.57471746f, 0.07111447f, -0.05210878f, 0.06678618f, -0.02131500f,
    0.24134184f, -0.27762774f, 0.05137547f, -0.26076794f, 0.09961011f, -0.02037447f, 0.38185912f, 0.09000977f,
    -0.13057138f, 0.26507503f, 0.33088017f, 0.04496278f, 0.05435088f, -0.42540285f, 0.03866605f, -0.23315032f,
    -0.17493288f, 0.06511535f, -0.19157949f, -0.06328624f, -0.11474674f, -0.17440529f, 0.14517492f, 0.25318146f,
    0.08965551f, 0.41746560f, 0.07044290f, 0.06464510f, 0.64497995f, -0.08439478f, -0.06110194f, -0.30196360f,
    0.12697943f, 0.21950881f, -0.20835122f, -0.38900578f, 0.01341241f, -0.01479757f, 0.42679575f, -0.10954794f,
    -0.35051823f, -0.48809716f, -0.22892199f, -0.09519380f, -0.00714379f, 0.12319931f, 0.02744560f, -0.20677410f,
    0.19099317f, -0.00751916f, -0.09096212f, -0.52297401f, 0.16602002f, 0.37444684f, 0.22885062f, 0.08797854f,
    -0.26266667f, 0.08926419f, 0.23126081f, -0.15249020f, -0.07487284f, -0.21450225f, -0.01754017f, 0.17143250f,
    0.36229801f, 0.12070858f, -0.15313703f, 0.22069179f, 0.21423744f, 0.05597381f, 0.05519761f, 0.08160001f,
    -0.41723347f, 0.26307938f, -0.10892975f, -0.47251648f, -0.02678854f, 0.28356048f, 0.41193837f, -0.17559020f,
    0.04683856f, -0.03935567f, 0.01988837f, -0.13005805f, -0.30459532f, -0.32668704f, -0.18734691f, 0.12506653f,
    -0.02397352f, -0.00035347f, 0.13230710f, 0.26187336f, 0.19306916f, 0.25722310f, 0.04019994f, -0.26233807f,
    -0.18267243f, 0.06123952f, 0.00468226f, 0.03446477f, -0.32451621f, -0.10033995f, 0.08101809f, 0.09716761f,
    -0.11222544f, 0.00869479f, 0.03761897f, 0.30972123f, 0.04927677f, 0.19616851f, 0.38460705f, 0.03104809f,
    0.13557157f, -0.06727540f, -0.07081191f, 0.01835793f, 0.08496873f, 0.01004988f, -0.37090635f, -0.19878691f,
    0.00172244f, -0.01398522f, -0.02725857f, -0.01137438f, -0.05293856f, 0.30222878f, -0.06722452f, -0.31669804f,
    0.03544270f, -0.14304979f, 0.11687189f, 0.16588144f, -0.15645920f, 0.14813961f, 0.37539947f, 0.00548720f,
    0.11869914f, 0.43246046f, -0.06777408f, 0.30832285f, 0.15272245f, 0.20308846f, -0.19932933f, -0.05779892f,
    -0.09729816f, -0.11465438f, -0.15984878f, -0.15761690f, 0.03826772f, -0.01438443f, 0.16229232f, 0.18921587f,
    0.00186661f, -0.20932634f, -0.31824219f, -0.10747612f, -0.11463582f, -0.04734741f, -0.09322503f, 0.05210162f,
    0.07431441f, 0.08384598f, 0.00492730f, -0.34610790f, 0.19055007f, -0.06899565f, 0.12910360f, 0.11185256f,
    0.08948322f, -0.13672444f, -0.04900223f, -0.12324345f, -0.24159399f, -0.03558994f, -0.03909745f, 0.25208288f,
    -0.08214845f, -0.05530266f, 0.19103545f, 0.11955859f, -0.04947922f, 0.13205922f, -0.01406813f, 0.16858919f,
    0.26306826f, -0.05486324f, -0.05697963f, -0.08335993f, -0.05398665f, 0.04103005f, 0.14372919f, -0.16595118f,
    -0.15900274f, -0.10443412f, 0.02972136f, 0.03846538f, 0.07817135f, -0.09742623f, 0.06685991f, 0.15845403f,
    0.09342220f, 0.18014565f, 0.11930513f, -0.08342794f, 0.08308057f, 0.12844335f, 0.12594730f, 0.12166084f,
    0.15983580f, 0.13094369f, 0.00427211f, -0.09284592f, 0.04413094f, -0.11446355f, 0.09586093f, -0.00455337f,
    -0.03970653f, 0.08883551f, 0.05383210f, 0.12165082f, 0.14529224f, 0.00532154f, -0.05723979f, 0.04958795f,
    -0.20439929f, 0.06932382f, -0.01246531f, 0.06513651f, -0.01859628f, -0.00678315f, 0.03116614f, 0.04699739f,
    0.17334886f, 0.11770893f, 0.15982823f, -0.12942356f, -0.06511167f, -0.14071403f, -0.17313422f, -0.17533638f,
    0.16396332f, 0.03770917f, 0.17348750f, -0.11352552f, 0.10361651f, -0.14825712f, 0.21448563f, 0.22390871f,
    0.09703129f, -0.08821280f, -0.03499668f, -0.18135768f, 0.05622798f, 0.14753473f, 0.19290917f, -0.07934972f,
    0.12261948f, -0.04151408f, -0.12226628f, 0.12526073f, -0.11765371f, -0.12052118f, -0.01936759f, 0.03385597f,
    0.12171841f, -0.05700690f, -0.29713488f, -0.15088987f, 0.13634358f, 0.05759968f, -0.00696330f, 0.03856388f,
    0.02837778f, 0.24191509f, 0.04692026f, -0.02661461f, -0.17139943f, -0.04252767f, 0.02486931f, 0.10776947f,
    0.03892880f, -0.23706248f, -0.03814483f, -0.12476776f, -0.02445430f, -0.16167378f, -0.06127466f, -0.11378857f,
    0.11073249f, 0.10081733f, 0.12184114f, -0.16158481f, 0.16625166f, 0.19626784f, -0.14721525f, 0.04032598f,
    -0.19357328f, -0.17090085f, 0.13905156f, 0.20216185f, -0.02619007f, 0.09527873f, 0.05958857f, -0.27294797f,
    -0.04395323f, 0.11604877f, 0.18042842f, 0.16897918f, -0.03772555f, 0.02486673f, 0.23626778f, 0.15749317f,
    0.07150528f, 0.12183879f, 0.11994825f, 0.05517397f, -0.08500960f, 0.12171078f, -0.41470906f, -0.21871211f,
    -0.03422484f, 0.03999484f, 0.00386619f, 0.03857704f, 0.00834637f, 0.02968858f, 0.09287121f, -0.01560951f,
    0.18731433f, 0.03929440f, 0.17191488f, 0.18738113f, 0.03422245f, -0.00991653f, 0.13329981f, -0.11078813f,
    -0.18772002f, 0.08666559f, -0.23200606f, 0.09408537f, -0.10059741f, 0.14967965f, -0.18593444f, -0.18921390f,
    0.14572892f, 0.10856688f, -0.09061628f, -0.02809726f, -0.11307056f, 0.13262381f, -0.06772874f, -0.18538016f,
    0.11008348f, 0.16985658f, 0.17226076f, -0.09955663f, 0.08378445f, 0.05068528f, -0.15809762f, -0.08505581f,
    -0.13520929f, -0.13199437f, -0.05892728f, 0.06210709f, -0.11773809f, -0.07329441f, 0.03885775f, -0.04666525f,
    0.10247916f, 0.13335599f, -0.02263053f, 0.10375202f, 0.09865506f, -0.02547711f, -0.10935525f, 0.01222842f,
    -0.00648092f, -0.08640844f, -0.11961252f, -0.00469390f, 0.14001197f, -0.10674733f, -0.24093294f, 0.07861628f,
    0.02853383f, 0.01746537f, 0.17217432f, 0.26412988f, -0.09294167f, -0.08385119f, -0.22525546f, 0.23783250f,
    0.00179446f, 0.23087685f, -0.09254797f, -0.04809774f, -0.02066084f, 0.01825009f, 0.14572664f, 0.15432663f,
    0.13895644f, -0.00998204f, -0.10176399f, -0.12749049f, 0.07660140f, 0.06581645f, -0.01849669f, -0.01316668f,
    0.17900828f, -0.03297042f, 0.04122669f, -0.12128825f, -0.01198757f, -0.16014159f, -0.19538756f, 0.13582017f,
    0.21540692f, -0.14647925f, 0.03801232f, -0.10743301f, -0.24735668f, 0.03228630f, -0.16912214f, -0.10899129f,
    -0.13409707f, 0.10135958f, 0.07765590f, 0.02939582f, -0.12457411f, 0.09268443f, -0.00722342f, 0.06630623f,
    0.09688448f, -0.01531052f, -0.15032892f, 0.06960548f, -0.02332238f, -0.00970064f, 0.14817291f, 0.06658665f,
    0.11222178f, 0.22818863f, 0.04548721f, -0.01134705f, 0.15158360f, -0.20632124f, -0.18167692f, 0.17926517f,
    -0.01441937f, -0.26877761f, 0.07370427f, -0.18280850f, -0.13337503f, 0.13894552f, -0.01515120f, -0.07472617f,
    0.23648384f, -0.10405399f, -0.23665692f, 0.20989823f, -0.20958239f, -0.09287385f, -0.03609240f, -0.06514373f,
    -0.08893268f, -0.10142338f, -0.25332499f, -0.12301373f, -0.09902743f, 0.11476401f, -0.16071291f, 0.07053752f,
    0.02837596f, -0.08348161f, 0.08372021f, -0.04953289f, 0.12234825f, 0.02763931f, 0.05717355f, 0.53059393f,
    -0.00849493f, -0.06234523f, -0.02387728f, -0.04977079f, 0.24769861f, 0.10448854f, 0.25599277f, 0.31767437f,
    -0.13118482f, 0.24046488f, 0.25855988f, 0.26549339f, -0.36504146f, 0.09591217f, 0.01253731f, -0.04807682f,
    0.39079186f, -0.10143757f, 0.16221847f, 0.23173709f, -0.09817746f, 0.31740442f, -0.12688236f, -0.13130656f,
    -0.21469215f, -0.02448398f, -0.20634259f, -0.13630195f, -0.07156608f, -0.08037841f, -0.00201122f, -0.06842615f,
    0.14478254f, 0.23401414f, -0.01024847f, -0.26664865f, 0.45558909f, -0.04973813f, -0.04246223f, 0.10182010f,
    0.16462983f, 0.13995916f, -0.47753131f, 0.00435003f, -0.05630078f, -0.28369468f, -0.05576701f, -0.09896520f,
    0.07843260f, 0.08192227f, -0.00683044f, 0.41072571f, -0.22737488f, 0.36633039f, -0.18959782f, 0.00528858f,
    0.06411691f, 0.17182846f, -0.11587031f, 0.05167050f, -0.10428111f, 0.18352933f, -0.09983415f, -0.36736366f,
    0.08458095f, 0.44172430f, 0.50345159f, 0.33188188f, -0.10503879f, 0.38087201f, 0.07521775f, 0.45863083f,
    -0.05248896f, 0.16957588f, -0.11948425f, -0.13818678f, -0.01988388f, 0.32685071f, 0.10816392f, 0.03394456f,
    0.31239739f, 0.08956771f, 0.06263647f, -0.11310007f, -0.36783943f, -0.14695704f, -0.46244779f, -0.42384928f,
    -0.19062467f, 0.28031677f, 0.09362835f, -0.09775239f, -0.18429279f, -0.11347611f, 0.19527869f, -0.22645988f,
    -0.07868086f, 0.27538794f, 0.31492120f, -0.21333721f, 0.09849746f, 0.24602699f, -0.18489052f, 0.09639470f,
    0.35292488f, 0.18959174f, -0.24029812f, -0.13446541f, -0.00185750f, -0.19572723f, -0.07319390f, 0.28593829f,
    -0.01377558f, -0.25362524f, 0.00070895f, 0.15330106f, 0.12615919f, 0.01451119f, -0.01568474f, -0.20058547f,
    -0.30112436f, -0.35966617f, 0.14119491f, 0.09153483f, -0.23125078f, 0.11791027f, 0.25524512f, 0.00169145f,
    -0.05568663f, -0.06467737f, 0.10789676f, 0.12289643f, -0.12052858f, -0.08050467f, 0.06616379f, -0.11933587f,
    -0.37452596f, -0.04286878f, -0.88273102f, -0.06806237f, -0.22358139f, 0.01411910f, -0.00912007f, -0.09218191f,
    0.12147784f, 0.40829688f, 0.04959052f, 0.17099524f, 0.01047713f, -0.17735237f, -0.30687770f, -0.07498030f,
    0.14450851f, 0.30497709f, -0.05895026f, -0.26535711f, 0.18349449f, -0.00896192f, -0.46021301f, 0.07848258f,
    -0.01959571f, -0.11224804f, 0.02899138f, 0.16853032f, -0.15309361f, 0.23142333f, -0.10671939f, 0.33855969f,
    -0.29013428f, -0.09348153f, 0.04974451f, 0.16155152f, 0.11543972f, 0.08694348f, -0.17155837f, 0.09350696f,
    0.01012458f, 0.14200476f, 0.02928600f, 0.13593356f, 0.04848434f, -0.20194042f, 0.01814561f, 0.25167114f,
    0.28253254f, -0.04316364f, -0.06899597f, 0.50849676f, 0.42912126f, -0.20221341f, -0.10445584f, -0.06660743f,
    -0.04422323f, 0.00598862f, -0.38209176f, 0.18633486f, 0.12600589f, 0.09050992f, -0.17539714f, -0.16442005f,
    0.11904378f, -0.00133312f, 0.10459326f, 0.14858444f, -0.20707029f, 0.15233327f, 0.00304190f, 0.04614992f,
    0.02225758f, -0.03915444f, 0.09442335f, 0.18401212f, 0.17469873f, -0.05753738f, -0.15131725f, 0.02869310f,
    0.18527733f, -0.09842858f, -0.14909603f, 0.09930995f, -0.07946383f, -0.28606924f, 0.05645275f, -0.20112683f,
    0.15280789f, 0.02356038f, -0.16794029f, -0.09537824f, 0.00249403f, 0.08507787f, 0.03054023f, 0.08125243f,
    -0.11653334f, 0.15586051f, 0.13083751f, 0.14229715f, -0.10219429f, 0.15831220f, -0.08119065f, 0.13968030f,
    0.07654524f, -0.00944295f, -0.00836034f, 0.09693741f, 0.07425362f, 0.06542581f, -0.11080313f, 0.08045886f,
    0.00314531f, 0.11797448f, 0.08280579f, 0.09649821f, 0.11366760f, 0.06407224f, -0.14136140f, 0.14732161f,
    0.13609946f, 0.10654588f, 0.16118638f, -0.16242462f, 0.01928938f, -0.06951819f, 0.11387678f, -0.00863124f,
    -0.00076537f, -0.19166373f, -0.04622990f, -0.15472887f, 0.06588067f, 0.03870796f, -0.01921734f, 0.06699964f,
    -0.10651367f, -0.12717870f, 0.00076270f, 0.04039954f, -0.16272850f, -0.13219297f, -0.14003003f, 0.00293700f,
    -0.27008551f, 0.02327493f, 0.06316163f, -0.04713613f, 0.02065453f, 0.07455007f, -0.04610096f, -0.21262795f,
    0.01599647f, 0.19641505f, 0.18389711f, 0.04185362f, 0.33340427f, 0.13749194f, -0.82797700f, 0.07730425f,
    -0.09785774f, -0.08948503f, 0.04815970f, -0.06342030f, -0.03959794f, -0.08373152f, -0.07661746f, 0.10582814f,
    0.09095213f, -0.16305341f, -0.15909633f, 0.01242799f, -0.13729456f, 0.02605441f, 0.14212975f, 0.16183960f,
    -0.15269312f, 0.02196431f, -0.03139801f, -0.01919141f, -0.03691834f, -0.13477921f, 0.00219749f, 0.03774342f,
    0.09383893f, -0.12153717f, 0.08488280f, 0.04900394f, -0.14198929f, 0.06261776f, 0.06119560f, -0.09849741f,
    0.03742288f, -0.00766990f, 0.15281510f, 0.07042395f, 0.02080391f, -0.05212397f, 0.12201646f, 0.10443798f,
    -0.01347920f, 0.05419560f, -0.14600633f, 0.03493872f, 0.13828447f, 0.01907447f, 0.06204902f, 0.13903058f,
    -0.10110776f, -0.13888249f, 0.08449346f, 0.04891285f, -0.00290695f, -0.13096361f, 0.01583171f, 0.03076430f,
    0.08296537f, -0.04202057f, -0.07394429f, 0.02146968f, -0.15871562f, 0.07448605f, -0.00737724f, 0.12598258f,
    -0.14952618f, 0.16340503f, 0.00507411f, -0.11123919f, -0.09229390f, 0.03221595f, 0.11959836f, 0.06497099f,
    0.06218021f, -0.03323819f, 0.12646532f, -0.15435547f, -0.06012931f, 0.14056051f, 0.09386516f, -0.15468636f,
    -0.04803073f, -0.08844192f, -0.03968942f, -0.06713139f, 0.05965817f, 0.08255410f, -0.00056835f, -0.04605752f,
    0.09715495f, -0.12508179f, -0.11998884f, 0.06961592f, -0.08598530f, -0.06786682f, -0.04758602f, 0.03370804f,
    0.09745684f, -0.02602501f, 0.00896893f, -0.03878051f, 0.11745544f, 0.02826560f, -0.06055335f, 0.18817104f,
    -0.08200442f, -0.15043983f, -0.15041597f, 0.01623873f, 0.13764256f, 0.02782381f, -0.07289317f, 0.04265132f,
    0.06665305f, 0.08780427f, -0.16360609f, -0.15140450f, -0.22161406f, -0.01470827f, -0.08095268f, 0.00108506f,
    -0.07972555f, 0.05513569f, 0.23266198f, 0.18683402f, 0.18117289f, -0.00532924f, -0.01856606f, 0.19032876f,
    0.19264163f, 0.06663921f, 0.06947524f, 0.03988529f, 0.03016517f, 0.14984769f, 0.07186878f, 0.00368991f,
    0.07336854f, -0.07419828f, 0.10385612f, 0.12212326f, 0.27687734f, -0.11953332f, 0.25059214f, -0.01681344f,
    -0.19795874f, -0.13222225f, 0.10082529f, 0.24962153f, 0.00345718f, -0.08434059f, 0.09598912f, -0.00438197f,
    0.03463771f, -0.14896117f, -0.17744596f, -0.26272419f, 0.06146816f, -0.12610236f, 0.03703241f, -0.17710537f,
    -0.14230713f, -0.18362556f, -0.02537171f, -0.00627974f, 0.24030803f, 0.05401419f, 0.00190859f, -0.03877247f,
    -0.10938545f, -0.12044156f, 0.04327475f, -0.10305398f, -0.00467822f, 0.03111632f, -0.00576211f, -0.04748839f,
    0.00528990f, 0.01540799f, -0.05729647f, -0.02528858f, 0.15313664f, 0.04274632f, 0.04688052f, 0.21553232f,
    0.10486995f, 0.13392042f, -0.19050342f, -0.10774632f, -0.10009227f, 0.02406059f, -0.02487173f, 0.18714099f,
    0.05754686f, -0.21713082f, -0.06531119f, 0.07637308f, -0.13081495f, 0.12114636f, -0.12201184f, -0.04145617f,
    -0.06127251f, 0.16664454f, 0.04975513f, 0.16543363f, -0.14959979f, -0.06226925f, 0.01735172f, 0.21025176f,
    -0.20173390f, -0.36693415f, 0.11640231f, 0.01008065f, -0.01648509f, -0.00153563f, 0.15064780f, 0.12219454f,
    -0.23787235f, 0.20528664f, -0.02404351f, 0.01023098f, 0.08411496f, 0.12828867f, 0.04283016f, -0.22840995f,
    0.12194661f, 0.34446701f, 0.06697339f, -0.10704411f, -0.25251248f, -0.15106887f, -0.06654120f, 0.07354677f,
    -0.09567714f, 0.16945940f, -0.15954018f, 0.04458975f, 0.01550518f, 0.01306200f, 0.17692241f, -0.03321559f,
    -0.13124192f, 0.01987465f, -0.61783254f, 0.18583314f, -0.10155766f, -0.05524373f, -0.00135856f, -0.03080812f,
    -0.26500502f, -0.31852609f, -0.12722403f, -0.21269938f, 0.17849928f, 0.18033387f, 0.01675495f, 0.02880671f,
    0.05021645f, 0.04466875f, -0.15797850f, -0.00313766f, -0.19132821f, -0.09977496f, 0.10504184f, 0.15282689f,
    0.03729621f, 0.08548183f, 0.20603935f, -0.20863715f, 0.15820479f, -0.20769525f, 0.16236091f, 0.26136807f,
    0.25555396f, -0.16256112f, -0.06437801f, -0.03051579f, -0.16865925f, 0.10142668f, 0.05495185f, 0.03400268f,
    0.17026439f, -0.31820276f, 0.01476379f, 0.12851252f, -0.11597899f, -0.08078902f, 0.00771429f, -0.16275515f,
    -0.15627177f, -0.08554623f, -0.00209617f, -0.22206378f, 0.00251813f, -0.23916253f, -0.00918708f, -0.12159202f,
    -0.12181772f, -0.20376760f, 0.26596636f, -0.03045325f, -0.02226605f, -0.06218937f, -0.01251248f, -0.00134959f,
    -0.02186135f, -0.07199792f, 0.01663211f, -0.15374267f, -0.07388157f, -0.24288966f, 0.19133617f, -0.17206411f,
    -0.05133644f, -0.38029000f, 0.13096234f, 0.01753167f, -0.05821479f, -0.11965286f, 0.05269930f, 0.14718269f,
    -0.09545051f, 0.08603650f, -0.15867607f, -0.05735521f, 0.02614217f, 0.01852623f, -0.06851333f, 0.14014184f,
    0.07080571f, 0.11782502f, 0.16668132f, -0.09323572f, -0.17782770f, -0.01751428f, 0.13567983f, -0.07439609f,
    -0.14733675f, -0.08214360f, 0.07435995f, -0.11562937f, -0.14246479f, -0.02555795f, -0.11869503f, -0.02964074f,
    0.18318515f, 0.06823142f, -0.00284044f, -0.17865889f, -0.08352660f, -0.19812325f, -0.05511089f, 0.03645626f,
    0.18579638f, -0.01873017f, 0.08155183f, 0.15653358f, -0.08347105f, 0.00038326f, -0.01826697f, 0.05616862f,
    0.00773254f, -0.04335054f, -0.11625292f, -0.11960335f, -0.04575391f, -0.03154735f, -0.03155237f, -0.12811539f,
    -0.03889555f, 0.11555061f, -0.16901508f, -0.14267114f, -0.02207891f, 0.01783356f, -0.02233631f, -0.09388120f,
    0.18912268f, -0.09550522f, -0.12472939f, 0.05692877f, 0.07630803f, 0.02342838f, 0.06518393f, -0.13301937f,
    -0.17555282f, 0.09532619f, -0.17702913f, -0.10133208f, 0.15917009f, 0.01624574f, 0.00399721f, 0.17964445f,
    0.14760998f, -0.10610491f, 0.01146955f, 0.01035178f, 0.12837236f, 0.02297237f, -0.17767099f, 0.08259100f,
    -0.05523494f, 0.08129228f, 0.09240074f, 0.11608943f, 0.12876035f, -0.03595182f, 0.05542831f, -0.12371854f,
